booster[0]:
0:[f7<0.534510493] yes=1,no=2,missing=1
	1:[f6<0.227700368] yes=3,no=4,missing=3
		3:[f1<10.0901375] yes=7,no=8,missing=7
			7:leaf=0.0872756168
			8:leaf=0.0997599065
		4:[f0<0.0571439564] yes=9,no=10,missing=9
			9:leaf=0.0792858824
			10:leaf=-0.0517146774
	2:[f0<0.0698134899] yes=5,no=6,missing=5
		5:[f2<0.659777164] yes=11,no=12,missing=11
			11:leaf=0.0265573766
			12:leaf=-0.0642025992
		6:[f3<38.5500107] yes=13,no=14,missing=13
			13:leaf=-0.0964830145
			14:leaf=0.086666666
booster[1]:
0:[f7<0.534510493] yes=1,no=2,missing=1
	1:[f6<0.227700368] yes=3,no=4,missing=3
		3:[f1<10.0901375] yes=7,no=8,missing=7
			7:leaf=-0.0872756168
			8:leaf=-0.0997599065
		4:[f0<0.0571439564] yes=9,no=10,missing=9
			9:leaf=-0.0792858824
			10:leaf=0.0517146774
	2:[f0<0.0698134899] yes=5,no=6,missing=5
		5:[f2<0.659777164] yes=11,no=12,missing=11
			11:leaf=-0.0265573766
			12:leaf=0.0642025992
		6:[f3<38.5500107] yes=13,no=14,missing=13
			13:leaf=0.0964830145
			14:leaf=-0.086666666
booster[2]:
0:[f7<0.534054518] yes=1,no=2,missing=1
	1:[f6<0.216075629] yes=3,no=4,missing=3
		3:[f7<0.0809192359] yes=7,no=8,missing=7
			7:leaf=0.0907455608
			8:leaf=0.0800409615
		4:[f0<0.0670118928] yes=9,no=10,missing=9
			9:leaf=0.0712982491
			10:leaf=-0.0501334444
	2:[f0<0.0698134899] yes=5,no=6,missing=5
		5:[f7<0.838105142] yes=11,no=12,missing=11
			11:leaf=0.0270525571
			12:leaf=-0.0571623221
		6:[f3<17.0429516] yes=13,no=14,missing=13
			13:leaf=-0.0877238065
			14:leaf=0.0545435734
booster[3]:
0:[f7<0.534054518] yes=1,no=2,missing=1
	1:[f6<0.216075629] yes=3,no=4,missing=3
		3:[f7<0.0809192359] yes=7,no=8,missing=7
			7:leaf=-0.0907455608
			8:leaf=-0.0800409615
		4:[f0<0.0670118928] yes=9,no=10,missing=9
			9:leaf=-0.0712982491
			10:leaf=0.0501334444
	2:[f0<0.0698134899] yes=5,no=6,missing=5
		5:[f7<0.838105142] yes=11,no=12,missing=11
			11:leaf=-0.0270525571
			12:leaf=0.0571623147
		6:[f3<17.0429516] yes=13,no=14,missing=13
			13:leaf=0.0877238065
			14:leaf=-0.0545435734
booster[4]:
0:[f7<0.534054518] yes=1,no=2,missing=1
	1:[f6<0.215447426] yes=3,no=4,missing=3
		3:[f1<10.0905571] yes=7,no=8,missing=7
			7:leaf=0.0729178265
			8:leaf=0.0839398354
		4:[f0<0.0451658964] yes=9,no=10,missing=9
			9:leaf=0.0680111274
			10:leaf=-0.0380833708
	2:[f0<0.0826913416] yes=5,no=6,missing=5
		5:[f2<0.75362289] yes=11,no=12,missing=11
			11:leaf=0.0163147505
			12:leaf=-0.0593395345
		6:[f3<46.3479004] yes=13,no=14,missing=13
			13:leaf=-0.0811989382
			14:leaf=0.0813171118
booster[5]:
0:[f7<0.534054518] yes=1,no=2,missing=1
	1:[f6<0.215447426] yes=3,no=4,missing=3
		3:[f1<10.0901375] yes=7,no=8,missing=7
			7:leaf=-0.0729165301
			8:leaf=-0.0839398354
		4:[f0<0.0451658964] yes=9,no=10,missing=9
			9:leaf=-0.0680111274
			10:leaf=0.038083367
	2:[f0<0.0826913416] yes=5,no=6,missing=5
		5:[f2<0.75362289] yes=11,no=12,missing=11
			11:leaf=-0.016314758
			12:leaf=0.0593395494
		6:[f3<46.3479004] yes=13,no=14,missing=13
			13:leaf=0.0811989307
			14:leaf=-0.0813171118
booster[6]:
0:[f7<0.58851099] yes=1,no=2,missing=1
	1:[f7<0.277157694] yes=3,no=4,missing=3
		3:[f6<0.101990283] yes=7,no=8,missing=7
			7:leaf=0.0785909072
			8:leaf=0.0640837178
		4:[f0<0.0377423763] yes=9,no=10,missing=9
			9:leaf=0.0606544688
			10:leaf=-0.0375676639
	2:[f0<0.0698134899] yes=5,no=6,missing=5
		5:[f2<0.740292072] yes=11,no=12,missing=11
			11:leaf=0.0116450433
			12:leaf=-0.0543833487
		6:[f3<16.2269135] yes=13,no=14,missing=13
			13:leaf=-0.0760993063
			14:leaf=0.042196285
booster[7]:
0:[f7<0.58851099] yes=1,no=2,missing=1
	1:[f7<0.277157694] yes=3,no=4,missing=3
		3:[f6<0.101990283] yes=7,no=8,missing=7
			7:leaf=-0.0785909072
			8:leaf=-0.0640837178
		4:[f0<0.0377423763] yes=9,no=10,missing=9
			9:leaf=-0.0606544688
			10:leaf=0.0375676602
	2:[f0<0.0698134899] yes=5,no=6,missing=5
		5:[f2<0.740292072] yes=11,no=12,missing=11
			11:leaf=-0.0116450498
			12:leaf=0.0543833636
		6:[f3<16.2269135] yes=13,no=14,missing=13
			13:leaf=0.0760993138
			14:leaf=-0.042196285
booster[8]:
0:[f7<0.59256196] yes=1,no=2,missing=1
	1:[f7<0.262185216] yes=3,no=4,missing=3
		3:[f1<8.06475258] yes=7,no=8,missing=7
			7:leaf=0.0587470047
			8:leaf=0.0743359029
		4:[f0<0.1427809] yes=9,no=10,missing=9
			9:leaf=0.0497876629
			10:leaf=-0.0543718114
	2:[f0<0.122984886] yes=5,no=6,missing=5
		5:[f7<0.875526726] yes=11,no=12,missing=11
			11:leaf=0.00644624
			12:leaf=-0.0506264269
		6:[f3<46.3479004] yes=13,no=14,missing=13
			13:leaf=-0.0723903999
			14:leaf=0.0695132539
booster[9]:
0:[f7<0.59256196] yes=1,no=2,missing=1
	1:[f7<0.262185216] yes=3,no=4,missing=3
		3:[f1<8.06475258] yes=7,no=8,missing=7
			7:leaf=-0.058747001
			8:leaf=-0.0743359104
		4:[f0<0.1427809] yes=9,no=10,missing=9
			9:leaf=-0.0497876666
			10:leaf=0.0543718114
	2:[f0<0.122984886] yes=5,no=6,missing=5
		5:[f7<0.875526726] yes=11,no=12,missing=11
			11:leaf=-0.00644623954
			12:leaf=0.0506264232
		6:[f3<46.3479004] yes=13,no=14,missing=13
			13:leaf=0.0723904073
			14:leaf=-0.0695132613
booster[10]:
0:[f7<0.518141091] yes=1,no=2,missing=1
	1:[f6<0.185439184] yes=3,no=4,missing=3
		3:[f6<0.0586732179] yes=7,no=8,missing=7
			7:leaf=0.0711099729
			8:leaf=0.0625287965
		4:[f0<0.1427809] yes=9,no=10,missing=9
			9:leaf=0.0521764159
			10:leaf=-0.0523656011
	2:[f0<0.0484515429] yes=5,no=6,missing=5
		5:[f2<0.497710764] yes=11,no=12,missing=11
			11:leaf=0.033101853
			12:leaf=-0.0372584984
		6:[f1<53.5183487] yes=13,no=14,missing=13
			13:leaf=-0.0676096603
			14:leaf=0.0643975139
booster[11]:
0:[f7<0.518141091] yes=1,no=2,missing=1
	1:[f6<0.185439184] yes=3,no=4,missing=3
		3:[f6<0.0586732179] yes=7,no=8,missing=7
			7:leaf=-0.0711099729
			8:leaf=-0.0625287965
		4:[f0<0.1427809] yes=9,no=10,missing=9
			9:leaf=-0.0521764159
			10:leaf=0.0523656011
	2:[f0<0.0484515429] yes=5,no=6,missing=5
		5:[f2<0.497710764] yes=11,no=12,missing=11
			11:leaf=-0.0331018567
			12:leaf=0.0372585021
		6:[f1<53.5183487] yes=13,no=14,missing=13
			13:leaf=0.0676096603
			14:leaf=-0.0643975213
booster[12]:
0:[f7<0.59256196] yes=1,no=2,missing=1
	1:[f6<0.213811561] yes=3,no=4,missing=3
		3:[f1<10.0901375] yes=7,no=8,missing=7
			7:leaf=0.0557069071
			8:leaf=0.0681959316
		4:[f0<0.0353459716] yes=9,no=10,missing=9
			9:leaf=0.0533271991
			10:leaf=-0.0290966239
	2:[f0<0.122984886] yes=5,no=6,missing=5
		5:[f3<5.93393898] yes=11,no=12,missing=11
			11:leaf=-0.0279311147
			12:leaf=0.0658961311
		6:[f0<0.375941783] yes=13,no=14,missing=13
			13:leaf=-0.0541774221
			14:leaf=-0.0670981929
booster[13]:
0:[f7<0.59256196] yes=1,no=2,missing=1
	1:[f6<0.213811561] yes=3,no=4,missing=3
		3:[f1<10.0901375] yes=7,no=8,missing=7
			7:leaf=-0.0557069071
			8:leaf=-0.0681959316
		4:[f0<0.0353459716] yes=9,no=10,missing=9
			9:leaf=-0.0533272028
			10:leaf=0.0290966239
	2:[f0<0.122984886] yes=5,no=6,missing=5
		5:[f3<5.93393898] yes=11,no=12,missing=11
			11:leaf=0.0279311147
			12:leaf=-0.0658961385
		6:[f0<0.375941783] yes=13,no=14,missing=13
			13:leaf=0.0541774221
			14:leaf=0.0670981929
booster[14]:
0:[f7<0.480374843] yes=1,no=2,missing=1
	1:[f6<0.153098583] yes=3,no=4,missing=3
		3:[f6<0.0586732179] yes=7,no=8,missing=7
			7:leaf=0.0659146383
			8:leaf=0.0577422678
		4:[f0<0.0674081147] yes=9,no=10,missing=9
			9:leaf=0.0518850572
			10:leaf=-0.0348002017
	2:[f0<0.122962147] yes=5,no=6,missing=5
		5:[f7<0.838105142] yes=11,no=12,missing=11
			11:leaf=0.0187184475
			12:leaf=-0.0385108031
		6:[f3<46.3479004] yes=13,no=14,missing=13
			13:leaf=-0.0628913864
			14:leaf=0.0725708902
booster[15]:
0:[f7<0.480374843] yes=1,no=2,missing=1
	1:[f6<0.153098583] yes=3,no=4,missing=3
		3:[f6<0.0586732179] yes=7,no=8,missing=7
			7:leaf=-0.0659146383
			8:leaf=-0.0577422678
		4:[f0<0.0674081147] yes=9,no=10,missing=9
			9:leaf=-0.0518850647
			10:leaf=0.0348002017
	2:[f0<0.122962147] yes=5,no=6,missing=5
		5:[f7<0.838105142] yes=11,no=12,missing=11
			11:leaf=-0.0187184475
			12:leaf=0.0385107957
		6:[f3<46.3479004] yes=13,no=14,missing=13
			13:leaf=0.0628913864
			14:leaf=-0.0725708902
booster[16]:
0:[f7<0.612712741] yes=1,no=2,missing=1
	1:[f1<7.38429928] yes=3,no=4,missing=3
		3:[f0<0.0353526175] yes=7,no=8,missing=7
			7:leaf=0.0477566831
			8:leaf=-0.0251944009
		4:[f0<0.553793192] yes=9,no=10,missing=9
			9:leaf=0.0635518953
			10:leaf=0.0168966521
	2:[f0<0.042709887] yes=5,no=6,missing=5
		5:[f2<0.847221136] yes=11,no=12,missing=11
			11:leaf=0.00795238372
			12:leaf=-0.0482866392
		6:[f1<53.5183487] yes=13,no=14,missing=13
			13:leaf=-0.0604595356
			14:leaf=0.0613517538
booster[17]:
0:[f7<0.612712741] yes=1,no=2,missing=1
	1:[f1<7.38429928] yes=3,no=4,missing=3
		3:[f0<0.0353526175] yes=7,no=8,missing=7
			7:leaf=-0.0477566794
			8:leaf=0.0251944065
		4:[f0<0.553793192] yes=9,no=10,missing=9
			9:leaf=-0.0635518953
			10:leaf=-0.0168966465
	2:[f0<0.042709887] yes=5,no=6,missing=5
		5:[f2<0.847221136] yes=11,no=12,missing=11
			11:leaf=-0.00795237906
			12:leaf=0.0482866392
		6:[f1<53.5183487] yes=13,no=14,missing=13
			13:leaf=0.060459543
			14:leaf=-0.0613517463
booster[18]:
0:[f7<0.439800173] yes=1,no=2,missing=1
	1:[f6<0.153098583] yes=3,no=4,missing=3
		3:[f6<0.0586732179] yes=7,no=8,missing=7
			7:leaf=0.0622170269
			8:leaf=0.0530275591
		4:[f0<0.0326180458] yes=9,no=10,missing=9
			9:leaf=0.0516934656
			10:leaf=-0.0200783964
	2:[f0<0.122962147] yes=5,no=6,missing=5
		5:[f3<5.95264578] yes=11,no=12,missing=11
			11:leaf=-0.0168746971
			12:leaf=0.0561233275
		6:[f1<62.5180283] yes=13,no=14,missing=13
			13:leaf=-0.0585981123
			14:leaf=0.0792015642
booster[19]:
0:[f7<0.439800173] yes=1,no=2,missing=1
	1:[f6<0.153098583] yes=3,no=4,missing=3
		3:[f6<0.0586732179] yes=7,no=8,missing=7
			7:leaf=-0.0622170269
			8:leaf=-0.0530275591
		4:[f0<0.0326180458] yes=9,no=10,missing=9
			9:leaf=-0.0516934656
			10:leaf=0.0200783964
	2:[f0<0.122962147] yes=5,no=6,missing=5
		5:[f3<5.95264578] yes=11,no=12,missing=11
			11:leaf=0.0168746971
			12:leaf=-0.0561233275
		6:[f1<62.5180283] yes=13,no=14,missing=13
			13:leaf=0.0585981086
			14:leaf=-0.0792015642
booster[20]:
0:[f7<0.439800173] yes=1,no=2,missing=1
	1:[f1<8.80783939] yes=3,no=4,missing=3
		3:[f0<0.0478913486] yes=7,no=8,missing=7
			7:leaf=0.0474783815
			8:leaf=-0.0229741689
		4:[f0<0.576437473] yes=9,no=10,missing=9
			9:leaf=0.0605208166
			10:leaf=0.0234140363
	2:[f0<0.174116164] yes=5,no=6,missing=5
		5:[f2<0.504194975] yes=11,no=12,missing=11
			11:leaf=0.0195713323
			12:leaf=-0.0291810483
		6:[f3<46.3479004] yes=13,no=14,missing=13
			13:leaf=-0.0574010573
			14:leaf=0.0756000131
booster[21]:
0:[f7<0.439800173] yes=1,no=2,missing=1
	1:[f1<8.80783939] yes=3,no=4,missing=3
		3:[f0<0.0478913486] yes=7,no=8,missing=7
			7:leaf=-0.0474783815
			8:leaf=0.0229741707
		4:[f0<0.576437473] yes=9,no=10,missing=9
			9:leaf=-0.0605208166
			10:leaf=-0.0234140363
	2:[f0<0.174116164] yes=5,no=6,missing=5
		5:[f2<0.504194975] yes=11,no=12,missing=11
			11:leaf=-0.0195713323
			12:leaf=0.0291810483
		6:[f3<46.3479004] yes=13,no=14,missing=13
			13:leaf=0.0574010573
			14:leaf=-0.0756000131
booster[22]:
0:[f7<0.431854129] yes=1,no=2,missing=1
	1:[f6<0.123072505] yes=3,no=4,missing=3
		3:[f6<0.0565695837] yes=7,no=8,missing=7
			7:leaf=0.0594894551
			8:leaf=0.0504071526
		4:[f0<0.160502672] yes=9,no=10,missing=9
			9:leaf=0.0423931256
			10:leaf=-0.0490000546
	2:[f0<0.174116164] yes=5,no=6,missing=5
		5:[f1<17.6608963] yes=11,no=12,missing=11
			11:leaf=-0.0131499385
			12:leaf=0.068853423
		6:[f3<16.2269135] yes=13,no=14,missing=13
			13:leaf=-0.0558604188
			14:leaf=0.0454656594
booster[23]:
0:[f7<0.431854129] yes=1,no=2,missing=1
	1:[f6<0.123072505] yes=3,no=4,missing=3
		3:[f6<0.0565695837] yes=7,no=8,missing=7
			7:leaf=-0.0594894551
			8:leaf=-0.0504071526
		4:[f0<0.160502672] yes=9,no=10,missing=9
			9:leaf=-0.0423931256
			10:leaf=0.0490000546
	2:[f0<0.174116164] yes=5,no=6,missing=5
		5:[f1<17.6608963] yes=11,no=12,missing=11
			11:leaf=0.0131499367
			12:leaf=-0.068853423
		6:[f3<16.2269135] yes=13,no=14,missing=13
			13:leaf=0.0558604114
			14:leaf=-0.0454656631
booster[24]:
0:[f7<0.369671106] yes=1,no=2,missing=1
	1:[f1<10.0901375] yes=3,no=4,missing=3
		3:[f0<0.05253461] yes=7,no=8,missing=7
			7:leaf=0.0464815535
			8:leaf=-0.0207083132
		4:[f1<24.5126171] yes=9,no=10,missing=9
			9:leaf=0.0528267287
			10:leaf=0.0586096831
	2:[f0<0.174116164] yes=5,no=6,missing=5
		5:[f7<0.836273551] yes=11,no=12,missing=11
			11:leaf=0.0167155545
			12:leaf=-0.0303915981
		6:[f1<62.2475967] yes=13,no=14,missing=13
			13:leaf=-0.0542620681
			14:leaf=0.0742750391
booster[25]:
0:[f7<0.369671106] yes=1,no=2,missing=1
	1:[f1<10.0901375] yes=3,no=4,missing=3
		3:[f0<0.05253461] yes=7,no=8,missing=7
			7:leaf=-0.0464815535
			8:leaf=0.0207083132
		4:[f1<24.5191994] yes=9,no=10,missing=9
			9:leaf=-0.0528277345
			10:leaf=-0.0586096756
	2:[f0<0.174116164] yes=5,no=6,missing=5
		5:[f7<0.836273551] yes=11,no=12,missing=11
			11:leaf=-0.0167155508
			12:leaf=0.0303915944
		6:[f1<62.2475967] yes=13,no=14,missing=13
			13:leaf=0.0542620681
			14:leaf=-0.0742750391
booster[26]:
0:[f7<0.368456125] yes=1,no=2,missing=1
	1:[f6<0.101990283] yes=3,no=4,missing=3
		3:[f6<0.0565695837] yes=7,no=8,missing=7
			7:leaf=0.0574076772
			8:leaf=0.0482222401
		4:[f0<0.0735349655] yes=9,no=10,missing=9
			9:leaf=0.0436463691
			10:leaf=-0.0312562585
	2:[f0<0.0429445803] yes=5,no=6,missing=5
		5:[f2<0.840172112] yes=11,no=12,missing=11
			11:leaf=0.018503515
			12:leaf=-0.0383352302
		6:[f1<17.9381599] yes=13,no=14,missing=13
			13:leaf=-0.0509662218
			14:leaf=0.0421122611
booster[27]:
0:[f7<0.368456125] yes=1,no=2,missing=1
	1:[f6<0.101990283] yes=3,no=4,missing=3
		3:[f6<0.0565695837] yes=7,no=8,missing=7
			7:leaf=-0.0574076772
			8:leaf=-0.0482222401
		4:[f0<0.0735349655] yes=9,no=10,missing=9
			9:leaf=-0.0436463691
			10:leaf=0.0312562585
	2:[f0<0.0429445803] yes=5,no=6,missing=5
		5:[f2<0.840172112] yes=11,no=12,missing=11
			11:leaf=-0.018503515
			12:leaf=0.0383352302
		6:[f1<17.9381599] yes=13,no=14,missing=13
			13:leaf=0.0509662218
			14:leaf=-0.0421122611
booster[28]:
0:[f2<0.022045739] yes=1,no=2,missing=1
	1:[f6<0.153098583] yes=3,no=4,missing=3
		3:[f6<0.0586732179] yes=7,no=8,missing=7
			7:leaf=0.0565731525
			8:leaf=0.0440705307
		4:[f0<0.0284552872] yes=9,no=10,missing=9
			9:leaf=0.0430873968
			10:leaf=-0.0159553271
	2:[f0<0.0850231946] yes=5,no=6,missing=5
		5:[f1<14.0541344] yes=11,no=12,missing=11
			11:leaf=-0.0153638944
			12:leaf=0.0562322326
		6:[f0<0.37351197] yes=13,no=14,missing=13
			13:leaf=-0.0334355608
			14:leaf=-0.0539231598
booster[29]:
0:[f2<0.022045739] yes=1,no=2,missing=1
	1:[f6<0.153098583] yes=3,no=4,missing=3
		3:[f6<0.0586732179] yes=7,no=8,missing=7
			7:leaf=-0.0565731488
			8:leaf=-0.0440705307
		4:[f0<0.0284552872] yes=9,no=10,missing=9
			9:leaf=-0.0430873968
			10:leaf=0.0159553271
	2:[f0<0.0850231946] yes=5,no=6,missing=5
		5:[f1<14.0541344] yes=11,no=12,missing=11
			11:leaf=0.0153638972
			12:leaf=-0.0562322326
		6:[f0<0.37351197] yes=13,no=14,missing=13
			13:leaf=0.0334355645
			14:leaf=0.0539231598
booster[30]:
0:[f7<0.324367404] yes=1,no=2,missing=1
	1:[f1<10.0901375] yes=3,no=4,missing=3
		3:[f0<0.0354224741] yes=7,no=8,missing=7
			7:leaf=0.0449554585
			8:leaf=-0.015703721
		4:[f1<20.3496037] yes=9,no=10,missing=9
			9:leaf=0.0482807718
			10:leaf=0.0559985936
	2:[f0<0.204789728] yes=5,no=6,missing=5
		5:[f3<12.8283234] yes=11,no=12,missing=11
			11:leaf=-0.00852666516
			12:leaf=0.0638059974
		6:[f0<0.446820259] yes=13,no=14,missing=13
			13:leaf=-0.0326402001
			14:leaf=-0.0528464131
booster[31]:
0:[f7<0.324367404] yes=1,no=2,missing=1
	1:[f1<10.0901375] yes=3,no=4,missing=3
		3:[f0<0.0354224741] yes=7,no=8,missing=7
			7:leaf=-0.0449554585
			8:leaf=0.0157037266
		4:[f1<20.3496037] yes=9,no=10,missing=9
			9:leaf=-0.0482807644
			10:leaf=-0.0559985824
	2:[f0<0.204789728] yes=5,no=6,missing=5
		5:[f3<12.8283234] yes=11,no=12,missing=11
			11:leaf=0.00852666609
			12:leaf=-0.0638059974
		6:[f0<0.446820259] yes=13,no=14,missing=13
			13:leaf=0.0326402001
			14:leaf=0.0528464131
booster[32]:
0:[f2<0.0223195776] yes=1,no=2,missing=1
	1:[f1<10.2317581] yes=3,no=4,missing=3
		3:[f0<0.0277481377] yes=7,no=8,missing=7
			7:leaf=0.0417561382
			8:leaf=-0.0152091058
		4:[f1<18.2727432] yes=9,no=10,missing=9
			9:leaf=0.043931745
			10:leaf=0.0553275645
	2:[f0<0.204789728] yes=5,no=6,missing=5
		5:[f3<6.82502508] yes=11,no=12,missing=11
			11:leaf=-0.0160745215
			12:leaf=0.0480873436
		6:[f7<0.0435978845] yes=13,no=14,missing=13
			13:leaf=0.0530060641
			14:leaf=-0.050754346
booster[33]:
0:[f2<0.0223195776] yes=1,no=2,missing=1
	1:[f1<10.2317581] yes=3,no=4,missing=3
		3:[f0<0.0277481377] yes=7,no=8,missing=7
			7:leaf=-0.0417561345
			8:leaf=0.0152091086
		4:[f1<18.2727432] yes=9,no=10,missing=9
			9:leaf=-0.0439317487
			10:leaf=-0.0553275645
	2:[f0<0.204789728] yes=5,no=6,missing=5
		5:[f3<6.82502508] yes=11,no=12,missing=11
			11:leaf=0.0160745215
			12:leaf=-0.0480873436
		6:[f7<0.0435978845] yes=13,no=14,missing=13
			13:leaf=-0.0530060641
			14:leaf=0.050754346
booster[34]:
0:[f7<0.324367404] yes=1,no=2,missing=1
	1:[f6<0.0808488131] yes=3,no=4,missing=3
		3:[f1<18.6526031] yes=7,no=8,missing=7
			7:leaf=0.0480604172
			8:leaf=0.0547441244
		4:[f0<0.052561909] yes=9,no=10,missing=9
			9:leaf=0.0423829518
			10:leaf=-0.0297096912
	2:[f0<0.276346266] yes=5,no=6,missing=5
		5:[f3<14.0109425] yes=11,no=12,missing=11
			11:leaf=-0.00802041963
			12:leaf=0.0605165474
		6:[f6<0.781419754] yes=13,no=14,missing=13
			13:leaf=-0.0354420766
			14:leaf=-0.0516932122
booster[35]:
0:[f7<0.324367404] yes=1,no=2,missing=1
	1:[f6<0.0808488131] yes=3,no=4,missing=3
		3:[f1<18.6519051] yes=7,no=8,missing=7
			7:leaf=-0.0480599962
			8:leaf=-0.0547441319
		4:[f0<0.052561909] yes=9,no=10,missing=9
			9:leaf=-0.0423829518
			10:leaf=0.0297096912
	2:[f0<0.276346266] yes=5,no=6,missing=5
		5:[f3<14.0109425] yes=11,no=12,missing=11
			11:leaf=0.00802041963
			12:leaf=-0.0605165474
		6:[f6<0.781419754] yes=13,no=14,missing=13
			13:leaf=0.0354420729
			14:leaf=0.0516932122
booster[36]:
0:[f1<5.93589354] yes=1,no=2,missing=1
	1:[f0<0.302787304] yes=3,no=4,missing=3
		3:[f7<0.896396935] yes=7,no=8,missing=7
			7:leaf=0.00832236838
			8:leaf=-0.0327663347
		4:[f7<0.0435978845] yes=9,no=10,missing=9
			9:leaf=0.0469906256
			10:leaf=-0.0495167188
	2:[f6<0.0972090662] yes=5,no=6,missing=5
		5:[f1<19.3758278] yes=11,no=12,missing=11
			11:leaf=0.0471550226
			12:leaf=0.0542408526
		6:[f0<0.247607827] yes=13,no=14,missing=13
			13:leaf=0.0364570841
			14:leaf=-0.0417125635
booster[37]:
0:[f1<5.93589354] yes=1,no=2,missing=1
	1:[f0<0.302787304] yes=3,no=4,missing=3
		3:[f7<0.896396935] yes=7,no=8,missing=7
			7:leaf=-0.00832236744
			8:leaf=0.032766331
		4:[f7<0.0435978845] yes=9,no=10,missing=9
			9:leaf=-0.0469906181
			10:leaf=0.0495167188
	2:[f6<0.0972090662] yes=5,no=6,missing=5
		5:[f1<19.3774662] yes=11,no=12,missing=11
			11:leaf=-0.0471555702
			12:leaf=-0.0542408489
		6:[f0<0.247607827] yes=13,no=14,missing=13
			13:leaf=-0.0364570841
			14:leaf=0.0417125635
booster[38]:
0:[f1<5.93589354] yes=1,no=2,missing=1
	1:[f0<0.37351197] yes=3,no=4,missing=3
		3:[f5<10.5] yes=7,no=8,missing=7
			7:leaf=0.00204701792
			8:leaf=-0.0600683205
		4:[f7<0.0435978845] yes=9,no=10,missing=9
			9:leaf=0.0423011445
			10:leaf=-0.0493228249
	2:[f1<14.0996265] yes=5,no=6,missing=5
		5:[f0<0.031319797] yes=11,no=12,missing=11
			11:leaf=0.0437439233
			12:leaf=-0.0250037517
		6:[f3<2.97363448] yes=13,no=14,missing=13
			13:leaf=0.0194739625
			14:leaf=0.0535100587
booster[39]:
0:[f1<5.93589354] yes=1,no=2,missing=1
	1:[f0<0.37351197] yes=3,no=4,missing=3
		3:[f5<10.5] yes=7,no=8,missing=7
			7:leaf=-0.00204701675
			8:leaf=0.0600683205
		4:[f7<0.0435978845] yes=9,no=10,missing=9
			9:leaf=-0.0423011445
			10:leaf=0.0493228249
	2:[f1<14.0996265] yes=5,no=6,missing=5
		5:[f0<0.031319797] yes=11,no=12,missing=11
			11:leaf=-0.0437439196
			12:leaf=0.0250037517
		6:[f3<2.97363448] yes=13,no=14,missing=13
			13:leaf=-0.0194739755
			14:leaf=-0.0535100587
booster[40]:
0:[f7<0.277157694] yes=1,no=2,missing=1
	1:[f6<0.0586732179] yes=3,no=4,missing=3
		3:[f2<0.880025029] yes=7,no=8,missing=7
			7:leaf=0.0530208722
			8:leaf=-0.0645893365
		4:[f0<0.072989434] yes=9,no=10,missing=9
			9:leaf=0.0406492017
			10:leaf=-0.0432787873
	2:[f0<0.280427814] yes=5,no=6,missing=5
		5:[f1<18.1773472] yes=11,no=12,missing=11
			11:leaf=-0.00713683898
			12:leaf=0.0535113625
		6:[f7<0.90702492] yes=13,no=14,missing=13
			13:leaf=-0.0337578207
			14:leaf=-0.0506847091
booster[41]:
0:[f7<0.277157694] yes=1,no=2,missing=1
	1:[f6<0.0586732179] yes=3,no=4,missing=3
		3:[f2<0.880025029] yes=7,no=8,missing=7
			7:leaf=-0.0530208647
			8:leaf=0.064589344
		4:[f0<0.072989434] yes=9,no=10,missing=9
			9:leaf=-0.0406492017
			10:leaf=0.0432787873
	2:[f0<0.280427814] yes=5,no=6,missing=5
		5:[f1<18.1773472] yes=11,no=12,missing=11
			11:leaf=0.0071368413
			12:leaf=-0.0535113625
		6:[f7<0.90702492] yes=13,no=14,missing=13
			13:leaf=0.0337578207
			14:leaf=0.0506847091
booster[42]:
0:[f7<0.255057454] yes=1,no=2,missing=1
	1:[f6<0.0586732179] yes=3,no=4,missing=3
		3:[f2<0.880025029] yes=7,no=8,missing=7
			7:leaf=0.0525991209
			8:leaf=-0.0551272929
		4:[f0<0.0478859246] yes=9,no=10,missing=9
			9:leaf=0.0417504273
			10:leaf=-0.033159893
	2:[f0<0.401440203] yes=5,no=6,missing=5
		5:[f1<19.4194679] yes=11,no=12,missing=11
			11:leaf=-0.00715523167
			12:leaf=0.053908851
		6:[f6<0.781419754] yes=13,no=14,missing=13
			13:leaf=-0.0316514112
			14:leaf=-0.0493937545
booster[43]:
0:[f7<0.255057454] yes=1,no=2,missing=1
	1:[f6<0.0586732179] yes=3,no=4,missing=3
		3:[f2<0.880025029] yes=7,no=8,missing=7
			7:leaf=-0.0525991209
			8:leaf=0.0551272742
		4:[f0<0.0478859246] yes=9,no=10,missing=9
			9:leaf=-0.0417504273
			10:leaf=0.033159893
	2:[f0<0.401440203] yes=5,no=6,missing=5
		5:[f1<19.4194679] yes=11,no=12,missing=11
			11:leaf=0.0071552298
			12:leaf=-0.053908851
		6:[f6<0.781419754] yes=13,no=14,missing=13
			13:leaf=0.0316514149
			14:leaf=0.0493937545
booster[44]:
0:[f1<7.76291656] yes=1,no=2,missing=1
	1:[f0<0.37351197] yes=3,no=4,missing=3
		3:[f21<0.0447586998] yes=7,no=8,missing=7
			7:leaf=-0.00821056776
			8:leaf=0.0345382914
		4:[f17<13.0665112] yes=9,no=10,missing=9
			9:leaf=-0.046795819
			10:leaf=0.028719021
	2:[f1<18.2727432] yes=5,no=6,missing=5
		5:[f0<0.0381968617] yes=11,no=12,missing=11
			11:leaf=0.0431582406
			12:leaf=-0.0306101684
		6:[f3<4.54064465] yes=13,no=14,missing=13
			13:leaf=0.0290102903
			14:leaf=0.0525841191
booster[45]:
0:[f1<7.76291656] yes=1,no=2,missing=1
	1:[f0<0.37351197] yes=3,no=4,missing=3
		3:[f21<0.0447586998] yes=7,no=8,missing=7
			7:leaf=0.00821056589
			8:leaf=-0.0345382914
		4:[f17<13.0665112] yes=9,no=10,missing=9
			9:leaf=0.0467958227
			10:leaf=-0.0287190173
	2:[f1<18.2727432] yes=5,no=6,missing=5
		5:[f0<0.0381968617] yes=11,no=12,missing=11
			11:leaf=-0.0431582443
			12:leaf=0.030610159
		6:[f3<4.54064465] yes=13,no=14,missing=13
			13:leaf=-0.029010294
			14:leaf=-0.0525841117
booster[46]:
0:[f7<0.196772054] yes=1,no=2,missing=1
	1:[f6<0.0586732179] yes=3,no=4,missing=3
		3:[f1<24.4456425] yes=7,no=8,missing=7
			7:leaf=0.0459575616
			8:leaf=0.0524717756
		4:[f0<0.147562325] yes=9,no=10,missing=9
			9:leaf=0.0364324562
			10:leaf=-0.0733765811
	2:[f7<0.896497846] yes=5,no=6,missing=5
		5:[f0<0.0266708732] yes=11,no=12,missing=11
			11:leaf=0.0203925651
			12:leaf=-0.0185742863
		6:[f0<0.611725569] yes=13,no=14,missing=13
			13:leaf=-0.0293241888
			14:leaf=-0.050015904
booster[47]:
0:[f7<0.196772054] yes=1,no=2,missing=1
	1:[f6<0.0586732179] yes=3,no=4,missing=3
		3:[f1<24.4456425] yes=7,no=8,missing=7
			7:leaf=-0.0459575616
			8:leaf=-0.0524717756
		4:[f0<0.147562325] yes=9,no=10,missing=9
			9:leaf=-0.0364324562
			10:leaf=0.0733765811
	2:[f7<0.896497846] yes=5,no=6,missing=5
		5:[f0<0.0266708732] yes=11,no=12,missing=11
			11:leaf=-0.0203925651
			12:leaf=0.0185742844
		6:[f0<0.611725569] yes=13,no=14,missing=13
			13:leaf=0.0293241888
			14:leaf=0.0500158966
booster[48]:
0:[f3<6.28329086] yes=1,no=2,missing=1
	1:[f7<0.833880186] yes=3,no=4,missing=3
		3:[f0<0.024455905] yes=7,no=8,missing=7
			7:leaf=0.0209770203
			8:leaf=-0.0155118778
		4:[f0<0.432281077] yes=9,no=10,missing=9
			9:leaf=-0.0224735048
			10:leaf=-0.0474722087
	2:[f1<13.8230572] yes=5,no=6,missing=5
		5:[f0<0.031319797] yes=11,no=12,missing=11
			11:leaf=0.0404026397
			12:leaf=-0.0250683036
		6:[f1<24.1297436] yes=13,no=14,missing=13
			13:leaf=0.0418569371
			14:leaf=0.0522359498
booster[49]:
0:[f3<6.28329086] yes=1,no=2,missing=1
	1:[f7<0.833880186] yes=3,no=4,missing=3
		3:[f0<0.024455905] yes=7,no=8,missing=7
			7:leaf=-0.0209770203
			8:leaf=0.0155118797
		4:[f0<0.432281077] yes=9,no=10,missing=9
			9:leaf=0.0224735048
			10:leaf=0.047472205
	2:[f1<13.8230572] yes=5,no=6,missing=5
		5:[f0<0.031319797] yes=11,no=12,missing=11
			11:leaf=-0.0404026434
			12:leaf=0.0250683036
		6:[f1<24.1297436] yes=13,no=14,missing=13
			13:leaf=-0.0418569371
			14:leaf=-0.0522359572
booster[50]:
0:[f7<0.111090407] yes=1,no=2,missing=1
	1:[f6<0.0565695837] yes=3,no=4,missing=3
		3:[f1<24.4456425] yes=7,no=8,missing=7
			7:leaf=0.0449785814
			8:leaf=0.0519700721
		4:[f0<0.0654057562] yes=9,no=10,missing=9
			9:leaf=0.0425018929
			10:leaf=-0.0731321499
	2:[f0<0.401440203] yes=5,no=6,missing=5
		5:[f5<10.5] yes=11,no=12,missing=11
			11:leaf=0.00808402803
			12:leaf=-0.0692981556
		6:[f16<5.82257605] yes=13,no=14,missing=13
			13:leaf=-0.0453133546
			14:leaf=-0.00237394264
booster[51]:
0:[f7<0.111090407] yes=1,no=2,missing=1
	1:[f6<0.0565695837] yes=3,no=4,missing=3
		3:[f1<24.4456425] yes=7,no=8,missing=7
			7:leaf=-0.0449785776
			8:leaf=-0.0519700721
		4:[f0<0.0654057562] yes=9,no=10,missing=9
			9:leaf=-0.0425018966
			10:leaf=0.0731321499
	2:[f0<0.401440203] yes=5,no=6,missing=5
		5:[f5<10.5] yes=11,no=12,missing=11
			11:leaf=-0.00808402896
			12:leaf=0.0692981556
		6:[f16<5.82257605] yes=13,no=14,missing=13
			13:leaf=0.0453133509
			14:leaf=0.00237393263
booster[52]:
0:[f7<0.111090407] yes=1,no=2,missing=1
	1:[f6<0.0565695837] yes=3,no=4,missing=3
		3:[f1<24.4456425] yes=7,no=8,missing=7
			7:leaf=0.044046741
			8:leaf=0.0517511778
		4:[f0<0.0654057562] yes=9,no=10,missing=9
			9:leaf=0.0413853526
			10:leaf=-0.0600365363
	2:[f0<0.401440203] yes=5,no=6,missing=5
		5:[f1<26.06637] yes=11,no=12,missing=11
			11:leaf=-0.00354822585
			12:leaf=0.0519342832
		6:[f16<5.82257605] yes=13,no=14,missing=13
			13:leaf=-0.0442864671
			14:leaf=-0.00214541354
booster[53]:
0:[f7<0.111090407] yes=1,no=2,missing=1
	1:[f6<0.0565695837] yes=3,no=4,missing=3
		3:[f1<24.4456425] yes=7,no=8,missing=7
			7:leaf=-0.0440467447
			8:leaf=-0.0517511778
		4:[f0<0.0654057562] yes=9,no=10,missing=9
			9:leaf=-0.0413853526
			10:leaf=0.0600365289
	2:[f0<0.401440203] yes=5,no=6,missing=5
		5:[f1<26.06637] yes=11,no=12,missing=11
			11:leaf=0.00354822795
			12:leaf=-0.0519342832
		6:[f16<5.82257605] yes=13,no=14,missing=13
			13:leaf=0.0442864709
			14:leaf=0.0021454168
booster[54]:
0:[f3<7.97606277] yes=1,no=2,missing=1
	1:[f7<0.896497846] yes=3,no=4,missing=3
		3:[f0<0.02653566] yes=7,no=8,missing=7
			7:leaf=0.0184170008
			8:leaf=-0.0150303561
		4:[f0<0.611725569] yes=9,no=10,missing=9
			9:leaf=-0.0263498854
			10:leaf=-0.0478612073
	2:[f1<18.2727432] yes=5,no=6,missing=5
		5:[f0<0.0290906131] yes=11,no=12,missing=11
			11:leaf=0.0431613885
			12:leaf=-0.0268336218
		6:[f1<32.3426666] yes=13,no=14,missing=13
			13:leaf=0.0430986322
			14:leaf=0.0517206863
booster[55]:
0:[f3<7.97606277] yes=1,no=2,missing=1
	1:[f7<0.896497846] yes=3,no=4,missing=3
		3:[f0<0.02653566] yes=7,no=8,missing=7
			7:leaf=-0.0184170008
			8:leaf=0.0150303543
		4:[f0<0.611725569] yes=9,no=10,missing=9
			9:leaf=0.0263498779
			10:leaf=0.0478612073
	2:[f1<18.2727432] yes=5,no=6,missing=5
		5:[f0<0.0290906131] yes=11,no=12,missing=11
			11:leaf=-0.043161381
			12:leaf=0.0268336292
		6:[f1<32.3426666] yes=13,no=14,missing=13
			13:leaf=-0.0430986248
			14:leaf=-0.0517206863
booster[56]:
0:[f7<0.104831509] yes=1,no=2,missing=1
	1:[f1<19.3758278] yes=3,no=4,missing=3
		3:[f0<0.035040915] yes=7,no=8,missing=7
			7:leaf=0.0440821983
			8:leaf=-0.00360477017
		4:[f1<31.9373055] yes=9,no=10,missing=9
			9:leaf=0.0450502299
			10:leaf=0.0514351241
	2:[f2<0.798389435] yes=5,no=6,missing=5
		5:[f5<10.5] yes=11,no=12,missing=11
			11:leaf=0.00961588603
			12:leaf=-0.0633091629
		6:[f2<0.940402985] yes=13,no=14,missing=13
			13:leaf=-0.0246697273
			14:leaf=-0.047183346
booster[57]:
0:[f7<0.104831509] yes=1,no=2,missing=1
	1:[f1<19.3758278] yes=3,no=4,missing=3
		3:[f0<0.035040915] yes=7,no=8,missing=7
			7:leaf=-0.0440821983
			8:leaf=0.00360476854
		4:[f1<31.9373055] yes=9,no=10,missing=9
			9:leaf=-0.0450502299
			10:leaf=-0.0514351241
	2:[f2<0.798389435] yes=5,no=6,missing=5
		5:[f5<10.5] yes=11,no=12,missing=11
			11:leaf=-0.00961588603
			12:leaf=0.0633091629
		6:[f2<0.940402985] yes=13,no=14,missing=13
			13:leaf=0.0246697348
			14:leaf=0.0471833497
booster[58]:
0:[f1<13.7893763] yes=1,no=2,missing=1
	1:[f0<0.0266834497] yes=3,no=4,missing=3
		3:[f2<0.199615568] yes=7,no=8,missing=7
			7:leaf=0.0289095994
			8:leaf=-0.00935211778
		4:[f15<2.5] yes=9,no=10,missing=9
			9:leaf=-0.0385335311
			10:leaf=-0.00564357825
	2:[f1<32.5090942] yes=5,no=6,missing=5
		5:[f0<0.0764218271] yes=11,no=12,missing=11
			11:leaf=0.0420720801
			12:leaf=-0.0333897583
		6:[f0<0.829152644] yes=13,no=14,missing=13
			13:leaf=0.0512874089
			14:leaf=-0.0136130126
booster[59]:
0:[f1<13.7893763] yes=1,no=2,missing=1
	1:[f0<0.0266834497] yes=3,no=4,missing=3
		3:[f2<0.199615568] yes=7,no=8,missing=7
			7:leaf=-0.0289095994
			8:leaf=0.00935211778
		4:[f15<2.5] yes=9,no=10,missing=9
			9:leaf=0.0385335274
			10:leaf=0.00564357731
	2:[f1<32.5090942] yes=5,no=6,missing=5
		5:[f0<0.0764218271] yes=11,no=12,missing=11
			11:leaf=-0.0420720726
			12:leaf=0.033389762
		6:[f0<0.829152644] yes=13,no=14,missing=13
			13:leaf=-0.0512874089
			14:leaf=0.0136129847
booster[60]:
0:[f7<0.0809192359] yes=1,no=2,missing=1
	1:[f1<28.4197769] yes=3,no=4,missing=3
		3:[f0<0.035040915] yes=7,no=8,missing=7
			7:leaf=0.0445833765
			8:leaf=0.00500944583
		4:[f6<0.0783968568] yes=9,no=10,missing=9
			9:leaf=0.0510996245
			10:leaf=0.0241106357
	2:[f0<0.432281077] yes=5,no=6,missing=5
		5:[f5<10.5] yes=11,no=12,missing=11
			11:leaf=0.00741291046
			12:leaf=-0.0605524592
		6:[f16<5.47780418] yes=13,no=14,missing=13
			13:leaf=-0.041859176
			14:leaf=-0.00512950076
booster[61]:
0:[f7<0.0809192359] yes=1,no=2,missing=1
	1:[f1<28.4197769] yes=3,no=4,missing=3
		3:[f0<0.035040915] yes=7,no=8,missing=7
			7:leaf=-0.0445833765
			8:leaf=-0.00500943931
		4:[f6<0.0783968568] yes=9,no=10,missing=9
			9:leaf=-0.0510996282
			10:leaf=-0.0241106525
	2:[f0<0.432281077] yes=5,no=6,missing=5
		5:[f5<10.5] yes=11,no=12,missing=11
			11:leaf=-0.00741291046
			12:leaf=0.0605524592
		6:[f16<5.47780418] yes=13,no=14,missing=13
			13:leaf=0.0418591723
			14:leaf=0.00512950355
booster[62]:
0:[f1<13.943964] yes=1,no=2,missing=1
	1:[f0<0.280427814] yes=3,no=4,missing=3
		3:[f4<0.178322822] yes=7,no=8,missing=7
			7:leaf=0.011221854
			8:leaf=-0.0327952616
		4:[f17<14.7932835] yes=9,no=10,missing=9
			9:leaf=-0.0371753983
			10:leaf=0.0474696308
	2:[f1<32.5090942] yes=5,no=6,missing=5
		5:[f0<0.0350120664] yes=11,no=12,missing=11
			11:leaf=0.0425863117
			12:leaf=-0.0189182069
		6:[f3<2.84239292] yes=13,no=14,missing=13
			13:leaf=0.0263567455
			14:leaf=0.051055491
booster[63]:
0:[f1<13.943964] yes=1,no=2,missing=1
	1:[f0<0.280427814] yes=3,no=4,missing=3
		3:[f4<0.178322822] yes=7,no=8,missing=7
			7:leaf=-0.0112218522
			8:leaf=0.0327952616
		4:[f17<14.7932835] yes=9,no=10,missing=9
			9:leaf=0.0371753983
			10:leaf=-0.0474696308
	2:[f1<32.5090942] yes=5,no=6,missing=5
		5:[f0<0.0350120664] yes=11,no=12,missing=11
			11:leaf=-0.0425863117
			12:leaf=0.0189182051
		6:[f3<2.84239292] yes=13,no=14,missing=13
			13:leaf=-0.0263567604
			14:leaf=-0.0510554984
booster[64]:
0:[f7<0.0809192359] yes=1,no=2,missing=1
	1:[f1<28.4197769] yes=3,no=4,missing=3
		3:[f0<0.0245375335] yes=7,no=8,missing=7
			7:leaf=0.044716958
			8:leaf=0.00904276408
		4:[f6<0.0783968568] yes=9,no=10,missing=9
			9:leaf=0.0508349054
			10:leaf=0.0207604077
	2:[f2<0.851908505] yes=5,no=6,missing=5
		5:[f5<10.5] yes=11,no=12,missing=11
			11:leaf=0.00765202288
			12:leaf=-0.0549778938
		6:[f2<0.940402985] yes=13,no=14,missing=13
			13:leaf=-0.0226947516
			14:leaf=-0.0450573713
booster[65]:
0:[f7<0.0809192359] yes=1,no=2,missing=1
	1:[f1<28.4197769] yes=3,no=4,missing=3
		3:[f0<0.0245375335] yes=7,no=8,missing=7
			7:leaf=-0.044716958
			8:leaf=-0.00904276595
		4:[f6<0.0783968568] yes=9,no=10,missing=9
			9:leaf=-0.0508349128
			10:leaf=-0.0207604207
	2:[f2<0.851908505] yes=5,no=6,missing=5
		5:[f5<10.5] yes=11,no=12,missing=11
			11:leaf=-0.00765201962
			12:leaf=0.0549778938
		6:[f2<0.940402985] yes=13,no=14,missing=13
			13:leaf=0.0226947498
			14:leaf=0.0450573713
booster[66]:
0:[f1<15.5924549] yes=1,no=2,missing=1
	1:[f0<0.0266210139] yes=3,no=4,missing=3
		3:[f21<0.0392752066] yes=7,no=8,missing=7
			7:leaf=-0.000412629743
			8:leaf=0.0389317498
		4:[f18<0.0242303163] yes=9,no=10,missing=9
			9:leaf=-0.0352581665
			10:leaf=-0.00175717194
	2:[f1<32.6199036] yes=5,no=6,missing=5
		5:[f0<0.054128021] yes=11,no=12,missing=11
			11:leaf=0.0406629071
			12:leaf=-0.0265495218
		6:[f0<0.829152644] yes=13,no=14,missing=13
			13:leaf=0.0506928563
			14:leaf=-0.0213785283
booster[67]:
0:[f1<15.5924549] yes=1,no=2,missing=1
	1:[f0<0.0266210139] yes=3,no=4,missing=3
		3:[f21<0.0392752066] yes=7,no=8,missing=7
			7:leaf=0.000412630296
			8:leaf=-0.0389317498
		4:[f18<0.0242303163] yes=9,no=10,missing=9
			9:leaf=0.0352581665
			10:leaf=0.0017571738
	2:[f1<32.6199036] yes=5,no=6,missing=5
		5:[f0<0.054128021] yes=11,no=12,missing=11
			11:leaf=-0.0406629033
			12:leaf=0.0265495218
		6:[f0<0.829152644] yes=13,no=14,missing=13
			13:leaf=-0.0506928563
			14:leaf=0.0213785097
booster[68]:
0:[f7<0.0605008304] yes=1,no=2,missing=1
	1:[f1<28.4197769] yes=3,no=4,missing=3
		3:[f0<0.0240108073] yes=7,no=8,missing=7
			7:leaf=0.0450860672
			8:leaf=0.0194393229
		4:[f6<0.0433099754] yes=9,no=10,missing=9
			9:leaf=0.0507272258
			10:leaf=0.0438121371
	2:[f0<0.141678542] yes=5,no=6,missing=5
		5:[f3<14.0860071] yes=11,no=12,missing=11
			11:leaf=-0.000130326065
			12:leaf=0.0447250716
		6:[f0<0.759713411] yes=13,no=14,missing=13
			13:leaf=-0.0175591577
			14:leaf=-0.0435290188
booster[69]:
0:[f7<0.0605008304] yes=1,no=2,missing=1
	1:[f1<28.4197769] yes=3,no=4,missing=3
		3:[f0<0.0240108073] yes=7,no=8,missing=7
			7:leaf=-0.0450860672
			8:leaf=-0.0194393266
		4:[f6<0.0433099754] yes=9,no=10,missing=9
			9:leaf=-0.0507272258
			10:leaf=-0.0438121296
	2:[f0<0.141678542] yes=5,no=6,missing=5
		5:[f3<14.0860071] yes=11,no=12,missing=11
			11:leaf=0.000130324639
			12:leaf=-0.0447250716
		6:[f0<0.759713411] yes=13,no=14,missing=13
			13:leaf=0.0175591558
			14:leaf=0.0435290225
booster[70]:
0:[f7<0.0605008304] yes=1,no=2,missing=1
	1:[f1<28.4197769] yes=3,no=4,missing=3
		3:[f0<0.0240108073] yes=7,no=8,missing=7
			7:leaf=0.0444156639
			8:leaf=0.0181163512
		4:[f6<0.0433099754] yes=9,no=10,missing=9
			9:leaf=0.0506359041
			10:leaf=0.043124035
	2:[f2<0.851908505] yes=5,no=6,missing=5
		5:[f4<0.0821743757] yes=11,no=12,missing=11
			11:leaf=0.0129509484
			12:leaf=-0.0216299128
		6:[f2<0.949958444] yes=13,no=14,missing=13
			13:leaf=-0.0212772787
			14:leaf=-0.0449643619
booster[71]:
0:[f7<0.0605008304] yes=1,no=2,missing=1
	1:[f1<28.4197769] yes=3,no=4,missing=3
		3:[f0<0.0240108073] yes=7,no=8,missing=7
			7:leaf=-0.0444156677
			8:leaf=-0.0181163512
		4:[f6<0.0433099754] yes=9,no=10,missing=9
			9:leaf=-0.0506359041
			10:leaf=-0.0431240276
	2:[f2<0.851908505] yes=5,no=6,missing=5
		5:[f4<0.0821743757] yes=11,no=12,missing=11
			11:leaf=-0.0129509494
			12:leaf=0.0216299128
		6:[f2<0.949958444] yes=13,no=14,missing=13
			13:leaf=0.0212772842
			14:leaf=0.0449643694
booster[72]:
0:[f1<18.2727432] yes=1,no=2,missing=1
	1:[f0<0.0263358355] yes=3,no=4,missing=3
		3:[f2<-0.699135184] yes=7,no=8,missing=7
			7:leaf=0.0382318161
			8:leaf=-0.000519566238
		4:[f18<0.0233102012] yes=9,no=10,missing=9
			9:leaf=-0.0329329036
			10:leaf=-0.000482009578
	2:[f1<32.6199036] yes=5,no=6,missing=5
		5:[f0<0.0589103103] yes=11,no=12,missing=11
			11:leaf=0.0389623344
			12:leaf=-0.0198060162
		6:[f3<2.84239292] yes=13,no=14,missing=13
			13:leaf=0.0180104766
			14:leaf=0.0504656099
booster[73]:
0:[f1<18.2727432] yes=1,no=2,missing=1
	1:[f0<0.0263358355] yes=3,no=4,missing=3
		3:[f2<-0.699135184] yes=7,no=8,missing=7
			7:leaf=-0.0382318161
			8:leaf=0.000519565947
		4:[f18<0.0233102012] yes=9,no=10,missing=9
			9:leaf=0.0329328887
			10:leaf=0.000482007774
	2:[f1<32.6199036] yes=5,no=6,missing=5
		5:[f0<0.0589103103] yes=11,no=12,missing=11
			11:leaf=-0.0389623456
			12:leaf=0.0198060181
		6:[f3<2.84239292] yes=13,no=14,missing=13
			13:leaf=-0.0180104543
			14:leaf=-0.0504656099
booster[74]:
0:[f1<18.2727432] yes=1,no=2,missing=1
	1:[f7<0.916626096] yes=3,no=4,missing=3
		3:[f4<0.108489394] yes=7,no=8,missing=7
			7:leaf=0.0121100843
			8:leaf=-0.0248236936
		4:[f2<0.949958444] yes=9,no=10,missing=9
			9:leaf=-0.0194391217
			10:leaf=-0.0442810617
	2:[f1<32.6199036] yes=5,no=6,missing=5
		5:[f11<2.69847035] yes=11,no=12,missing=11
			11:leaf=0.037580654
			12:leaf=-0.0231238808
		6:[f3<2.84239292] yes=13,no=14,missing=13
			13:leaf=0.016651893
			14:leaf=0.0503372848
booster[75]:
0:[f1<18.2727432] yes=1,no=2,missing=1
	1:[f7<0.916626096] yes=3,no=4,missing=3
		3:[f4<0.108489394] yes=7,no=8,missing=7
			7:leaf=-0.0121100843
			8:leaf=0.0248236936
		4:[f2<0.949958444] yes=9,no=10,missing=9
			9:leaf=0.019439118
			10:leaf=0.0442810617
	2:[f1<32.6199036] yes=5,no=6,missing=5
		5:[f11<2.69847035] yes=11,no=12,missing=11
			11:leaf=-0.0375806354
			12:leaf=0.0231239367
		6:[f3<2.84239292] yes=13,no=14,missing=13
			13:leaf=-0.0166518707
			14:leaf=-0.0503372848
booster[76]:
0:[f7<0.0566175506] yes=1,no=2,missing=1
	1:[f1<28.4197769] yes=3,no=4,missing=3
		3:[f0<0.0245375335] yes=7,no=8,missing=7
			7:leaf=0.0434281975
			8:leaf=0.0183029193
		4:[f6<0.0433099754] yes=9,no=10,missing=9
			9:leaf=0.050400503
			10:leaf=0.0380145423
	2:[f20<0.168369174] yes=5,no=6,missing=5
		5:[f21<0.0437146351] yes=11,no=12,missing=11
			11:leaf=-0.0212986339
			12:leaf=0.0169033818
		6:[f7<0.794412613] yes=13,no=14,missing=13
			13:leaf=0.0229696222
			14:leaf=-0.0147585422
booster[77]:
0:[f7<0.0566175506] yes=1,no=2,missing=1
	1:[f1<28.4197769] yes=3,no=4,missing=3
		3:[f0<0.0245375335] yes=7,no=8,missing=7
			7:leaf=-0.0434281975
			8:leaf=-0.0183029231
		4:[f6<0.0433099754] yes=9,no=10,missing=9
			9:leaf=-0.0504004955
			10:leaf=-0.0380145237
	2:[f20<0.168369174] yes=5,no=6,missing=5
		5:[f21<0.0437146351] yes=11,no=12,missing=11
			11:leaf=0.021298632
			12:leaf=-0.0169033837
		6:[f7<0.794412613] yes=13,no=14,missing=13
			13:leaf=-0.0229696222
			14:leaf=0.014758544
booster[78]:
0:[f7<0.0566175506] yes=1,no=2,missing=1
	1:[f1<28.4197769] yes=3,no=4,missing=3
		3:[f5<10.5] yes=7,no=8,missing=7
			7:leaf=0.0386068113
			8:leaf=-0.00202456629
		4:[f6<0.0433099754] yes=9,no=10,missing=9
			9:leaf=0.0503308065
			10:leaf=0.0370222442
	2:[f0<0.575911224] yes=5,no=6,missing=5
		5:[f5<10.5] yes=11,no=12,missing=11
			11:leaf=0.00571251661
			12:leaf=-0.0506769083
		6:[f21<0.180073246] yes=13,no=14,missing=13
			13:leaf=-0.0367566273
			14:leaf=0.157087848
booster[79]:
0:[f7<0.0566175506] yes=1,no=2,missing=1
	1:[f1<28.4197769] yes=3,no=4,missing=3
		3:[f5<10.5] yes=7,no=8,missing=7
			7:leaf=-0.0386068113
			8:leaf=0.00202457188
		4:[f6<0.0433099754] yes=9,no=10,missing=9
			9:leaf=-0.0503308065
			10:leaf=-0.0370222218
	2:[f0<0.575911224] yes=5,no=6,missing=5
		5:[f5<10.5] yes=11,no=12,missing=11
			11:leaf=-0.00571251754
			12:leaf=0.0506769121
		6:[f21<0.180073246] yes=13,no=14,missing=13
			13:leaf=0.036756631
			14:leaf=-0.157087848
booster[80]:
0:[f1<24.1297436] yes=1,no=2,missing=1
	1:[f0<0.0243517458] yes=3,no=4,missing=3
		3:[f2<-0.699195325] yes=7,no=8,missing=7
			7:leaf=0.037108779
			8:leaf=0.000237146436
		4:[f15<4.5] yes=9,no=10,missing=9
			9:leaf=-0.0240344293
			10:leaf=0.0159828421
	2:[f3<6.28279161] yes=5,no=6,missing=5
		5:[f6<0.0528939888] yes=11,no=12,missing=11
			11:leaf=0.0491048805
			12:leaf=-0.025293937
		6:[f0<0.829152644] yes=13,no=14,missing=13
			13:leaf=0.0495568849
			14:leaf=-0.0382418558
booster[81]:
0:[f1<24.1297436] yes=1,no=2,missing=1
	1:[f0<0.0243517458] yes=3,no=4,missing=3
		3:[f2<-0.699195325] yes=7,no=8,missing=7
			7:leaf=-0.037108779
			8:leaf=-0.000237146509
		4:[f15<4.5] yes=9,no=10,missing=9
			9:leaf=0.0240344349
			10:leaf=-0.0159828402
	2:[f3<6.28279161] yes=5,no=6,missing=5
		5:[f6<0.0528939888] yes=11,no=12,missing=11
			11:leaf=-0.0491048805
			12:leaf=0.0252939407
		6:[f0<0.829152644] yes=13,no=14,missing=13
			13:leaf=-0.0495568924
			14:leaf=0.0382418856
booster[82]:
0:[f1<24.4505424] yes=1,no=2,missing=1
	1:[f18<0.0324693695] yes=3,no=4,missing=3
		3:[f21<0.0493074991] yes=7,no=8,missing=7
			7:leaf=-0.0176742375
			8:leaf=0.0244878139
		4:[f7<0.722020507] yes=9,no=10,missing=9
			9:leaf=0.0233928282
			10:leaf=-0.0103451563
	2:[f3<8.39407349] yes=5,no=6,missing=5
		5:[f6<0.0454070196] yes=11,no=12,missing=11
			11:leaf=0.0492786951
			12:leaf=-0.0208743922
		6:[f15<0.5] yes=13,no=14,missing=13
			13:leaf=-0.0132510485
			14:leaf=0.049531322
booster[83]:
0:[f1<24.4505424] yes=1,no=2,missing=1
	1:[f18<0.0324693695] yes=3,no=4,missing=3
		3:[f21<0.0493074991] yes=7,no=8,missing=7
			7:leaf=0.0176742375
			8:leaf=-0.0244878139
		4:[f7<0.722020507] yes=9,no=10,missing=9
			9:leaf=-0.0233928319
			10:leaf=0.0103451535
	2:[f3<8.39407349] yes=5,no=6,missing=5
		5:[f6<0.0454070196] yes=11,no=12,missing=11
			11:leaf=-0.0492786951
			12:leaf=0.0208743941
		6:[f15<0.5] yes=13,no=14,missing=13
			13:leaf=0.0132510588
			14:leaf=-0.049531322
booster[84]:
0:[f7<0.0452145711] yes=1,no=2,missing=1
	1:[f5<10.5] yes=3,no=4,missing=3
		3:[f1<28.4198761] yes=7,no=8,missing=7
			7:leaf=0.0396426022
			8:leaf=0.0501741767
		4:[f0<0.107585907] yes=9,no=10,missing=9
			9:leaf=0.0254533179
			10:leaf=-0.214771017
	2:[f1<53.743969] yes=5,no=6,missing=5
		5:[f4<0.115242094] yes=11,no=12,missing=11
			11:leaf=0.00177474529
			12:leaf=-0.0314772651
		6:[f3<1.35476732] yes=13,no=14,missing=13
			13:leaf=0.00396849681
			14:leaf=0.0506200269
booster[85]:
0:[f7<0.0452145711] yes=1,no=2,missing=1
	1:[f5<10.5] yes=3,no=4,missing=3
		3:[f1<28.4198761] yes=7,no=8,missing=7
			7:leaf=-0.0396426097
			8:leaf=-0.0501741767
		4:[f0<0.107585907] yes=9,no=10,missing=9
			9:leaf=-0.025453303
			10:leaf=0.214771032
	2:[f1<53.743969] yes=5,no=6,missing=5
		5:[f4<0.115242094] yes=11,no=12,missing=11
			11:leaf=-0.00177474774
			12:leaf=0.0314772651
		6:[f3<1.35476732] yes=13,no=14,missing=13
			13:leaf=-0.00396849634
			14:leaf=-0.0506200306
booster[86]:
0:[f7<0.0452145711] yes=1,no=2,missing=1
	1:[f1<28.4197769] yes=3,no=4,missing=3
		3:[f5<10.5] yes=7,no=8,missing=7
			7:leaf=0.0385854915
			8:leaf=-0.00560183963
		4:[f6<0.0433099754] yes=9,no=10,missing=9
			9:leaf=0.0500820093
			10:leaf=0.00748201553
	2:[f0<0.0266169012] yes=5,no=6,missing=5
		5:[f10<0.864517093] yes=11,no=12,missing=11
			11:leaf=0.0222290307
			12:leaf=-0.011939045
		6:[f15<4.5] yes=13,no=14,missing=13
			13:leaf=-0.022339372
			14:leaf=0.013627152
booster[87]:
0:[f7<0.0452145711] yes=1,no=2,missing=1
	1:[f1<28.4197769] yes=3,no=4,missing=3
		3:[f5<10.5] yes=7,no=8,missing=7
			7:leaf=-0.0385854989
			8:leaf=0.00560185267
		4:[f6<0.0433099754] yes=9,no=10,missing=9
			9:leaf=-0.0500820056
			10:leaf=-0.00748215755
	2:[f0<0.0266169012] yes=5,no=6,missing=5
		5:[f10<0.864517093] yes=11,no=12,missing=11
			11:leaf=-0.0222290289
			12:leaf=0.011939046
		6:[f15<4.5] yes=13,no=14,missing=13
			13:leaf=0.0223393645
			14:leaf=-0.013627152
booster[88]:
0:[f1<24.5126171] yes=1,no=2,missing=1
	1:[f2<0.921999097] yes=3,no=4,missing=3
		3:[f4<0.108489394] yes=7,no=8,missing=7
			7:leaf=0.00988159794
			8:leaf=-0.0221879613
		4:[f2<0.97731173] yes=9,no=10,missing=9
			9:leaf=-0.028549267
			10:leaf=-0.0488731526
	2:[f3<8.39407349] yes=5,no=6,missing=5
		5:[f1<86.6441879] yes=11,no=12,missing=11
			11:leaf=-0.0171566512
			12:leaf=0.0519114137
		6:[f1<54.5726776] yes=13,no=14,missing=13
			13:leaf=0.0375698619
			14:leaf=0.0501637533
booster[89]:
0:[f1<24.5126171] yes=1,no=2,missing=1
	1:[f2<0.921999097] yes=3,no=4,missing=3
		3:[f4<0.108489394] yes=7,no=8,missing=7
			7:leaf=-0.00988159608
			8:leaf=0.0221879631
		4:[f2<0.97731173] yes=9,no=10,missing=9
			9:leaf=0.0285492744
			10:leaf=0.0488731563
	2:[f3<8.39407349] yes=5,no=6,missing=5
		5:[f1<86.6441879] yes=11,no=12,missing=11
			11:leaf=0.0171566773
			12:leaf=-0.0519114137
		6:[f1<54.5726776] yes=13,no=14,missing=13
			13:leaf=-0.0375698358
			14:leaf=-0.0501637533
booster[90]:
0:[f1<32.5090942] yes=1,no=2,missing=1
	1:[f18<0.0339230001] yes=3,no=4,missing=3
		3:[f21<0.0358834974] yes=7,no=8,missing=7
			7:leaf=-0.0174530335
			8:leaf=0.0137973251
		4:[f7<0.722020507] yes=9,no=10,missing=9
			9:leaf=0.0217333473
			10:leaf=-0.00796351582
	2:[f3<2.84239292] yes=5,no=6,missing=5
		5:[f16<89.1897583] yes=11,no=12,missing=11
			11:leaf=-0.0319611952
			12:leaf=0.0520369411
		6:[f0<0.829152644] yes=13,no=14,missing=13
			13:leaf=0.0495710745
			14:leaf=-0.0485489778
booster[91]:
0:[f1<32.5090942] yes=1,no=2,missing=1
	1:[f18<0.0339230001] yes=3,no=4,missing=3
		3:[f21<0.0358834974] yes=7,no=8,missing=7
			7:leaf=0.0174530353
			8:leaf=-0.0137973223
		4:[f7<0.722020507] yes=9,no=10,missing=9
			9:leaf=-0.0217333417
			10:leaf=0.00796351489
	2:[f3<2.84239292] yes=5,no=6,missing=5
		5:[f16<89.1897583] yes=11,no=12,missing=11
			11:leaf=0.031961184
			12:leaf=-0.0520369411
		6:[f0<0.829152644] yes=13,no=14,missing=13
			13:leaf=-0.049571082
			14:leaf=0.0485490523
booster[92]:
0:[f7<0.0452145711] yes=1,no=2,missing=1
	1:[f1<29.734436] yes=3,no=4,missing=3
		3:[f5<10.5] yes=7,no=8,missing=7
			7:leaf=0.0372766741
			8:leaf=-0.00709184492
		4:[f6<0.0433099754] yes=9,no=10,missing=9
			9:leaf=0.0499592237
			10:leaf=0.000142480741
	2:[f0<0.37351197] yes=5,no=6,missing=5
		5:[f5<10.5] yes=11,no=12,missing=11
			11:leaf=0.00587263051
			12:leaf=-0.0451216064
		6:[f7<0.063715212] yes=13,no=14,missing=13
			13:leaf=-0.208469555
			14:leaf=-0.0269443747
booster[93]:
0:[f7<0.0452145711] yes=1,no=2,missing=1
	1:[f1<29.734436] yes=3,no=4,missing=3
		3:[f5<10.5] yes=7,no=8,missing=7
			7:leaf=-0.0372766778
			8:leaf=0.00709184492
		4:[f6<0.0433099754] yes=9,no=10,missing=9
			9:leaf=-0.0499592125
			10:leaf=-0.000142499848
	2:[f0<0.37351197] yes=5,no=6,missing=5
		5:[f5<10.5] yes=11,no=12,missing=11
			11:leaf=-0.00587262819
			12:leaf=0.0451216064
		6:[f7<0.063715212] yes=13,no=14,missing=13
			13:leaf=0.208469614
			14:leaf=0.0269443747
booster[94]:
0:[f1<32.5090942] yes=1,no=2,missing=1
	1:[f0<0.0243517458] yes=3,no=4,missing=3
		3:[f10<0.864517093] yes=7,no=8,missing=7
			7:leaf=0.0214916039
			8:leaf=-0.0102836909
		4:[f15<2.5] yes=9,no=10,missing=9
			9:leaf=-0.0251077507
			10:leaf=-0.000271300029
	2:[f3<2.84239292] yes=5,no=6,missing=5
		5:[f16<89.1897583] yes=11,no=12,missing=11
			11:leaf=-0.029314002
			12:leaf=0.0513316579
		6:[f0<0.829152644] yes=13,no=14,missing=13
			13:leaf=0.049342081
			14:leaf=-0.0433362611
booster[95]:
0:[f1<32.5090942] yes=1,no=2,missing=1
	1:[f0<0.0243517458] yes=3,no=4,missing=3
		3:[f10<0.864517093] yes=7,no=8,missing=7
			7:leaf=-0.0214916039
			8:leaf=0.010283689
		4:[f15<2.5] yes=9,no=10,missing=9
			9:leaf=0.0251077469
			10:leaf=0.000271300407
	2:[f3<2.84239292] yes=5,no=6,missing=5
		5:[f16<89.1897583] yes=11,no=12,missing=11
			11:leaf=0.0293140095
			12:leaf=-0.0513316579
		6:[f0<0.829152644] yes=13,no=14,missing=13
			13:leaf=-0.0493420884
			14:leaf=0.0433362685
booster[96]:
0:[f1<32.5090942] yes=1,no=2,missing=1
	1:[f4<0.152245209] yes=3,no=4,missing=3
		3:[f2<0.922002077] yes=7,no=8,missing=7
			7:leaf=0.0089100562
			8:leaf=-0.0313806795
		4:[f12<0.00780432532] yes=9,no=10,missing=9
			9:leaf=-0.0339692943
			10:leaf=0.02529536
	2:[f3<2.84239292] yes=5,no=6,missing=5
		5:[f16<89.1897583] yes=11,no=12,missing=11
			11:leaf=-0.026080925
			12:leaf=0.050608214
		6:[f0<0.829152644] yes=13,no=14,missing=13
			13:leaf=0.0491885692
			14:leaf=-0.0387499891
booster[97]:
0:[f1<32.5090942] yes=1,no=2,missing=1
	1:[f4<0.152245209] yes=3,no=4,missing=3
		3:[f2<0.922002077] yes=7,no=8,missing=7
			7:leaf=-0.00891005434
			8:leaf=0.0313806757
		4:[f12<0.00780432532] yes=9,no=10,missing=9
			9:leaf=0.0339692943
			10:leaf=-0.0252953526
	2:[f3<2.84239292] yes=5,no=6,missing=5
		5:[f16<89.1897583] yes=11,no=12,missing=11
			11:leaf=0.0260809194
			12:leaf=-0.0506082065
		6:[f0<0.829152644] yes=13,no=14,missing=13
			13:leaf=-0.0491885692
			14:leaf=0.0387499928
booster[98]:
0:[f7<0.0452145711] yes=1,no=2,missing=1
	1:[f1<29.734436] yes=3,no=4,missing=3
		3:[f5<10.5] yes=7,no=8,missing=7
			7:leaf=0.0358221941
			8:leaf=-0.0068699508
		4:[f6<0.0433099754] yes=9,no=10,missing=9
			9:leaf=0.0497964732
			10:leaf=-0.00579058705
	2:[f20<0.168369174] yes=5,no=6,missing=5
		5:[f21<0.0515388399] yes=11,no=12,missing=11
			11:leaf=-0.0149529874
			12:leaf=0.0196675714
		6:[f0<0.518997371] yes=13,no=14,missing=13
			13:leaf=0.0148376003
			14:leaf=-0.0255285855
booster[99]:
0:[f7<0.0452145711] yes=1,no=2,missing=1
	1:[f1<29.734436] yes=3,no=4,missing=3
		3:[f5<10.5] yes=7,no=8,missing=7
			7:leaf=-0.0358221903
			8:leaf=0.00686995266
		4:[f6<0.0433099754] yes=9,no=10,missing=9
			9:leaf=-0.0497964844
			10:leaf=0.00579077983
	2:[f20<0.168369174] yes=5,no=6,missing=5
		5:[f21<0.0515388399] yes=11,no=12,missing=11
			11:leaf=0.0149529902
			12:leaf=-0.0196675695
		6:[f0<0.518997371] yes=13,no=14,missing=13
			13:leaf=-0.0148376003
			14:leaf=0.0255285855
booster[100]:
0:[f1<32.5090942] yes=1,no=2,missing=1
	1:[f9<0.999951005] yes=3,no=4,missing=3
		3:[f0<0.0168184936] yes=7,no=8,missing=7
			7:leaf=0.0176209491
			8:leaf=-0.00599116785
		4:[f21<0.0394038111] yes=9,no=10,missing=9
			9:leaf=-0.0205638036
			10:leaf=0.00874158833
	2:[f3<7.77790642] yes=5,no=6,missing=5
		5:[f1<86.6441879] yes=11,no=12,missing=11
			11:leaf=-0.0163002741
			12:leaf=0.0503244214
		6:[f0<0.829152644] yes=13,no=14,missing=13
			13:leaf=0.0490705892
			14:leaf=-0.04008542
booster[101]:
0:[f1<32.5090942] yes=1,no=2,missing=1
	1:[f9<0.999951005] yes=3,no=4,missing=3
		3:[f0<0.0168184936] yes=7,no=8,missing=7
			7:leaf=-0.0176209472
			8:leaf=0.00599116692
		4:[f21<0.0394038111] yes=9,no=10,missing=9
			9:leaf=0.0205638036
			10:leaf=-0.00874158647
	2:[f3<7.77790642] yes=5,no=6,missing=5
		5:[f1<86.6441879] yes=11,no=12,missing=11
			11:leaf=0.0163003039
			12:leaf=-0.0503244214
		6:[f0<0.829152644] yes=13,no=14,missing=13
			13:leaf=-0.0490705781
			14:leaf=0.0400855206
booster[102]:
0:[f7<0.033363089] yes=1,no=2,missing=1
	1:[f5<10.5] yes=3,no=4,missing=3
		3:[f1<28.0680313] yes=7,no=8,missing=7
			7:leaf=0.0376652032
			8:leaf=0.0497527681
		4:[f2<-0.962985635] yes=9,no=10,missing=9
			9:leaf=0.0341932699
			10:leaf=-0.0661147535
	2:[f5<10.5] yes=5,no=6,missing=5
		5:[f2<0.940402985] yes=11,no=12,missing=11
			11:leaf=0.0042271032
			12:leaf=-0.0342577584
		6:[f21<0.0550863557] yes=13,no=14,missing=13
			13:leaf=-0.0492658429
			14:leaf=-0.00139245053
booster[103]:
0:[f7<0.033363089] yes=1,no=2,missing=1
	1:[f5<10.5] yes=3,no=4,missing=3
		3:[f1<28.0680313] yes=7,no=8,missing=7
			7:leaf=-0.0376652069
			8:leaf=-0.0497527681
		4:[f2<-0.962985635] yes=9,no=10,missing=9
			9:leaf=-0.0341933072
			10:leaf=0.0661145002
	2:[f5<10.5] yes=5,no=6,missing=5
		5:[f2<0.940402985] yes=11,no=12,missing=11
			11:leaf=-0.0042271046
			12:leaf=0.0342577547
		6:[f21<0.0550863557] yes=13,no=14,missing=13
			13:leaf=0.0492658429
			14:leaf=0.0013924489
booster[104]:
0:[f1<35.6248093] yes=1,no=2,missing=1
	1:[f4<0.108489394] yes=3,no=4,missing=3
		3:[f21<0.0365849435] yes=7,no=8,missing=7
			7:leaf=-0.00213468145
			8:leaf=0.0229219496
		4:[f12<-499.514526] yes=9,no=10,missing=9
			9:leaf=-0.0449625775
			10:leaf=-0.000969497662
	2:[f3<1.69972849] yes=5,no=6,missing=5
		5:[f15<4.5] yes=11,no=12,missing=11
			11:leaf=-0.0377681479
			12:leaf=0.0520477593
		6:[f0<0.156636775] yes=13,no=14,missing=13
			13:leaf=0.0495903902
			14:leaf=0.0284299497
booster[105]:
0:[f1<35.6248093] yes=1,no=2,missing=1
	1:[f4<0.108489394] yes=3,no=4,missing=3
		3:[f21<0.0365849435] yes=7,no=8,missing=7
			7:leaf=0.00213468238
			8:leaf=-0.0229219478
		4:[f12<-499.514526] yes=9,no=10,missing=9
			9:leaf=0.0449625812
			10:leaf=0.000969497953
	2:[f3<1.69972849] yes=5,no=6,missing=5
		5:[f15<4.5] yes=11,no=12,missing=11
			11:leaf=0.0377681516
			12:leaf=-0.0520477667
		6:[f0<0.156636775] yes=13,no=14,missing=13
			13:leaf=-0.0495903939
			14:leaf=-0.0284299832
booster[106]:
0:[f7<0.033363089] yes=1,no=2,missing=1
	1:[f5<10.5] yes=3,no=4,missing=3
		3:[f6<0.0236451589] yes=7,no=8,missing=7
			7:leaf=0.0480764657
			8:leaf=0.0269516148
		4:[f0<0.0899255574] yes=9,no=10,missing=9
			9:leaf=0.020510681
			10:leaf=-0.124981657
	2:[f18<0.0556229055] yes=5,no=6,missing=5
		5:[f4<0.179793119] yes=11,no=12,missing=11
			11:leaf=-0.00336349756
			12:leaf=-0.0302316546
		6:[f15<5.5] yes=13,no=14,missing=13
			13:leaf=0.00733310729
			14:leaf=0.0353413261
booster[107]:
0:[f7<0.033363089] yes=1,no=2,missing=1
	1:[f5<10.5] yes=3,no=4,missing=3
		3:[f6<0.0236451589] yes=7,no=8,missing=7
			7:leaf=-0.0480765179
			8:leaf=-0.0269518401
		4:[f0<0.0899255574] yes=9,no=10,missing=9
			9:leaf=-0.0205107294
			10:leaf=0.124981679
	2:[f18<0.0556229055] yes=5,no=6,missing=5
		5:[f4<0.179793119] yes=11,no=12,missing=11
			11:leaf=0.00336350314
			12:leaf=0.030231664
		6:[f15<5.5] yes=13,no=14,missing=13
			13:leaf=-0.0073331031
			14:leaf=-0.0353413075
booster[108]:
0:[f1<35.6248093] yes=1,no=2,missing=1
	1:[f0<0.677089453] yes=3,no=4,missing=3
		3:[f4<0.108489394] yes=7,no=8,missing=7
			7:leaf=0.00689620757
			8:leaf=-0.0151584363
		4:[f3<8.78668022] yes=9,no=10,missing=9
			9:leaf=-0.0289520975
			10:leaf=-0.0783793479
	2:[f1<92.4622192] yes=5,no=6,missing=5
		5:[f0<0.0609841943] yes=11,no=12,missing=11
			11:leaf=0.0414482318
			12:leaf=-0.0423190258
		6:leaf=0.0500961021
booster[109]:
0:[f1<35.6248093] yes=1,no=2,missing=1
	1:[f0<0.677089453] yes=3,no=4,missing=3
		3:[f4<0.108489394] yes=7,no=8,missing=7
			7:leaf=-0.00689620525
			8:leaf=0.0151584344
		4:[f3<8.78668022] yes=9,no=10,missing=9
			9:leaf=0.0289520975
			10:leaf=0.0783793479
	2:[f1<92.4622192] yes=5,no=6,missing=5
		5:[f0<0.0609841943] yes=11,no=12,missing=11
			11:leaf=-0.0414482616
			12:leaf=0.0423189998
		6:leaf=-0.0500961021
booster[110]:
0:[f7<0.0235471558] yes=1,no=2,missing=1
	1:[f5<10.5] yes=3,no=4,missing=3
		3:[f18<2.08802521e-06] yes=7,no=8,missing=7
			7:leaf=0.0352542661
			8:leaf=0.0490196459
		4:[f6<0.00896597933] yes=9,no=10,missing=9
			9:leaf=0.0411213078
			10:leaf=-0.0329096988
	2:[f1<88.8403168] yes=5,no=6,missing=5
		5:[f21<0.0359540582] yes=11,no=12,missing=11
			11:leaf=-0.0083128633
			12:leaf=0.0136571946
		6:leaf=0.0505256429
booster[111]:
0:[f7<0.0235471558] yes=1,no=2,missing=1
	1:[f5<10.5] yes=3,no=4,missing=3
		3:[f18<2.08802521e-06] yes=7,no=8,missing=7
			7:leaf=-0.0352543443
			8:leaf=-0.0490196608
		4:[f6<0.00896597933] yes=9,no=10,missing=9
			9:leaf=-0.0411213264
			10:leaf=0.0329095088
	2:[f1<88.8403168] yes=5,no=6,missing=5
		5:[f21<0.0359540582] yes=11,no=12,missing=11
			11:leaf=0.00831286516
			12:leaf=-0.0136571927
		6:leaf=-0.0505256429
booster[112]:
0:[f7<0.0235471558] yes=1,no=2,missing=1
	1:[f5<10.5] yes=3,no=4,missing=3
		3:[f18<2.08802521e-06] yes=7,no=8,missing=7
			7:leaf=0.0341238342
			8:leaf=0.0488523282
		4:[f6<0.00896597933] yes=9,no=10,missing=9
			9:leaf=0.0402302071
			10:leaf=-0.0279960576
	2:[f0<0.0168806314] yes=5,no=6,missing=5
		5:[f10<0.82775867] yes=11,no=12,missing=11
			11:leaf=0.0220114086
			12:leaf=-0.0101808039
		6:[f20<0.319180161] yes=13,no=14,missing=13
			13:leaf=-0.0179756321
			14:leaf=0.00489245029
booster[113]:
0:[f7<0.0235471558] yes=1,no=2,missing=1
	1:[f5<10.5] yes=3,no=4,missing=3
		3:[f18<2.08802521e-06] yes=7,no=8,missing=7
			7:leaf=-0.0341238417
			8:leaf=-0.0488523468
		4:[f6<0.00896597933] yes=9,no=10,missing=9
			9:leaf=-0.040230222
			10:leaf=0.0279960725
	2:[f0<0.0168806314] yes=5,no=6,missing=5
		5:[f10<0.82775867] yes=11,no=12,missing=11
			11:leaf=-0.0220114086
			12:leaf=0.010180803
		6:[f20<0.319180161] yes=13,no=14,missing=13
			13:leaf=0.017975634
			14:leaf=-0.00489244936
booster[114]:
0:[f1<53.7345657] yes=1,no=2,missing=1
	1:[f9<0.999982893] yes=3,no=4,missing=3
		3:[f18<0.0339224264] yes=7,no=8,missing=7
			7:leaf=-0.00186947326
			8:leaf=0.018162271
		4:[f12<0.00928094238] yes=9,no=10,missing=9
			9:leaf=-0.0160934664
			10:leaf=0.0152555853
	2:[f3<1.34384537] yes=5,no=6,missing=5
		5:[f16<65.161087] yes=11,no=12,missing=11
			11:leaf=-0.0879350081
			12:leaf=0.0301410705
		6:[f8<-0.0686132759] yes=13,no=14,missing=13
			13:leaf=-0.015073292
			14:leaf=0.0492340103
booster[115]:
0:[f1<53.7345657] yes=1,no=2,missing=1
	1:[f9<0.999982893] yes=3,no=4,missing=3
		3:[f18<0.0339224264] yes=7,no=8,missing=7
			7:leaf=0.00186947489
			8:leaf=-0.0181622747
		4:[f12<0.00928094238] yes=9,no=10,missing=9
			9:leaf=0.0160934646
			10:leaf=-0.0152555881
	2:[f3<1.34384537] yes=5,no=6,missing=5
		5:[f16<65.161087] yes=11,no=12,missing=11
			11:leaf=0.0879349932
			12:leaf=-0.0301410537
		6:[f8<-0.0686132759] yes=13,no=14,missing=13
			13:leaf=0.0150735378
			14:leaf=-0.0492339991
booster[116]:
0:[f1<53.7345657] yes=1,no=2,missing=1
	1:[f2<0.940402985] yes=3,no=4,missing=3
		3:[f0<0.0164350569] yes=7,no=8,missing=7
			7:leaf=0.0104071116
			8:leaf=-0.00769789238
		4:[f2<0.97731173] yes=9,no=10,missing=9
			9:leaf=-0.0242083762
			10:leaf=-0.0458777696
	2:[f3<1.34384537] yes=5,no=6,missing=5
		5:[f16<65.161087] yes=11,no=12,missing=11
			11:leaf=-0.0790646747
			12:leaf=0.0284096058
		6:[f10<0.000503404066] yes=13,no=14,missing=13
			13:leaf=-0.0186208617
			14:leaf=0.0490921736
booster[117]:
0:[f1<53.7345657] yes=1,no=2,missing=1
	1:[f2<0.940402985] yes=3,no=4,missing=3
		3:[f0<0.0164350569] yes=7,no=8,missing=7
			7:leaf=-0.0104071116
			8:leaf=0.00769789284
		4:[f2<0.97731173] yes=9,no=10,missing=9
			9:leaf=0.0242083725
			10:leaf=0.045877777
	2:[f3<1.34384537] yes=5,no=6,missing=5
		5:[f16<65.161087] yes=11,no=12,missing=11
			11:leaf=0.079064697
			12:leaf=-0.0284096301
		6:[f10<0.000503404066] yes=13,no=14,missing=13
			13:leaf=0.0186209027
			14:leaf=-0.0490921699
booster[118]:
0:[f7<0.0235471558] yes=1,no=2,missing=1
	1:[f5<10.5] yes=3,no=4,missing=3
		3:[f18<2.08802521e-06] yes=7,no=8,missing=7
			7:leaf=0.0317093991
			8:leaf=0.048436068
		4:[f6<0.00896597933] yes=9,no=10,missing=9
			9:leaf=0.0388584211
			10:leaf=-0.0261452589
	2:[f5<10.5] yes=5,no=6,missing=5
		5:[f2<0.940402985] yes=11,no=12,missing=11
			11:leaf=0.00365545577
			12:leaf=-0.0300785583
		6:[f21<0.0559696257] yes=13,no=14,missing=13
			13:leaf=-0.0431155711
			14:leaf=0.00123010552
booster[119]:
0:[f7<0.0235471558] yes=1,no=2,missing=1
	1:[f5<10.5] yes=3,no=4,missing=3
		3:[f18<2.08802521e-06] yes=7,no=8,missing=7
			7:leaf=-0.0317095108
			8:leaf=-0.048436068
		4:[f6<0.00896597933] yes=9,no=10,missing=9
			9:leaf=-0.0388584025
			10:leaf=0.0261452496
	2:[f5<10.5] yes=5,no=6,missing=5
		5:[f2<0.940402985] yes=11,no=12,missing=11
			11:leaf=-0.00365545042
			12:leaf=0.0300785638
		6:[f21<0.0559696257] yes=13,no=14,missing=13
			13:leaf=0.0431155749
			14:leaf=-0.00123010797
booster[120]:
0:[f3<32.1950073] yes=1,no=2,missing=1
	1:[f12<0.00815122388] yes=3,no=4,missing=3
		3:[f5<3] yes=7,no=8,missing=7
			7:leaf=0.0042951284
			8:leaf=-0.0246684924
		4:[f0<0.0152975321] yes=9,no=10,missing=9
			9:leaf=0.0329788327
			10:leaf=0.00245370623
	2:[f0<0.829152644] yes=5,no=6,missing=5
		5:[f10<0.000652715447] yes=11,no=12,missing=11
			11:leaf=-0.0438873023
			12:leaf=0.0489519089
		6:[f14<0.000580516527] yes=13,no=14,missing=13
			13:leaf=-0.0637891516
			14:leaf=-0.00658264337
booster[121]:
0:[f3<32.1950073] yes=1,no=2,missing=1
	1:[f12<0.00815122388] yes=3,no=4,missing=3
		3:[f5<3] yes=7,no=8,missing=7
			7:leaf=-0.00429512886
			8:leaf=0.024668498
		4:[f0<0.0152975321] yes=9,no=10,missing=9
			9:leaf=-0.0329788178
			10:leaf=-0.00245369715
	2:[f0<0.829152644] yes=5,no=6,missing=5
		5:[f10<0.000652715447] yes=11,no=12,missing=11
			11:leaf=0.0438873172
			12:leaf=-0.0489518754
		6:[f14<0.000580516527] yes=13,no=14,missing=13
			13:leaf=0.0637892634
			14:leaf=0.00658266386
booster[122]:
0:[f1<67.8641205] yes=1,no=2,missing=1
	1:[f7<0.0235471558] yes=3,no=4,missing=3
		3:[f5<10.5] yes=7,no=8,missing=7
			7:leaf=0.0399406813
			8:leaf=0.00794053916
		4:[f21<0.0359540582] yes=9,no=10,missing=9
			9:leaf=-0.00717545301
			10:leaf=0.0123997945
	2:[f1<92.4622192] yes=5,no=6,missing=5
		5:[f11<5.01292658] yes=11,no=12,missing=11
			11:leaf=0.0469485559
			12:leaf=-0.0538373478
		6:leaf=0.0498665683
booster[123]:
0:[f1<67.8641205] yes=1,no=2,missing=1
	1:[f7<0.0235471558] yes=3,no=4,missing=3
		3:[f5<10.5] yes=7,no=8,missing=7
			7:leaf=-0.0399406813
			8:leaf=-0.00794056337
		4:[f21<0.0359540582] yes=9,no=10,missing=9
			9:leaf=0.00717545394
			10:leaf=-0.0123997936
	2:[f1<92.4622192] yes=5,no=6,missing=5
		5:[f11<5.01292658] yes=11,no=12,missing=11
			11:leaf=-0.0469485931
			12:leaf=0.0538371615
		6:leaf=-0.049866572
booster[124]:
0:[f1<67.8641205] yes=1,no=2,missing=1
	1:[f20<0.168369174] yes=3,no=4,missing=3
		3:[f12<0.00812922604] yes=7,no=8,missing=7
			7:leaf=-0.0104866689
			8:leaf=0.0186595637
		4:[f9<1.58677483] yes=9,no=10,missing=9
			9:leaf=0.0155439964
			10:leaf=-0.00818896201
	2:[f1<92.4622192] yes=5,no=6,missing=5
		5:[f11<5.01292658] yes=11,no=12,missing=11
			11:leaf=0.0464170799
			12:leaf=-0.0465514362
		6:leaf=0.049817916
booster[125]:
0:[f1<67.8641205] yes=1,no=2,missing=1
	1:[f20<0.168369174] yes=3,no=4,missing=3
		3:[f12<0.00812922604] yes=7,no=8,missing=7
			7:leaf=0.0104866717
			8:leaf=-0.01865956
		4:[f9<1.58677483] yes=9,no=10,missing=9
			9:leaf=-0.0155439926
			10:leaf=0.00818896387
	2:[f1<92.4622192] yes=5,no=6,missing=5
		5:[f11<5.01292658] yes=11,no=12,missing=11
			11:leaf=-0.0464171432
			12:leaf=0.046551194
		6:leaf=-0.0498179272
booster[126]:
0:[f2<-0.963470459] yes=1,no=2,missing=1
	1:[f3<15.7066936] yes=3,no=4,missing=3
		3:[f22<0.250719815] yes=7,no=8,missing=7
			7:leaf=-0.0607908852
			8:leaf=0.0309878588
		4:[f20<0.494480312] yes=9,no=10,missing=9
			9:leaf=0.0492126755
			10:leaf=-0.0197342653
	2:[f5<10.5] yes=5,no=6,missing=5
		5:[f0<0.0214003623] yes=11,no=12,missing=11
			11:leaf=0.00875715818
			12:leaf=-0.00843065139
		6:[f17<2.59831786] yes=13,no=14,missing=13
			13:leaf=-0.0249323603
			14:leaf=-0.0593121946
booster[127]:
0:[f2<-0.963470459] yes=1,no=2,missing=1
	1:[f3<15.7066936] yes=3,no=4,missing=3
		3:[f22<0.250719815] yes=7,no=8,missing=7
			7:leaf=0.0607908554
			8:leaf=-0.0309878588
		4:[f20<0.494480312] yes=9,no=10,missing=9
			9:leaf=-0.0492127053
			10:leaf=0.0197333675
	2:[f5<10.5] yes=5,no=6,missing=5
		5:[f0<0.0214003623] yes=11,no=12,missing=11
			11:leaf=-0.00875718147
			12:leaf=0.00843064766
		6:[f17<2.59831786] yes=13,no=14,missing=13
			13:leaf=0.0249323603
			14:leaf=0.0593121834
booster[128]:
0:[f1<67.8641205] yes=1,no=2,missing=1
	1:[f0<0.803504944] yes=3,no=4,missing=3
		3:[f10<0.823374867] yes=7,no=8,missing=7
			7:leaf=0.00821725093
			8:leaf=-0.00883549359
		4:[f6<0.0524569154] yes=9,no=10,missing=9
			9:leaf=0.0450701974
			10:leaf=-0.0336639173
	2:[f1<92.4622192] yes=5,no=6,missing=5
		5:[f11<5.01292658] yes=11,no=12,missing=11
			11:leaf=0.0456805937
			12:leaf=-0.0414924957
		6:leaf=0.0497380905
booster[129]:
0:[f1<67.8641205] yes=1,no=2,missing=1
	1:[f0<0.803504944] yes=3,no=4,missing=3
		3:[f10<0.823374867] yes=7,no=8,missing=7
			7:leaf=-0.00821725093
			8:leaf=0.00883549452
		4:[f6<0.0524569154] yes=9,no=10,missing=9
			9:leaf=-0.0450702012
			10:leaf=0.0336639248
	2:[f1<92.4622192] yes=5,no=6,missing=5
		5:[f11<5.01292658] yes=11,no=12,missing=11
			11:leaf=-0.0456806496
			12:leaf=0.0414926372
		6:leaf=-0.0497380905
booster[130]:
0:[f7<0.0235471558] yes=1,no=2,missing=1
	1:[f5<10.5] yes=3,no=4,missing=3
		3:[f18<2.08802521e-06] yes=7,no=8,missing=7
			7:leaf=0.0247854497
			8:leaf=0.0473353826
		4:[f6<0.00896597933] yes=9,no=10,missing=9
			9:leaf=0.0368725993
			10:leaf=-0.0236839131
	2:[f18<0.0556229055] yes=5,no=6,missing=5
		5:[f4<0.179793119] yes=11,no=12,missing=11
			11:leaf=-0.00237762555
			12:leaf=-0.0241443347
		6:[f7<0.937165141] yes=13,no=14,missing=13
			13:leaf=0.0130155254
			14:leaf=-0.0196432676
booster[131]:
0:[f7<0.0235471558] yes=1,no=2,missing=1
	1:[f5<10.5] yes=3,no=4,missing=3
		3:[f18<2.08802521e-06] yes=7,no=8,missing=7
			7:leaf=-0.0247851964
			8:leaf=-0.0473354161
		4:[f6<0.00896597933] yes=9,no=10,missing=9
			9:leaf=-0.0368726179
			10:leaf=0.0236839391
	2:[f18<0.0556229055] yes=5,no=6,missing=5
		5:[f4<0.179793119] yes=11,no=12,missing=11
			11:leaf=0.00237762905
			12:leaf=0.0241443403
		6:[f7<0.937165141] yes=13,no=14,missing=13
			13:leaf=-0.0130155114
			14:leaf=0.0196432713
booster[132]:
0:[f1<67.8641205] yes=1,no=2,missing=1
	1:[f21<0.0532982051] yes=3,no=4,missing=3
		3:[f10<0.825346768] yes=7,no=8,missing=7
			7:leaf=0.00294419168
			8:leaf=-0.0128597273
		4:[f0<0.0181950331] yes=9,no=10,missing=9
			9:leaf=0.0352337621
			10:leaf=-0.00910776388
	2:[f1<92.4622192] yes=5,no=6,missing=5
		5:[f11<5.01292658] yes=11,no=12,missing=11
			11:leaf=0.0448863804
			12:leaf=-0.036842566
		6:leaf=0.0496518426
booster[133]:
0:[f1<67.8641205] yes=1,no=2,missing=1
	1:[f21<0.0532982051] yes=3,no=4,missing=3
		3:[f10<0.825346768] yes=7,no=8,missing=7
			7:leaf=-0.00294419006
			8:leaf=0.0128597273
		4:[f0<0.0181950331] yes=9,no=10,missing=9
			9:leaf=-0.0352337621
			10:leaf=0.00910776388
	2:[f1<92.4622192] yes=5,no=6,missing=5
		5:[f11<5.01292658] yes=11,no=12,missing=11
			11:leaf=-0.0448864624
			12:leaf=0.0368425585
		6:leaf=-0.0496518537
booster[134]:
0:[f2<-0.963470459] yes=1,no=2,missing=1
	1:[f3<15.7066936] yes=3,no=4,missing=3
		3:[f22<0.250719815] yes=7,no=8,missing=7
			7:leaf=-0.0551443659
			8:leaf=0.028292194
		4:[f20<0.494372636] yes=9,no=10,missing=9
			9:leaf=0.0488316081
			10:leaf=-0.0248425752
	2:[f20<0.290173441] yes=5,no=6,missing=5
		5:[f12<0.00555625744] yes=11,no=12,missing=11
			11:leaf=-0.00918158144
			12:leaf=0.0148227951
		6:[f1<2.87722731] yes=13,no=14,missing=13
			13:leaf=-0.00439335452
			14:leaf=0.0180834532
booster[135]:
0:[f2<-0.963470459] yes=1,no=2,missing=1
	1:[f3<15.7066936] yes=3,no=4,missing=3
		3:[f22<0.250719815] yes=7,no=8,missing=7
			7:leaf=0.0551444069
			8:leaf=-0.0282921977
		4:[f20<0.494372636] yes=9,no=10,missing=9
			9:leaf=-0.0488316827
			10:leaf=0.0248431787
	2:[f20<0.290173441] yes=5,no=6,missing=5
		5:[f12<0.00555625744] yes=11,no=12,missing=11
			11:leaf=0.00918157492
			12:leaf=-0.0148227932
		6:[f1<2.87722731] yes=13,no=14,missing=13
			13:leaf=0.00439335639
			14:leaf=-0.0180834662
booster[136]:
0:[f3<37.1924324] yes=1,no=2,missing=1
	1:[f9<1.06696963] yes=3,no=4,missing=3
		3:[f11<-0.36482811] yes=7,no=8,missing=7
			7:leaf=0.0101166656
			8:leaf=-0.00929957908
		4:[f0<0.245940834] yes=9,no=10,missing=9
			9:leaf=-0.00614137994
			10:leaf=-0.0306165256
	2:[f0<0.267178863] yes=5,no=6,missing=5
		5:[f22<0.250160128] yes=11,no=12,missing=11
			11:leaf=0.0246731397
			12:leaf=0.0495272428
		6:[f1<68.0162811] yes=13,no=14,missing=13
			13:leaf=-0.0690242574
			14:leaf=0.045202598
booster[137]:
0:[f3<37.1924324] yes=1,no=2,missing=1
	1:[f9<1.06696963] yes=3,no=4,missing=3
		3:[f11<-0.36482811] yes=7,no=8,missing=7
			7:leaf=-0.0101166628
			8:leaf=0.00929958839
		4:[f0<0.245940834] yes=9,no=10,missing=9
			9:leaf=0.0061413818
			10:leaf=0.0306165256
	2:[f0<0.267178863] yes=5,no=6,missing=5
		5:[f22<0.250160128] yes=11,no=12,missing=11
			11:leaf=-0.0246733744
			12:leaf=-0.049527254
		6:[f1<68.0162811] yes=13,no=14,missing=13
			13:leaf=0.0690242648
			14:leaf=-0.0452026352
booster[138]:
0:[f1<92.4622192] yes=1,no=2,missing=1
	1:[f2<0.950131118] yes=3,no=4,missing=3
		3:[f4<0.0424075425] yes=5,no=6,missing=5
			5:leaf=0.00633315695
			6:leaf=-0.0106840096
		4:[f19<0.34166497] yes=7,no=8,missing=7
			7:leaf=-0.0314103849
			8:leaf=0.0696725175
	2:leaf=0.0494846664
booster[139]:
0:[f1<92.4622192] yes=1,no=2,missing=1
	1:[f2<0.950131118] yes=3,no=4,missing=3
		3:[f4<0.0424075425] yes=5,no=6,missing=5
			5:leaf=-0.00633315835
			6:leaf=0.010684005
		4:[f19<0.34166497] yes=7,no=8,missing=7
			7:leaf=0.0314103812
			8:leaf=-0.0696725771
	2:leaf=-0.0494846515
booster[140]:
0:[f7<0.0235471558] yes=1,no=2,missing=1
	1:[f5<10.5] yes=3,no=4,missing=3
		3:[f18<2.08802521e-06] yes=7,no=8,missing=7
			7:leaf=0.0203859601
			8:leaf=0.0462072268
		4:[f6<0.00896597933] yes=9,no=10,missing=9
			9:leaf=0.0345773734
			10:leaf=-0.0240477026
	2:[f21<0.0311853532] yes=5,no=6,missing=5
		5:[f10<0.822859764] yes=11,no=12,missing=11
			11:leaf=0.00224707113
			12:leaf=-0.0186030623
		6:[f0<0.0787502825] yes=13,no=14,missing=13
			13:leaf=0.0178985391
			14:leaf=-0.0149062602
booster[141]:
0:[f7<0.0235471558] yes=1,no=2,missing=1
	1:[f5<10.5] yes=3,no=4,missing=3
		3:[f18<2.08802521e-06] yes=7,no=8,missing=7
			7:leaf=-0.0203862023
			8:leaf=-0.0462074913
		4:[f6<0.00896597933] yes=9,no=10,missing=9
			9:leaf=-0.0345774256
			10:leaf=0.0240477081
	2:[f21<0.0311853532] yes=5,no=6,missing=5
		5:[f10<0.822859764] yes=11,no=12,missing=11
			11:leaf=-0.00224707089
			12:leaf=0.0186030623
		6:[f0<0.0787502825] yes=13,no=14,missing=13
			13:leaf=-0.0178985391
			14:leaf=0.014906262
booster[142]:
0:[f1<92.4622192] yes=1,no=2,missing=1
	1:[f0<0.829809189] yes=3,no=4,missing=3
		3:[f4<0.0424075425] yes=5,no=6,missing=5
			5:leaf=0.00539067434
			6:leaf=-0.00925201643
		4:[f14<0.00215191278] yes=7,no=8,missing=7
			7:leaf=-0.0186637081
			8:leaf=-0.0398772918
	2:leaf=0.0493638851
booster[143]:
0:[f1<92.4622192] yes=1,no=2,missing=1
	1:[f0<0.829809189] yes=3,no=4,missing=3
		3:[f4<0.0424075425] yes=5,no=6,missing=5
			5:leaf=-0.00539067155
			6:leaf=0.00925200898
		4:[f14<0.00215191278] yes=7,no=8,missing=7
			7:leaf=0.01866371
			8:leaf=0.0398772843
	2:leaf=-0.0493638664
booster[144]:
0:[f2<-0.963470459] yes=1,no=2,missing=1
	1:[f3<15.7066936] yes=3,no=4,missing=3
		3:[f0<0.338658184] yes=7,no=8,missing=7
			7:leaf=0.0262413528
			8:leaf=-0.0609540641
		4:[f20<0.492452741] yes=9,no=10,missing=9
			9:leaf=0.0482339785
			10:leaf=-0.0244825426
	2:[f5<10.5] yes=5,no=6,missing=5
		5:[f0<0.0168960989] yes=11,no=12,missing=11
			11:leaf=0.00730963284
			12:leaf=-0.00690768613
		6:[f17<2.59831786] yes=13,no=14,missing=13
			13:leaf=-0.0207001809
			14:leaf=-0.0523931868
booster[145]:
0:[f2<-0.963470459] yes=1,no=2,missing=1
	1:[f3<15.7066936] yes=3,no=4,missing=3
		3:[f0<0.338658184] yes=7,no=8,missing=7
			7:leaf=-0.0262413509
			8:leaf=0.0609541312
		4:[f20<0.492452741] yes=9,no=10,missing=9
			9:leaf=-0.0482341386
			10:leaf=0.0244828016
	2:[f5<10.5] yes=5,no=6,missing=5
		5:[f0<0.0168960989] yes=11,no=12,missing=11
			11:leaf=-0.00730962539
			12:leaf=0.00690767774
		6:[f17<2.59831786] yes=13,no=14,missing=13
			13:leaf=0.0207001846
			14:leaf=0.052393198
booster[146]:
0:[f3<37.1924324] yes=1,no=2,missing=1
	1:[f18<0.0441797264] yes=3,no=4,missing=3
		3:[f12<-499.51474] yes=7,no=8,missing=7
			7:leaf=-0.00933009852
			8:leaf=0.0115322657
		4:[f9<1.31781578] yes=9,no=10,missing=9
			9:leaf=0.0138587253
			10:leaf=-0.00504356576
	2:[f0<0.267178863] yes=5,no=6,missing=5
		5:[f22<0.250160128] yes=11,no=12,missing=11
			11:leaf=0.0164529197
			12:leaf=0.0492363088
		6:[f1<68.0162811] yes=13,no=14,missing=13
			13:leaf=-0.0587037876
			14:leaf=0.0431270264
booster[147]:
0:[f3<37.1924324] yes=1,no=2,missing=1
	1:[f18<0.0441797264] yes=3,no=4,missing=3
		3:[f12<-499.51474] yes=7,no=8,missing=7
			7:leaf=0.00933010131
			8:leaf=-0.0115322638
		4:[f9<1.31781578] yes=9,no=10,missing=9
			9:leaf=-0.0138587253
			10:leaf=0.00504356576
	2:[f0<0.267178863] yes=5,no=6,missing=5
		5:[f22<0.250160128] yes=11,no=12,missing=11
			11:leaf=-0.0164531767
			12:leaf=-0.04923632
		6:[f1<68.0162811] yes=13,no=14,missing=13
			13:leaf=0.0587037802
			14:leaf=-0.0431269966
booster[148]:
0:[f7<0.0235471558] yes=1,no=2,missing=1
	1:[f5<10.5] yes=3,no=4,missing=3
		3:[f18<2.08802521e-06] yes=7,no=8,missing=7
			7:leaf=0.0167021714
			8:leaf=0.0450341105
		4:[f20<0.261310637] yes=9,no=10,missing=9
			9:leaf=-0.0200306773
			10:leaf=0.0359996706
	2:[f5<3] yes=5,no=6,missing=5
		5:[f2<-0.0274623837] yes=11,no=12,missing=11
			11:leaf=0.0160689056
			12:leaf=-0.00341688911
		6:[f12<-499.51474] yes=13,no=14,missing=13
			13:leaf=-0.0418899469
			14:leaf=0.00852183811
booster[149]:
0:[f7<0.0235471558] yes=1,no=2,missing=1
	1:[f5<10.5] yes=3,no=4,missing=3
		3:[f18<2.08802521e-06] yes=7,no=8,missing=7
			7:leaf=-0.016702259
			8:leaf=-0.0450341366
		4:[f20<0.261310637] yes=9,no=10,missing=9
			9:leaf=0.0200306233
			10:leaf=-0.035999693
	2:[f5<3] yes=5,no=6,missing=5
		5:[f2<-0.0274623837] yes=11,no=12,missing=11
			11:leaf=-0.0160689056
			12:leaf=0.00341689074
		6:[f12<-499.51474] yes=13,no=14,missing=13
			13:leaf=0.0418899432
			14:leaf=-0.00852183718
booster[150]:
0:[f1<92.4622192] yes=1,no=2,missing=1
	1:[f2<0.953281283] yes=3,no=4,missing=3
		3:[f21<0.0559402257] yes=5,no=6,missing=5
			5:leaf=-0.00103523815
			6:leaf=0.019701492
		4:[f19<0.34166497] yes=7,no=8,missing=7
			7:leaf=-0.0302692242
			8:leaf=0.0635483712
	2:leaf=0.049069345
booster[151]:
0:[f1<92.4622192] yes=1,no=2,missing=1
	1:[f2<0.953281283] yes=3,no=4,missing=3
		3:[f21<0.0559402257] yes=5,no=6,missing=5
			5:leaf=0.00103523885
			6:leaf=-0.0197014939
		4:[f19<0.34166497] yes=7,no=8,missing=7
			7:leaf=0.0302692112
			8:leaf=-0.0635483339
	2:leaf=-0.049069304
booster[152]:
0:[f2<-0.963470459] yes=1,no=2,missing=1
	1:[f3<15.7066936] yes=3,no=4,missing=3
		3:[f10<0.159664094] yes=7,no=8,missing=7
			7:leaf=-0.0426652394
			8:leaf=0.0248679053
		4:[f20<0.49162522] yes=9,no=10,missing=9
			9:leaf=0.0475776792
			10:leaf=-0.0246667303
	2:[f20<0.412587911] yes=5,no=6,missing=5
		5:[f0<0.0214003623] yes=11,no=12,missing=11
			11:leaf=0.00200746697
			12:leaf=-0.0107014049
		6:[f16<2.41639733] yes=13,no=14,missing=13
			13:leaf=0.00231027859
			14:leaf=0.0296009723
booster[153]:
0:[f2<-0.963470459] yes=1,no=2,missing=1
	1:[f3<15.7066936] yes=3,no=4,missing=3
		3:[f10<0.159664094] yes=7,no=8,missing=7
			7:leaf=0.0426652543
			8:leaf=-0.0248679034
		4:[f20<0.49162522] yes=9,no=10,missing=9
			9:leaf=-0.0475776419
			10:leaf=0.02466584
	2:[f20<0.412587911] yes=5,no=6,missing=5
		5:[f0<0.0214003623] yes=11,no=12,missing=11
			11:leaf=-0.00200746022
			12:leaf=0.0107014049
		6:[f16<2.41639733] yes=13,no=14,missing=13
			13:leaf=-0.00231027813
			14:leaf=-0.029600963
booster[154]:
0:[f1<92.4622192] yes=1,no=2,missing=1
	1:[f10<0.825354457] yes=3,no=4,missing=3
		3:[f0<0.017514348] yes=7,no=8,missing=7
			7:leaf=0.0168460254
			8:leaf=-0.00643380824
		4:[f21<0.0312925279] yes=9,no=10,missing=9
			9:leaf=-0.0153468056
			10:leaf=0.00789081119
	2:[f1<126.575302] yes=5,no=6,missing=5
		5:[f2<-0.991646707] yes=11,no=12,missing=11
			11:leaf=-0.0249818079
			12:leaf=0.0426284783
		6:leaf=0.0496521965
booster[155]:
0:[f1<92.4622192] yes=1,no=2,missing=1
	1:[f10<0.825354457] yes=3,no=4,missing=3
		3:[f0<0.017514348] yes=7,no=8,missing=7
			7:leaf=-0.0168460254
			8:leaf=0.00643380824
		4:[f21<0.0312925279] yes=9,no=10,missing=9
			9:leaf=0.0153468046
			10:leaf=-0.00789081212
	2:[f1<126.575302] yes=5,no=6,missing=5
		5:[f2<-0.991646707] yes=11,no=12,missing=11
			11:leaf=0.0249776524
			12:leaf=-0.0426286757
		6:leaf=-0.04965223
booster[156]:
0:[f1<92.4622192] yes=1,no=2,missing=1
	1:[f20<0.168369174] yes=3,no=4,missing=3
		3:[f16<4.65545797] yes=7,no=8,missing=7
			7:leaf=-0.00322291977
			8:leaf=-0.0323658511
		4:[f1<2.87722731] yes=9,no=10,missing=9
			9:leaf=-0.00372626632
			10:leaf=0.0132865822
	2:[f1<126.575302] yes=5,no=6,missing=5
		5:[f2<-0.992005169] yes=11,no=12,missing=11
			11:leaf=-0.0249843784
			12:leaf=0.0420862883
		6:leaf=0.0495995656
booster[157]:
0:[f1<92.4622192] yes=1,no=2,missing=1
	1:[f20<0.168369174] yes=3,no=4,missing=3
		3:[f16<4.65545797] yes=7,no=8,missing=7
			7:leaf=0.00322292349
			8:leaf=0.0323658511
		4:[f1<2.87722731] yes=9,no=10,missing=9
			9:leaf=0.00372626609
			10:leaf=-0.013286585
	2:[f1<126.575302] yes=5,no=6,missing=5
		5:[f2<-0.992005169] yes=11,no=12,missing=11
			11:leaf=0.0249812528
			12:leaf=-0.0420863666
		6:leaf=-0.0495996103
booster[158]:
0:[f2<-0.979163647] yes=1,no=2,missing=1
	1:[f1<12.4501858] yes=3,no=4,missing=3
		3:[f22<6.67712498] yes=7,no=8,missing=7
			7:leaf=-0.0554945171
			8:leaf=0.032712739
		4:[f15<1.5] yes=9,no=10,missing=9
			9:leaf=0.00325117796
			10:leaf=0.046985507
	2:[f11<-1.02027822] yes=5,no=6,missing=5
		5:[f10<0.88687861] yes=11,no=12,missing=11
			11:leaf=0.0107119894
			12:leaf=-0.00706452504
		6:[f12<-499.515259] yes=13,no=14,missing=13
			13:leaf=-0.0362557918
			14:leaf=0.00472984323
booster[159]:
0:[f2<-0.979163647] yes=1,no=2,missing=1
	1:[f1<12.4501858] yes=3,no=4,missing=3
		3:[f22<6.67712498] yes=7,no=8,missing=7
			7:leaf=0.0554945283
			8:leaf=-0.0327127315
		4:[f15<1.5] yes=9,no=10,missing=9
			9:leaf=-0.00325033511
			10:leaf=-0.0469858758
	2:[f11<-1.02027822] yes=5,no=6,missing=5
		5:[f10<0.88687861] yes=11,no=12,missing=11
			11:leaf=-0.010711994
			12:leaf=0.00706452131
		6:[f12<-499.515259] yes=13,no=14,missing=13
			13:leaf=0.0362557769
			14:leaf=-0.00472988049
booster[160]:
0:[f1<92.4622192] yes=1,no=2,missing=1
	1:[f2<0.950131118] yes=3,no=4,missing=3
		3:[f5<3] yes=7,no=8,missing=7
			7:leaf=0.00583233172
			8:leaf=-0.00640090322
		4:[f2<0.981370211] yes=9,no=10,missing=9
			9:leaf=-0.0180733223
			10:leaf=-0.0460188948
	2:[f1<126.575302] yes=5,no=6,missing=5
		5:[f2<-0.991648197] yes=11,no=12,missing=11
			11:leaf=-0.0249910783
			12:leaf=0.0412640087
		6:leaf=0.0495131724
booster[161]:
0:[f1<92.4622192] yes=1,no=2,missing=1
	1:[f2<0.950131118] yes=3,no=4,missing=3
		3:[f5<3] yes=7,no=8,missing=7
			7:leaf=-0.00583233265
			8:leaf=0.00640090043
		4:[f2<0.981370211] yes=9,no=10,missing=9
			9:leaf=0.018073326
			10:leaf=0.0460188948
	2:[f1<126.575302] yes=5,no=6,missing=5
		5:[f2<-0.991648197] yes=11,no=12,missing=11
			11:leaf=0.0249873791
			12:leaf=-0.0412640423
		6:leaf=-0.0495131388
booster[162]:
0:[f7<0.0235471558] yes=1,no=2,missing=1
	1:[f5<10.5] yes=3,no=4,missing=3
		3:[f18<2.08802521e-06] yes=7,no=8,missing=7
			7:leaf=0.012463334
			8:leaf=0.0429205112
		4:[f22<5.16149902] yes=9,no=10,missing=9
			9:leaf=-0.0845631808
			10:leaf=0.00928636175
	2:[f0<0.803504944] yes=5,no=6,missing=5
		5:[f10<0.865855336] yes=11,no=12,missing=11
			11:leaf=0.0049942974
			12:leaf=-0.00841876678
		6:[f16<8.54473591] yes=13,no=14,missing=13
			13:leaf=-0.0289274007
			14:leaf=0.0403564684
booster[163]:
0:[f7<0.0235471558] yes=1,no=2,missing=1
	1:[f5<10.5] yes=3,no=4,missing=3
		3:[f18<2.08802521e-06] yes=7,no=8,missing=7
			7:leaf=-0.0124637494
			8:leaf=-0.0429203771
		4:[f22<5.16149902] yes=9,no=10,missing=9
			9:leaf=0.0845631063
			10:leaf=-0.00928639248
	2:[f0<0.803504944] yes=5,no=6,missing=5
		5:[f10<0.865855336] yes=11,no=12,missing=11
			11:leaf=-0.00499429787
			12:leaf=0.00841876771
		6:[f16<8.54473591] yes=13,no=14,missing=13
			13:leaf=0.0289274063
			14:leaf=-0.0403564721
booster[164]:
0:[f2<-0.979163647] yes=1,no=2,missing=1
	1:[f1<12.4501858] yes=3,no=4,missing=3
		3:[f22<6.67712498] yes=7,no=8,missing=7
			7:leaf=-0.0444386415
			8:leaf=0.0308760349
		4:[f15<1.5] yes=9,no=10,missing=9
			9:leaf=0.00215380895
			10:leaf=0.0462906472
	2:[f9<1.95502353] yes=5,no=6,missing=5
		5:[f11<-1.51604176] yes=11,no=12,missing=11
			11:leaf=0.00726201478
			12:leaf=-0.00753455935
		6:[f10<0.916083217] yes=13,no=14,missing=13
			13:leaf=-0.0053671957
			14:leaf=-0.0264009982
booster[165]:
0:[f2<-0.979163647] yes=1,no=2,missing=1
	1:[f1<12.4501858] yes=3,no=4,missing=3
		3:[f22<6.67712498] yes=7,no=8,missing=7
			7:leaf=0.0444386303
			8:leaf=-0.0308760349
		4:[f15<1.5] yes=9,no=10,missing=9
			9:leaf=-0.00215460872
			10:leaf=-0.0462907106
	2:[f9<1.95502353] yes=5,no=6,missing=5
		5:[f11<-1.51604176] yes=11,no=12,missing=11
			11:leaf=-0.00726201478
			12:leaf=0.00753456354
		6:[f10<0.916083217] yes=13,no=14,missing=13
			13:leaf=0.00536719849
			14:leaf=0.0264010075
booster[166]:
0:[f1<92.4622192] yes=1,no=2,missing=1
	1:[f0<0.889243007] yes=3,no=4,missing=3
		3:[f22<69.1109314] yes=7,no=8,missing=7
			7:leaf=0.000198311565
			8:leaf=0.0597848594
		4:[f14<0.00215191278] yes=9,no=10,missing=9
			9:leaf=-0.0148115056
			10:leaf=-0.0423790365
	2:[f1<126.575302] yes=5,no=6,missing=5
		5:[f2<-0.9900738] yes=11,no=12,missing=11
			11:leaf=-0.0249874145
			12:leaf=0.0400752425
		6:leaf=0.0493826754
booster[167]:
0:[f1<92.4622192] yes=1,no=2,missing=1
	1:[f0<0.889243007] yes=3,no=4,missing=3
		3:[f22<69.1109314] yes=7,no=8,missing=7
			7:leaf=-0.000198312104
			8:leaf=-0.0597848594
		4:[f14<0.00215191278] yes=9,no=10,missing=9
			9:leaf=0.0148115251
			10:leaf=0.0423790365
	2:[f1<126.575302] yes=5,no=6,missing=5
		5:[f2<-0.9900738] yes=11,no=12,missing=11
			11:leaf=0.0249912385
			12:leaf=-0.0400751308
		6:leaf=-0.0493826345
booster[168]:
0:[f7<0.0125607289] yes=1,no=2,missing=1
	1:[f16<0.500007927] yes=3,no=4,missing=3
		3:[f19<0.135363966] yes=7,no=8,missing=7
			7:leaf=0.0258062966
			8:leaf=-0.0567532666
		4:[f10<0.0949229747] yes=9,no=10,missing=9
			9:leaf=-0.0049814065
			10:leaf=0.0474831574
	2:[f20<0.412584186] yes=5,no=6,missing=5
		5:[f12<0.00722196652] yes=11,no=12,missing=11
			11:leaf=-0.00514107058
			12:leaf=0.0119647821
		6:[f16<4.91419697] yes=13,no=14,missing=13
			13:leaf=0.00615134975
			14:leaf=0.0365088582
booster[169]:
0:[f7<0.0125607289] yes=1,no=2,missing=1
	1:[f16<0.500007927] yes=3,no=4,missing=3
		3:[f19<0.135363966] yes=7,no=8,missing=7
			7:leaf=-0.0258062724
			8:leaf=0.056753207
		4:[f10<0.0949229747] yes=9,no=10,missing=9
			9:leaf=0.00498186378
			10:leaf=-0.047483135
	2:[f20<0.412584186] yes=5,no=6,missing=5
		5:[f12<0.00722196652] yes=11,no=12,missing=11
			11:leaf=0.00514106732
			12:leaf=-0.0119647486
		6:[f16<4.91419697] yes=13,no=14,missing=13
			13:leaf=-0.00615134789
			14:leaf=-0.0365088806
booster[170]:
0:[f1<92.4622192] yes=1,no=2,missing=1
	1:[f21<0.0549288578] yes=3,no=4,missing=3
		3:[f9<0.77457577] yes=7,no=8,missing=7
			7:leaf=0.00251259841
			8:leaf=-0.00879840087
		4:[f0<0.0181950331] yes=9,no=10,missing=9
			9:leaf=0.0303037558
			10:leaf=-0.00967752747
	2:[f1<126.575302] yes=5,no=6,missing=5
		5:[f2<-0.989763498] yes=11,no=12,missing=11
			11:leaf=-0.0249827337
			12:leaf=0.0390450023
		6:leaf=0.0492688306
booster[171]:
0:[f1<92.4622192] yes=1,no=2,missing=1
	1:[f21<0.0549288578] yes=3,no=4,missing=3
		3:[f9<0.77457577] yes=7,no=8,missing=7
			7:leaf=-0.00251259934
			8:leaf=0.00879840273
		4:[f0<0.0181950331] yes=9,no=10,missing=9
			9:leaf=-0.0303037558
			10:leaf=0.00967752747
	2:[f1<126.575302] yes=5,no=6,missing=5
		5:[f2<-0.989763498] yes=11,no=12,missing=11
			11:leaf=0.0249806605
			12:leaf=-0.0390449427
		6:leaf=-0.04926873
booster[172]:
0:[f15<6.5] yes=1,no=2,missing=1
	1:[f0<0.016436249] yes=3,no=4,missing=3
		3:[f10<0.823685646] yes=7,no=8,missing=7
			7:leaf=0.0146583319
			8:leaf=-0.00858494733
		4:[f7<0.209282488] yes=9,no=10,missing=9
			9:leaf=-0.0239983201
			10:leaf=-0.000810563564
	2:[f18<0.0334002636] yes=5,no=6,missing=5
		5:[f17<4.79777193] yes=11,no=12,missing=11
			11:leaf=0.0242094751
			12:leaf=-0.0284526199
		6:[f10<0.999602675] yes=13,no=14,missing=13
			13:leaf=0.037844643
			14:leaf=0.00227140635
booster[173]:
0:[f15<6.5] yes=1,no=2,missing=1
	1:[f0<0.016436249] yes=3,no=4,missing=3
		3:[f10<0.823685646] yes=7,no=8,missing=7
			7:leaf=-0.0146583049
			8:leaf=0.00858494826
		4:[f7<0.209282488] yes=9,no=10,missing=9
			9:leaf=0.0239983294
			10:leaf=0.00081056403
	2:[f18<0.0334002636] yes=5,no=6,missing=5
		5:[f17<4.79777193] yes=11,no=12,missing=11
			11:leaf=-0.0242093746
			12:leaf=0.0284527242
		6:[f10<0.999602675] yes=13,no=14,missing=13
			13:leaf=-0.0378444418
			14:leaf=-0.00227138121
booster[174]:
0:[f7<0.0125607289] yes=1,no=2,missing=1
	1:[f16<0.500007927] yes=3,no=4,missing=3
		3:[f19<0.135363966] yes=7,no=8,missing=7
			7:leaf=0.0244771242
			8:leaf=-0.0476276092
		4:[f10<0.0949229747] yes=9,no=10,missing=9
			9:leaf=-0.00632628426
			10:leaf=0.0470002592
	2:[f2<0.97731173] yes=5,no=6,missing=5
		5:[f5<3] yes=11,no=12,missing=11
			11:leaf=0.00462743035
			12:leaf=-0.00723493332
		6:[f22<8.91458988] yes=13,no=14,missing=13
			13:leaf=-0.015824955
			14:leaf=-0.046606984
booster[175]:
0:[f7<0.0125607289] yes=1,no=2,missing=1
	1:[f16<0.500007927] yes=3,no=4,missing=3
		3:[f19<0.135363966] yes=7,no=8,missing=7
			7:leaf=-0.0244770553
			8:leaf=0.047627531
		4:[f10<0.0949229747] yes=9,no=10,missing=9
			9:leaf=0.00632761046
			10:leaf=-0.0470001884
	2:[f2<0.97731173] yes=5,no=6,missing=5
		5:[f5<3] yes=11,no=12,missing=11
			11:leaf=-0.00462743035
			12:leaf=0.00723495707
		6:[f22<8.91458988] yes=13,no=14,missing=13
			13:leaf=0.0158249643
			14:leaf=0.046606984
booster[176]:
0:[f1<92.4622192] yes=1,no=2,missing=1
	1:[f22<69.1109314] yes=3,no=4,missing=3
		3:[f2<0.953281283] yes=7,no=8,missing=7
			7:leaf=0.000371965143
			8:leaf=-0.0242689662
		4:[f19<0.0425945595] yes=9,no=10,missing=9
			9:leaf=0.0316231325
			10:leaf=0.0677867606
	2:[f1<126.575302] yes=5,no=6,missing=5
		5:[f2<-0.98863554] yes=11,no=12,missing=11
			11:leaf=-0.0249880645
			12:leaf=0.037663158
		6:leaf=0.0491111763
booster[177]:
0:[f1<92.4622192] yes=1,no=2,missing=1
	1:[f22<69.1109314] yes=3,no=4,missing=3
		3:[f2<0.953281283] yes=7,no=8,missing=7
			7:leaf=-0.0003719659
			8:leaf=0.0242689662
		4:[f19<0.0425945595] yes=9,no=10,missing=9
			9:leaf=-0.0316231363
			10:leaf=-0.0677867606
	2:[f1<126.575302] yes=5,no=6,missing=5
		5:[f2<-0.988637209] yes=11,no=12,missing=11
			11:leaf=0.0249907002
			12:leaf=-0.0376633555
		6:leaf=-0.0491112322
booster[178]:
0:[f2<-0.979163647] yes=1,no=2,missing=1
	1:[f22<6.67062283] yes=3,no=4,missing=3
		3:[f7<0.0104879308] yes=7,no=8,missing=7
			7:leaf=-0.0516253524
			8:leaf=0.0426635593
		4:[f0<0.339911103] yes=9,no=10,missing=9
			9:leaf=0.0416782163
			10:leaf=-0.0230019651
	2:[f20<0.274949014] yes=5,no=6,missing=5
		5:[f12<-499.51474] yes=11,no=12,missing=11
			11:leaf=-0.00760713173
			12:leaf=0.00889204722
		6:[f7<0.887812138] yes=13,no=14,missing=13
			13:leaf=0.0101229325
			14:leaf=-0.0108333817
booster[179]:
0:[f2<-0.979163647] yes=1,no=2,missing=1
	1:[f22<6.67062283] yes=3,no=4,missing=3
		3:[f7<0.0104879308] yes=7,no=8,missing=7
			7:leaf=0.0516237915
			8:leaf=-0.0426636003
		4:[f0<0.339911103] yes=9,no=10,missing=9
			9:leaf=-0.0416785032
			10:leaf=0.0230031814
	2:[f20<0.274949014] yes=5,no=6,missing=5
		5:[f12<-499.51474] yes=11,no=12,missing=11
			11:leaf=0.00760713592
			12:leaf=-0.00889204256
		6:[f7<0.887812138] yes=13,no=14,missing=13
			13:leaf=-0.0101229157
			14:leaf=0.0108333835
booster[180]:
0:[f1<126.575302] yes=1,no=2,missing=1
	1:[f21<0.0532982051] yes=3,no=4,missing=3
		3:[f5<0.5] yes=5,no=6,missing=5
			5:leaf=0.00955781899
			6:leaf=-0.00444594631
		4:[f0<0.0181950331] yes=7,no=8,missing=7
			7:leaf=0.0266326312
			8:leaf=-0.00743085379
	2:leaf=0.0489624105
booster[181]:
0:[f1<126.575302] yes=1,no=2,missing=1
	1:[f21<0.0532982051] yes=3,no=4,missing=3
		3:[f5<0.5] yes=5,no=6,missing=5
			5:leaf=-0.0095578162
			6:leaf=0.00444594631
		4:[f0<0.0181950331] yes=7,no=8,missing=7
			7:leaf=-0.0266326275
			8:leaf=0.00743085472
	2:leaf=-0.0489623994
booster[182]:
0:[f0<0.926119745] yes=1,no=2,missing=1
	1:[f22<35.8032303] yes=3,no=4,missing=3
		3:[f7<0.0235471558] yes=7,no=8,missing=7
			7:leaf=0.0251700338
			8:leaf=-0.00237548468
		4:[f7<0.936619043] yes=9,no=10,missing=9
			9:leaf=0.0153579814
			10:leaf=-0.018696839
	2:[f17<8.49990559] yes=5,no=6,missing=5
		5:[f7<0.978219509] yes=11,no=12,missing=11
			11:leaf=-0.0257172976
			12:leaf=-0.0489956029
		6:[f18<0.0169774927] yes=13,no=14,missing=13
			13:leaf=-0.00201002927
			14:leaf=0.0723769218
booster[183]:
0:[f0<0.926119745] yes=1,no=2,missing=1
	1:[f22<35.8032303] yes=3,no=4,missing=3
		3:[f7<0.0235471558] yes=7,no=8,missing=7
			7:leaf=-0.0251694974
			8:leaf=0.00237548677
		4:[f7<0.936619043] yes=9,no=10,missing=9
			9:leaf=-0.015357933
			10:leaf=0.018696839
	2:[f17<8.49990559] yes=5,no=6,missing=5
		5:[f7<0.978219509] yes=11,no=12,missing=11
			11:leaf=0.0257172976
			12:leaf=0.0489956029
		6:[f18<0.0169774927] yes=13,no=14,missing=13
			13:leaf=0.00201002299
			14:leaf=-0.072376892
booster[184]:
0:[f18<0.0556212775] yes=1,no=2,missing=1
	1:[f17<1.23474383] yes=3,no=4,missing=3
		3:[f6<0.449491262] yes=7,no=8,missing=7
			7:leaf=-0.00943893846
			8:leaf=0.0094259046
		4:[f0<5.96046448e-08] yes=9,no=10,missing=9
			9:leaf=-0.030957764
			10:leaf=-0.00265156571
	2:[f2<-0.919519782] yes=5,no=6,missing=5
		5:[f0<0.339911103] yes=11,no=12,missing=11
			11:leaf=0.0320289135
			12:leaf=-0.0493038557
		6:[f22<72.2843628] yes=13,no=14,missing=13
			13:leaf=0.00377150415
			14:leaf=0.0753200054
booster[185]:
0:[f18<0.0556212775] yes=1,no=2,missing=1
	1:[f17<1.23474383] yes=3,no=4,missing=3
		3:[f6<0.449491262] yes=7,no=8,missing=7
			7:leaf=0.00943897106
			8:leaf=-0.0094259074
		4:[f0<5.96046448e-08] yes=9,no=10,missing=9
			9:leaf=0.030957792
			10:leaf=0.00265157223
	2:[f2<-0.919519782] yes=5,no=6,missing=5
		5:[f0<0.339911103] yes=11,no=12,missing=11
			11:leaf=-0.0320288166
			12:leaf=0.0493040122
		6:[f22<72.2843628] yes=13,no=14,missing=13
			13:leaf=-0.00377149857
			14:leaf=-0.0753200278
booster[186]:
0:[f2<0.97731173] yes=1,no=2,missing=1
	1:[f11<-1.51602936] yes=3,no=4,missing=3
		3:[f2<-0.0274623837] yes=7,no=8,missing=7
			7:leaf=0.0128516508
			8:leaf=-0.00148048531
		4:[f12<-499.515259] yes=9,no=10,missing=9
			9:leaf=-0.0286571626
			10:leaf=0.00682867644
	2:[f22<8.91458988] yes=5,no=6,missing=5
		5:[f7<0.97018075] yes=11,no=12,missing=11
			11:leaf=0.0861001164
			12:leaf=-0.0344968252
		6:[f19<0.331644535] yes=13,no=14,missing=13
			13:leaf=-0.0470262505
			14:leaf=0.0242504869
booster[187]:
0:[f2<0.97731173] yes=1,no=2,missing=1
	1:[f11<-1.51602936] yes=3,no=4,missing=3
		3:[f2<-0.0274623837] yes=7,no=8,missing=7
			7:leaf=-0.0128516331
			8:leaf=0.00148048531
		4:[f12<-499.515259] yes=9,no=10,missing=9
			9:leaf=0.0286571886
			10:leaf=-0.00682861311
	2:[f22<8.91458988] yes=5,no=6,missing=5
		5:[f7<0.97018075] yes=11,no=12,missing=11
			11:leaf=-0.0861000866
			12:leaf=0.0344968215
		6:[f19<0.331644535] yes=13,no=14,missing=13
			13:leaf=0.0470262505
			14:leaf=-0.024250498
booster[188]:
0:[f7<0.0125607289] yes=1,no=2,missing=1
	1:[f16<0.500007927] yes=3,no=4,missing=3
		3:[f19<0.135363966] yes=7,no=8,missing=7
			7:leaf=0.0218717121
			8:leaf=-0.0457501374
		4:[f10<0.0949229747] yes=9,no=10,missing=9
			9:leaf=-0.0125253443
			10:leaf=0.0460225567
	2:[f5<3] yes=5,no=6,missing=5
		5:[f21<0.028355591] yes=11,no=12,missing=11
			11:leaf=-0.00247927126
			12:leaf=0.0128935277
		6:[f12<-499.51474] yes=13,no=14,missing=13
			13:leaf=-0.0293109622
			14:leaf=0.0063202926
booster[189]:
0:[f7<0.0125607289] yes=1,no=2,missing=1
	1:[f16<0.500007927] yes=3,no=4,missing=3
		3:[f19<0.135363966] yes=7,no=8,missing=7
			7:leaf=-0.0218717083
			8:leaf=0.0457503721
		4:[f10<0.0949229747] yes=9,no=10,missing=9
			9:leaf=0.0125269014
			10:leaf=-0.0460223258
	2:[f5<3] yes=5,no=6,missing=5
		5:[f21<0.028355591] yes=11,no=12,missing=11
			11:leaf=0.00247927359
			12:leaf=-0.0128935268
		6:[f12<-499.51474] yes=13,no=14,missing=13
			13:leaf=0.0293109715
			14:leaf=-0.0063202749
booster[190]:
0:[f0<0.938763499] yes=1,no=2,missing=1
	1:[f10<0.825354457] yes=3,no=4,missing=3
		3:[f0<0.0140907466] yes=7,no=8,missing=7
			7:leaf=0.0140474755
			8:leaf=-0.00399050582
		4:[f2<-0.703026712] yes=9,no=10,missing=9
			9:leaf=0.0142882466
			10:leaf=-0.00919661392
	2:[f17<8.45480061] yes=5,no=6,missing=5
		5:[f6<0.96089077] yes=11,no=12,missing=11
			11:leaf=-0.024715675
			12:leaf=-0.0489900447
		6:[f18<0.0152095873] yes=13,no=14,missing=13
			13:leaf=0.00165964814
			14:leaf=0.0704862401
booster[191]:
0:[f0<0.938763499] yes=1,no=2,missing=1
	1:[f10<0.825354457] yes=3,no=4,missing=3
		3:[f0<0.0140907466] yes=7,no=8,missing=7
			7:leaf=-0.0140474215
			8:leaf=0.00399051234
		4:[f2<-0.703026712] yes=9,no=10,missing=9
			9:leaf=-0.0142882196
			10:leaf=0.00919661485
	2:[f17<8.45480061] yes=5,no=6,missing=5
		5:[f6<0.96089077] yes=11,no=12,missing=11
			11:leaf=0.024715675
			12:leaf=0.0489900447
		6:[f18<0.0152095873] yes=13,no=14,missing=13
			13:leaf=-0.00165965967
			14:leaf=-0.0704862103
booster[192]:
0:[f22<27.6207962] yes=1,no=2,missing=1
	1:[f0<0.0863804817] yes=3,no=4,missing=3
		3:[f3<3.79037642] yes=7,no=8,missing=7
			7:leaf=-0.00657525798
			8:leaf=0.00992423855
		4:[f7<0.207830727] yes=9,no=10,missing=9
			9:leaf=-0.0430031121
			10:leaf=-0.00436513545
	2:[f22<69.0751724] yes=5,no=6,missing=5
		5:[f17<3.40652585] yes=11,no=12,missing=11
			11:leaf=0.00919438247
			12:leaf=-0.00711400528
		6:[f7<0.871399999] yes=13,no=14,missing=13
			13:leaf=0.0555970557
			14:leaf=-0.00449987547
booster[193]:
0:[f22<27.6207962] yes=1,no=2,missing=1
	1:[f0<0.0863804817] yes=3,no=4,missing=3
		3:[f3<3.79037642] yes=7,no=8,missing=7
			7:leaf=0.00657525798
			8:leaf=-0.00992408767
		4:[f7<0.207830727] yes=9,no=10,missing=9
			9:leaf=0.0430031531
			10:leaf=0.00436513359
	2:[f22<69.0751724] yes=5,no=6,missing=5
		5:[f17<3.40652585] yes=11,no=12,missing=11
			11:leaf=-0.00919434521
			12:leaf=0.00711402157
		6:[f7<0.871399999] yes=13,no=14,missing=13
			13:leaf=-0.0555970632
			14:leaf=0.00449987454
booster[194]:
0:[f9<1.03421164] yes=1,no=2,missing=1
	1:[f11<-0.355602831] yes=3,no=4,missing=3
		3:[f9<-1.48618555] yes=7,no=8,missing=7
			7:leaf=-0.00551198656
			8:leaf=0.0101479394
		4:[f12<-499.515259] yes=9,no=10,missing=9
			9:leaf=-0.0270901453
			10:leaf=0.00499767112
	2:[f8<-0.00144592288] yes=5,no=6,missing=5
		5:[f20<0.444026083] yes=11,no=12,missing=11
			11:leaf=0.00123859756
			12:leaf=0.0373240598
		6:[f8<0.00104339607] yes=13,no=14,missing=13
			13:leaf=-0.0341213532
			14:leaf=-0.00397618813
booster[195]:
0:[f9<1.03421164] yes=1,no=2,missing=1
	1:[f11<-0.355602831] yes=3,no=4,missing=3
		3:[f9<-1.48618555] yes=7,no=8,missing=7
			7:leaf=0.00551199168
			8:leaf=-0.0101479329
		4:[f12<-499.515259] yes=9,no=10,missing=9
			9:leaf=0.0270901825
			10:leaf=-0.00499763479
	2:[f8<-0.00144592288] yes=5,no=6,missing=5
		5:[f20<0.444026083] yes=11,no=12,missing=11
			11:leaf=-0.00123858661
			12:leaf=-0.037324056
		6:[f8<0.00104339607] yes=13,no=14,missing=13
			13:leaf=0.0341213606
			14:leaf=0.00397620117
booster[196]:
0:[f1<126.575302] yes=1,no=2,missing=1
	1:[f21<0.0307398327] yes=3,no=4,missing=3
		3:[f5<0.5] yes=5,no=6,missing=5
			5:leaf=0.0089120334
			6:leaf=-0.00628259918
		4:[f0<0.159743398] yes=7,no=8,missing=7
			7:leaf=0.0116865775
			8:leaf=-0.015468359
	2:leaf=0.0486776158
booster[197]:
0:[f1<126.575302] yes=1,no=2,missing=1
	1:[f21<0.0307398327] yes=3,no=4,missing=3
		3:[f5<0.5] yes=5,no=6,missing=5
			5:leaf=-0.0089120334
			6:leaf=0.00628259918
		4:[f0<0.159743398] yes=7,no=8,missing=7
			7:leaf=-0.0116865775
			8:leaf=0.015468359
	2:leaf=-0.048677545
booster[198]:
0:[f2<0.97731173] yes=1,no=2,missing=1
	1:[f10<0.825354457] yes=3,no=4,missing=3
		3:[f0<0.0140907466] yes=7,no=8,missing=7
			7:leaf=0.0135099282
			8:leaf=-0.00374696078
		4:[f10<0.995344639] yes=9,no=10,missing=9
			9:leaf=-0.0135426773
			10:leaf=0.0041767573
	2:[f22<8.91458988] yes=5,no=6,missing=5
		5:[f7<0.912592828] yes=11,no=12,missing=11
			11:leaf=0.103570424
			12:leaf=-0.0275266059
		6:[f19<0.334675401] yes=13,no=14,missing=13
			13:leaf=-0.0462286472
			14:leaf=0.0240893643
booster[199]:
0:[f2<0.97731173] yes=1,no=2,missing=1
	1:[f10<0.825354457] yes=3,no=4,missing=3
		3:[f0<0.0140907466] yes=7,no=8,missing=7
			7:leaf=-0.0135099189
			8:leaf=0.00374697498
		4:[f10<0.995344639] yes=9,no=10,missing=9
			9:leaf=0.0135426987
			10:leaf=-0.0041767559
	2:[f22<8.91458988] yes=5,no=6,missing=5
		5:[f7<0.912592828] yes=11,no=12,missing=11
			11:leaf=-0.103570424
			12:leaf=0.0275266115
		6:[f19<0.334675401] yes=13,no=14,missing=13
			13:leaf=0.0462286435
			14:leaf=-0.0240894165
