booster[0]:
0:[f0<4.8187685] yes=1,no=2,missing=1
	1:[f0<2.20908546] yes=3,no=4,missing=3
		3:[f11<5.5] yes=7,no=8,missing=7
			7:leaf=-0.0849942788
			8:leaf=-0.010364146
		4:[f11<3.5] yes=9,no=10,missing=9
			9:leaf=-0.0353516378
			10:leaf=0.0374200456
	2:[f0<8.11551094] yes=5,no=6,missing=5
		5:[f7<2.60781765] yes=11,no=12,missing=11
			11:leaf=0.0581649356
			12:leaf=-0.0187134501
		6:[f1<2.96950889] yes=13,no=14,missing=13
			13:leaf=0.0564202331
			14:leaf=0.0993175805
booster[1]:
0:[f0<4.8187685] yes=1,no=2,missing=1
	1:[f0<2.20908546] yes=3,no=4,missing=3
		3:[f11<5.5] yes=7,no=8,missing=7
			7:leaf=0.0849942788
			8:leaf=0.010364146
		4:[f11<3.5] yes=9,no=10,missing=9
			9:leaf=0.0353516378
			10:leaf=-0.0374200456
	2:[f0<8.11551094] yes=5,no=6,missing=5
		5:[f7<2.60781765] yes=11,no=12,missing=11
			11:leaf=-0.0581649356
			12:leaf=0.0187134501
		6:[f1<2.96950889] yes=13,no=14,missing=13
			13:leaf=-0.0564202331
			14:leaf=-0.0993175805
booster[2]:
0:[f0<4.20118141] yes=1,no=2,missing=1
	1:[f0<2.01550388] yes=3,no=4,missing=3
		3:[f8<0.0989606082] yes=7,no=8,missing=7
			7:leaf=-0.0781067833
			8:leaf=-0.00652926881
		4:[f14<0.0203640908] yes=9,no=10,missing=9
			9:leaf=-0.0477954485
			10:leaf=0.0120546902
	2:[f0<8.11551094] yes=5,no=6,missing=5
		5:[f17<0.0347039178] yes=11,no=12,missing=11
			11:leaf=0.0218477901
			12:leaf=0.0744943544
		6:[f1<1.82580662] yes=13,no=14,missing=13
			13:leaf=0.0416924059
			14:leaf=0.0902621076
booster[3]:
0:[f0<4.20118141] yes=1,no=2,missing=1
	1:[f0<2.01550388] yes=3,no=4,missing=3
		3:[f8<0.0989606082] yes=7,no=8,missing=7
			7:leaf=0.0781067833
			8:leaf=0.00652926555
		4:[f14<0.0203640908] yes=9,no=10,missing=9
			9:leaf=0.0477954559
			10:leaf=-0.0120546864
	2:[f0<8.11551094] yes=5,no=6,missing=5
		5:[f17<0.0347039178] yes=11,no=12,missing=11
			11:leaf=-0.0218477827
			12:leaf=-0.074494347
		6:[f1<1.82580662] yes=13,no=14,missing=13
			13:leaf=-0.0416924171
			14:leaf=-0.0902620926
booster[4]:
0:[f0<4.8187685] yes=1,no=2,missing=1
	1:[f0<2.44361663] yes=3,no=4,missing=3
		3:[f11<4.5] yes=7,no=8,missing=7
			7:leaf=-0.0712812468
			8:leaf=-0.0194145776
		4:[f17<0.0379067361] yes=9,no=10,missing=9
			9:leaf=-0.0258582532
			10:leaf=0.0437858552
	2:[f0<8.131423] yes=5,no=6,missing=5
		5:[f14<0.0213677417] yes=11,no=12,missing=11
			11:leaf=0.016828334
			12:leaf=0.0612454526
		6:[f1<2.96950889] yes=13,no=14,missing=13
			13:leaf=0.0456231944
			14:leaf=0.0835183784
booster[5]:
0:[f0<4.8187685] yes=1,no=2,missing=1
	1:[f0<2.44361663] yes=3,no=4,missing=3
		3:[f11<4.5] yes=7,no=8,missing=7
			7:leaf=0.0712812468
			8:leaf=0.0194145776
		4:[f17<0.0379067361] yes=9,no=10,missing=9
			9:leaf=0.025858257
			10:leaf=-0.0437858514
	2:[f0<8.131423] yes=5,no=6,missing=5
		5:[f14<0.0213677417] yes=11,no=12,missing=11
			11:leaf=-0.0168283414
			12:leaf=-0.0612454526
		6:[f1<2.96950889] yes=13,no=14,missing=13
			13:leaf=-0.0456231833
			14:leaf=-0.0835183635
booster[6]:
0:[f0<4.98723221] yes=1,no=2,missing=1
	1:[f0<2.04321241] yes=3,no=4,missing=3
		3:[f11<6.5] yes=7,no=8,missing=7
			7:leaf=-0.0660731569
			8:leaf=0.0298227109
		4:[f8<0.014237063] yes=9,no=10,missing=9
			9:leaf=-0.0232890826
			10:leaf=0.0631553158
	2:[f0<10.0848274] yes=5,no=6,missing=5
		5:[f7<2.2212522] yes=11,no=12,missing=11
			11:leaf=0.0533737428
			12:leaf=-0.00964169111
		6:[f1<1.38812208] yes=13,no=14,missing=13
			13:leaf=0.0364306569
			14:leaf=0.0784256384
booster[7]:
0:[f0<4.98723221] yes=1,no=2,missing=1
	1:[f0<2.04321241] yes=3,no=4,missing=3
		3:[f11<6.5] yes=7,no=8,missing=7
			7:leaf=0.0660731569
			8:leaf=-0.0298227072
		4:[f8<0.014237063] yes=9,no=10,missing=9
			9:leaf=0.0232890807
			10:leaf=-0.0631553158
	2:[f0<10.0848274] yes=5,no=6,missing=5
		5:[f7<2.2212522] yes=11,no=12,missing=11
			11:leaf=-0.0533737428
			12:leaf=0.00964169111
		6:[f1<1.38812208] yes=13,no=14,missing=13
			13:leaf=-0.0364306606
			14:leaf=-0.0784256384
booster[8]:
0:[f0<5.20103931] yes=1,no=2,missing=1
	1:[f0<2.7682023] yes=3,no=4,missing=3
		3:[f8<0.061243847] yes=7,no=8,missing=7
			7:leaf=-0.0598544665
			8:leaf=0.0130950958
		4:[f11<2.5] yes=9,no=10,missing=9
			9:leaf=-0.0251964629
			10:leaf=0.0302446373
	2:[f0<10.0848274] yes=5,no=6,missing=5
		5:[f5<1.56227601] yes=11,no=12,missing=11
			11:leaf=0.0524755977
			12:leaf=0.00273961551
		6:[f1<1.82580662] yes=13,no=14,missing=13
			13:leaf=0.0363343954
			14:leaf=0.0742063671
booster[9]:
0:[f0<5.20103931] yes=1,no=2,missing=1
	1:[f0<2.7682023] yes=3,no=4,missing=3
		3:[f8<0.061243847] yes=7,no=8,missing=7
			7:leaf=0.0598544665
			8:leaf=-0.0130950985
		4:[f11<2.5] yes=9,no=10,missing=9
			9:leaf=0.025196461
			10:leaf=-0.0302446373
	2:[f0<10.0848274] yes=5,no=6,missing=5
		5:[f5<1.56227601] yes=11,no=12,missing=11
			11:leaf=-0.0524755977
			12:leaf=-0.00273961225
		6:[f1<1.82580662] yes=13,no=14,missing=13
			13:leaf=-0.0363344066
			14:leaf=-0.0742063671
booster[10]:
0:[f0<5.20103931] yes=1,no=2,missing=1
	1:[f1<1.87654352] yes=3,no=4,missing=3
		3:[f13<15.5366154] yes=7,no=8,missing=7
			7:leaf=-0.0579060428
			8:leaf=0.073159799
		4:[f11<3.5] yes=9,no=10,missing=9
			9:leaf=-0.0245868862
			10:leaf=0.0368442424
	2:[f1<7.96850204] yes=5,no=6,missing=5
		5:[f11<3.5] yes=11,no=12,missing=11
			11:leaf=0.0180746745
			12:leaf=0.0612413362
		6:[f0<14.2694206] yes=13,no=14,missing=13
			13:leaf=0.0595653765
			14:leaf=0.071110107
booster[11]:
0:[f0<5.20103931] yes=1,no=2,missing=1
	1:[f1<1.87654352] yes=3,no=4,missing=3
		3:[f13<15.5366154] yes=7,no=8,missing=7
			7:leaf=0.0579060428
			8:leaf=-0.073159799
		4:[f11<3.5] yes=9,no=10,missing=9
			9:leaf=0.0245868862
			10:leaf=-0.0368442461
	2:[f1<7.96850204] yes=5,no=6,missing=5
		5:[f11<3.5] yes=11,no=12,missing=11
			11:leaf=-0.0180746764
			12:leaf=-0.0612413399
		6:[f0<14.2681475] yes=13,no=14,missing=13
			13:leaf=-0.059564013
			14:leaf=-0.0711101145
booster[12]:
0:[f0<5.93750191] yes=1,no=2,missing=1
	1:[f1<2.69518852] yes=3,no=4,missing=3
		3:[f11<4.5] yes=7,no=8,missing=7
			7:leaf=-0.0538699739
			8:leaf=-0.000646533968
		4:[f14<0.0332617238] yes=9,no=10,missing=9
			9:leaf=-0.0169242434
			10:leaf=0.03557593
	2:[f0<12.7426548] yes=5,no=6,missing=5
		5:[f7<2.37622643] yes=11,no=12,missing=11
			11:leaf=0.0515033603
			12:leaf=-0.00212086434
		6:[f1<1.79586172] yes=13,no=14,missing=13
			13:leaf=0.0361331552
			14:leaf=0.0681344196
booster[13]:
0:[f0<5.93750191] yes=1,no=2,missing=1
	1:[f1<2.69518852] yes=3,no=4,missing=3
		3:[f11<4.5] yes=7,no=8,missing=7
			7:leaf=0.0538699739
			8:leaf=0.000646525936
		4:[f14<0.0332617238] yes=9,no=10,missing=9
			9:leaf=0.0169242416
			10:leaf=-0.03557593
	2:[f0<12.7426548] yes=5,no=6,missing=5
		5:[f7<2.37622643] yes=11,no=12,missing=11
			11:leaf=-0.0515033603
			12:leaf=0.00212086644
		6:[f1<1.79586172] yes=13,no=14,missing=13
			13:leaf=-0.0361331515
			14:leaf=-0.0681344345
booster[14]:
0:[f0<5.93750191] yes=1,no=2,missing=1
	1:[f1<1.4978919] yes=3,no=4,missing=3
		3:[f8<0.253896117] yes=7,no=8,missing=7
			7:leaf=-0.0546075888
			8:leaf=0.0153427841
		4:[f8<0.0135026053] yes=9,no=10,missing=9
			9:leaf=-0.0165280122
			10:leaf=0.0619511083
	2:[f0<13.8161087] yes=5,no=6,missing=5
		5:[f1<2.28170156] yes=11,no=12,missing=11
			11:leaf=-0.0374608412
			12:leaf=0.0472774692
		6:[f1<1.79586172] yes=13,no=14,missing=13
			13:leaf=0.0364527293
			14:leaf=0.0658095554
booster[15]:
0:[f0<5.93750191] yes=1,no=2,missing=1
	1:[f1<1.4978919] yes=3,no=4,missing=3
		3:[f8<0.253896117] yes=7,no=8,missing=7
			7:leaf=0.0546075962
			8:leaf=-0.0153427748
		4:[f8<0.0135026053] yes=9,no=10,missing=9
			9:leaf=0.016528016
			10:leaf=-0.0619511008
	2:[f0<13.8161087] yes=5,no=6,missing=5
		5:[f1<2.28170156] yes=11,no=12,missing=11
			11:leaf=0.0374608412
			12:leaf=-0.0472774729
		6:[f1<1.79586172] yes=13,no=14,missing=13
			13:leaf=-0.0364527367
			14:leaf=-0.0658095554
booster[16]:
0:[f0<5.93750191] yes=1,no=2,missing=1
	1:[f0<3.11842918] yes=3,no=4,missing=3
		3:[f11<4.5] yes=7,no=8,missing=7
			7:leaf=-0.0476198867
			8:leaf=0.00527558895
		4:[f17<0.0333387479] yes=9,no=10,missing=9
			9:leaf=-0.00897271466
			10:leaf=0.0467469394
	2:[f1<7.98090076] yes=5,no=6,missing=5
		5:[f8<0.0102043618] yes=11,no=12,missing=11
			11:leaf=0.0184338894
			12:leaf=0.060536176
		6:[f0<14.651165] yes=13,no=14,missing=13
			13:leaf=0.0518063977
			14:leaf=0.0638953745
booster[17]:
0:[f0<5.93750191] yes=1,no=2,missing=1
	1:[f0<3.11842918] yes=3,no=4,missing=3
		3:[f11<4.5] yes=7,no=8,missing=7
			7:leaf=0.0476198941
			8:leaf=-0.00527558615
		4:[f17<0.0333387479] yes=9,no=10,missing=9
			9:leaf=0.00897271466
			10:leaf=-0.0467469394
	2:[f1<7.98090076] yes=5,no=6,missing=5
		5:[f8<0.0102043618] yes=11,no=12,missing=11
			11:leaf=-0.0184338894
			12:leaf=-0.060536176
		6:[f0<14.651165] yes=13,no=14,missing=13
			13:leaf=-0.0518063977
			14:leaf=-0.0638953745
booster[18]:
0:[f0<6.27031469] yes=1,no=2,missing=1
	1:[f1<1.60636973] yes=3,no=4,missing=3
		3:[f8<0.0309230834] yes=7,no=8,missing=7
			7:leaf=-0.0498367138
			8:leaf=0.00671219826
		4:[f11<2.5] yes=9,no=10,missing=9
			9:leaf=-0.0235009491
			10:leaf=0.0256911572
	2:[f1<10.0838947] yes=5,no=6,missing=5
		5:[f11<2.5] yes=11,no=12,missing=11
			11:leaf=0.0144636957
			12:leaf=0.0503996573
		6:[f0<19.4309616] yes=13,no=14,missing=13
			13:leaf=0.0544298999
			14:leaf=0.0623127818
booster[19]:
0:[f0<6.27031469] yes=1,no=2,missing=1
	1:[f1<1.60636973] yes=3,no=4,missing=3
		3:[f8<0.0309230834] yes=7,no=8,missing=7
			7:leaf=0.0498367138
			8:leaf=-0.00671219453
		4:[f11<2.5] yes=9,no=10,missing=9
			9:leaf=0.0235009491
			10:leaf=-0.0256911553
	2:[f1<10.0838947] yes=5,no=6,missing=5
		5:[f11<2.5] yes=11,no=12,missing=11
			11:leaf=-0.0144636976
			12:leaf=-0.0503996573
		6:[f0<19.4309616] yes=13,no=14,missing=13
			13:leaf=-0.0544298999
			14:leaf=-0.0623127818
booster[20]:
0:[f1<3.64934444] yes=1,no=2,missing=1
	1:[f8<0.0145249525] yes=3,no=4,missing=3
		3:[f11<4.5] yes=7,no=8,missing=7
			7:leaf=-0.0464936011
			8:leaf=0.0111942543
		4:[f0<1.02205539] yes=9,no=10,missing=9
			9:leaf=-0.0152870687
			10:leaf=0.0478191823
	2:[f0<8.131423] yes=5,no=6,missing=5
		5:[f5<1.54116762] yes=11,no=12,missing=11
			11:leaf=0.0318082757
			12:leaf=-0.0206797495
		6:[f0<15.9623623] yes=13,no=14,missing=13
			13:leaf=0.0478976332
			14:leaf=0.0607195385
booster[21]:
0:[f1<3.64934444] yes=1,no=2,missing=1
	1:[f8<0.0145249525] yes=3,no=4,missing=3
		3:[f11<4.5] yes=7,no=8,missing=7
			7:leaf=0.0464936011
			8:leaf=-0.0111942524
		4:[f0<1.02205539] yes=9,no=10,missing=9
			9:leaf=0.0152870659
			10:leaf=-0.047819186
	2:[f0<8.131423] yes=5,no=6,missing=5
		5:[f5<1.54116762] yes=11,no=12,missing=11
			11:leaf=-0.0318082757
			12:leaf=0.0206797495
		6:[f0<15.9623623] yes=13,no=14,missing=13
			13:leaf=-0.0478976332
			14:leaf=-0.060719531
booster[22]:
0:[f0<6.27031469] yes=1,no=2,missing=1
	1:[f1<1.4978919] yes=3,no=4,missing=3
		3:[f11<6.5] yes=7,no=8,missing=7
			7:leaf=-0.0449368991
			8:leaf=0.0369794443
		4:[f17<0.0437145829] yes=9,no=10,missing=9
			9:leaf=-0.0136521058
			10:leaf=0.0433242768
	2:[f0<14.2200565] yes=5,no=6,missing=5
		5:[f7<2.43268514] yes=11,no=12,missing=11
			11:leaf=0.0420326218
			12:leaf=-0.0134322513
		6:[f1<2.96950889] yes=13,no=14,missing=13
			13:leaf=0.0320520438
			14:leaf=0.059346091
booster[23]:
0:[f0<6.27031469] yes=1,no=2,missing=1
	1:[f1<1.4978919] yes=3,no=4,missing=3
		3:[f11<6.5] yes=7,no=8,missing=7
			7:leaf=0.0449368991
			8:leaf=-0.0369794406
		4:[f17<0.0437145829] yes=9,no=10,missing=9
			9:leaf=0.0136521058
			10:leaf=-0.0433242768
	2:[f0<14.2200565] yes=5,no=6,missing=5
		5:[f7<2.43268514] yes=11,no=12,missing=11
			11:leaf=-0.0420326218
			12:leaf=0.0134322448
		6:[f1<2.96950889] yes=13,no=14,missing=13
			13:leaf=-0.0320520401
			14:leaf=-0.0593460985
booster[24]:
0:[f0<6.92444897] yes=1,no=2,missing=1
	1:[f1<1.87654352] yes=3,no=4,missing=3
		3:[f8<0.0594874918] yes=7,no=8,missing=7
			7:leaf=-0.0419583432
			8:leaf=0.019614039
		4:[f14<0.0334629379] yes=9,no=10,missing=9
			9:leaf=-0.0164831728
			10:leaf=0.0298293084
	2:[f0<15.9699688] yes=5,no=6,missing=5
		5:[f7<2.43268514] yes=11,no=12,missing=11
			11:leaf=0.0436741821
			12:leaf=-0.0103028398
		6:[f1<2.86701918] yes=13,no=14,missing=13
			13:leaf=0.033874549
			14:leaf=0.0583152883
booster[25]:
0:[f0<6.92444897] yes=1,no=2,missing=1
	1:[f1<1.87654352] yes=3,no=4,missing=3
		3:[f8<0.0594874918] yes=7,no=8,missing=7
			7:leaf=0.0419583544
			8:leaf=-0.019614039
		4:[f14<0.0334629379] yes=9,no=10,missing=9
			9:leaf=0.0164831728
			10:leaf=-0.0298293084
	2:[f0<15.9699688] yes=5,no=6,missing=5
		5:[f7<2.43268514] yes=11,no=12,missing=11
			11:leaf=-0.0436741821
			12:leaf=0.0103028389
		6:[f1<2.86701918] yes=13,no=14,missing=13
			13:leaf=-0.0338745452
			14:leaf=-0.0583152883
booster[26]:
0:[f0<7.09802008] yes=1,no=2,missing=1
	1:[f1<1.04815364] yes=3,no=4,missing=3
		3:[f13<14.4482822] yes=7,no=8,missing=7
			7:leaf=-0.0433589332
			8:leaf=0.0797290877
		4:[f8<0.011126142] yes=9,no=10,missing=9
			9:leaf=-0.0107870726
			10:leaf=0.051837232
	2:[f0<17.2068386] yes=5,no=6,missing=5
		5:[f7<2.61395383] yes=11,no=12,missing=11
			11:leaf=0.0429950543
			12:leaf=-0.0104995128
		6:[f1<2.86701918] yes=13,no=14,missing=13
			13:leaf=0.0353719294
			14:leaf=0.0573822632
booster[27]:
0:[f0<7.09802008] yes=1,no=2,missing=1
	1:[f1<1.04815364] yes=3,no=4,missing=3
		3:[f13<14.4482822] yes=7,no=8,missing=7
			7:leaf=0.0433589406
			8:leaf=-0.0797290877
		4:[f8<0.011126142] yes=9,no=10,missing=9
			9:leaf=0.0107870717
			10:leaf=-0.051837232
	2:[f0<17.2068386] yes=5,no=6,missing=5
		5:[f7<2.61395383] yes=11,no=12,missing=11
			11:leaf=-0.0429950505
			12:leaf=0.0104995137
		6:[f1<2.86701918] yes=13,no=14,missing=13
			13:leaf=-0.0353719294
			14:leaf=-0.057382267
booster[28]:
0:[f1<4.20093441] yes=1,no=2,missing=1
	1:[f8<0.0104430923] yes=3,no=4,missing=3
		3:[f11<3.5] yes=7,no=8,missing=7
			7:leaf=-0.0412846766
			8:leaf=0.00574332476
		4:[f0<1.38142204] yes=9,no=10,missing=9
			9:leaf=-0.00498907501
			10:leaf=0.0429276302
	2:[f0<10.0838947] yes=5,no=6,missing=5
		5:[f11<1.5] yes=11,no=12,missing=11
			11:leaf=-0.00944506284
			12:leaf=0.0343814008
		6:[f0<20.389183] yes=13,no=14,missing=13
			13:leaf=0.0457579419
			14:leaf=0.0566407703
booster[29]:
0:[f1<4.20093441] yes=1,no=2,missing=1
	1:[f8<0.0104430923] yes=3,no=4,missing=3
		3:[f11<3.5] yes=7,no=8,missing=7
			7:leaf=0.0412846766
			8:leaf=-0.00574332569
		4:[f0<1.38142204] yes=9,no=10,missing=9
			9:leaf=0.00498907547
			10:leaf=-0.0429276302
	2:[f0<10.0838947] yes=5,no=6,missing=5
		5:[f11<1.5] yes=11,no=12,missing=11
			11:leaf=0.00944506284
			12:leaf=-0.0343813971
		6:[f0<20.389183] yes=13,no=14,missing=13
			13:leaf=-0.0457579382
			14:leaf=-0.0566407628
booster[30]:
0:[f1<6.18958282] yes=1,no=2,missing=1
	1:[f14<0.0337292105] yes=3,no=4,missing=3
		3:[f8<0.0247826986] yes=7,no=8,missing=7
			7:leaf=-0.0359790623
			8:leaf=0.0299065616
		4:[f11<3.5] yes=9,no=10,missing=9
			9:leaf=-0.00740425242
			10:leaf=0.0350076817
	2:[f0<12.7426548] yes=5,no=6,missing=5
		5:[f14<0.0212631077] yes=11,no=12,missing=11
			11:leaf=0.0108642811
			12:leaf=0.0444569215
		6:[f0<24.1297436] yes=13,no=14,missing=13
			13:leaf=0.0482550003
			14:leaf=0.055981189
booster[31]:
0:[f1<6.18958282] yes=1,no=2,missing=1
	1:[f14<0.0337292105] yes=3,no=4,missing=3
		3:[f8<0.0247826986] yes=7,no=8,missing=7
			7:leaf=0.0359790586
			8:leaf=-0.0299065616
		4:[f11<3.5] yes=9,no=10,missing=9
			9:leaf=0.00740424916
			10:leaf=-0.0350076817
	2:[f0<12.7426548] yes=5,no=6,missing=5
		5:[f14<0.0212631077] yes=11,no=12,missing=11
			11:leaf=-0.0108642811
			12:leaf=-0.0444569215
		6:[f0<24.1297436] yes=13,no=14,missing=13
			13:leaf=-0.0482550003
			14:leaf=-0.055981189
booster[32]:
0:[f0<7.44850588] yes=1,no=2,missing=1
	1:[f17<0.0496251881] yes=3,no=4,missing=3
		3:[f14<0.033284463] yes=7,no=8,missing=7
			7:leaf=-0.0336024724
			8:leaf=0.00276383245
		4:[f1<0.985861778] yes=9,no=10,missing=9
			9:leaf=-0.00288334256
			10:leaf=0.0463585667
	2:[f0<19.4490852] yes=5,no=6,missing=5
		5:[f7<2.30736136] yes=11,no=12,missing=11
			11:leaf=0.0402555875
			12:leaf=-0.0103868926
		6:[f1<2.86701918] yes=13,no=14,missing=13
			13:leaf=0.0361157507
			14:leaf=0.0551730059
booster[33]:
0:[f0<7.44850588] yes=1,no=2,missing=1
	1:[f17<0.0496251881] yes=3,no=4,missing=3
		3:[f14<0.033284463] yes=7,no=8,missing=7
			7:leaf=0.0336024724
			8:leaf=-0.00276383176
		4:[f1<0.985861778] yes=9,no=10,missing=9
			9:leaf=0.00288334652
			10:leaf=-0.046358563
	2:[f0<19.4490852] yes=5,no=6,missing=5
		5:[f7<2.30736136] yes=11,no=12,missing=11
			11:leaf=-0.0402555913
			12:leaf=0.0103868954
		6:[f1<2.86701918] yes=13,no=14,missing=13
			13:leaf=-0.0361157507
			14:leaf=-0.0551730096
booster[34]:
0:[f1<6.27308559] yes=1,no=2,missing=1
	1:[f8<0.0104894526] yes=3,no=4,missing=3
		3:[f11<2.5] yes=7,no=8,missing=7
			7:leaf=-0.0376132913
			8:leaf=0.00331235281
		4:[f0<1.73206258] yes=9,no=10,missing=9
			9:leaf=-0.00062399538
			10:leaf=0.0449066386
	2:[f0<12.9804764] yes=5,no=6,missing=5
		5:[f11<2.5] yes=11,no=12,missing=11
			11:leaf=0.00845741387
			12:leaf=0.0422763862
		6:[f0<24.1297436] yes=13,no=14,missing=13
			13:leaf=0.0461003408
			14:leaf=0.0547291897
booster[35]:
0:[f1<6.27308559] yes=1,no=2,missing=1
	1:[f8<0.0104894526] yes=3,no=4,missing=3
		3:[f11<2.5] yes=7,no=8,missing=7
			7:leaf=0.0376132913
			8:leaf=-0.00331235188
		4:[f0<1.73206258] yes=9,no=10,missing=9
			9:leaf=0.000623993867
			10:leaf=-0.0449066386
	2:[f0<12.9804764] yes=5,no=6,missing=5
		5:[f11<2.5] yes=11,no=12,missing=11
			11:leaf=-0.00845741015
			12:leaf=-0.0422763862
		6:[f0<24.1297436] yes=13,no=14,missing=13
			13:leaf=-0.0461003408
			14:leaf=-0.0547291897
booster[36]:
0:[f1<6.96224022] yes=1,no=2,missing=1
	1:[f1<1.04815364] yes=3,no=4,missing=3
		3:[f11<6.5] yes=7,no=8,missing=7
			7:leaf=-0.0372926146
			8:leaf=0.0360263251
		4:[f5<1.30447555] yes=9,no=10,missing=9
			9:leaf=0.0174193848
			10:leaf=-0.0264835097
	2:[f0<14.268034] yes=5,no=6,missing=5
		5:[f14<0.0159545802] yes=11,no=12,missing=11
			11:leaf=0.00948111247
			12:leaf=0.0431493409
		6:[f0<24.1297436] yes=13,no=14,missing=13
			13:leaf=0.0457318798
			14:leaf=0.0542055778
booster[37]:
0:[f1<6.96224022] yes=1,no=2,missing=1
	1:[f1<1.04815364] yes=3,no=4,missing=3
		3:[f11<6.5] yes=7,no=8,missing=7
			7:leaf=0.037292622
			8:leaf=-0.0360263251
		4:[f5<1.30447555] yes=9,no=10,missing=9
			9:leaf=-0.0174193848
			10:leaf=0.0264835097
	2:[f0<14.268034] yes=5,no=6,missing=5
		5:[f14<0.0159545802] yes=11,no=12,missing=11
			11:leaf=-0.00948110875
			12:leaf=-0.0431493372
		6:[f0<24.1297436] yes=13,no=14,missing=13
			13:leaf=-0.0457318798
			14:leaf=-0.0542055741
booster[38]:
0:[f0<8.131423] yes=1,no=2,missing=1
	1:[f1<1.04669189] yes=3,no=4,missing=3
		3:[f13<14.4482822] yes=7,no=8,missing=7
			7:leaf=-0.0352093577
			8:leaf=0.0681673512
		4:[f17<0.0347088724] yes=9,no=10,missing=9
			9:leaf=-0.00900853518
			10:leaf=0.0328366943
	2:[f0<19.4490852] yes=5,no=6,missing=5
		5:[f2<0.282711327] yes=11,no=12,missing=11
			11:leaf=0.0374076553
			12:leaf=-0.0186211895
		6:[f1<2.86701918] yes=13,no=14,missing=13
			13:leaf=0.0326772742
			14:leaf=0.0535460971
booster[39]:
0:[f0<8.131423] yes=1,no=2,missing=1
	1:[f1<1.04669189] yes=3,no=4,missing=3
		3:[f13<14.4482822] yes=7,no=8,missing=7
			7:leaf=0.035209354
			8:leaf=-0.0681673437
		4:[f17<0.0347088724] yes=9,no=10,missing=9
			9:leaf=0.00900853612
			10:leaf=-0.0328366943
	2:[f0<19.4490852] yes=5,no=6,missing=5
		5:[f2<0.282711327] yes=11,no=12,missing=11
			11:leaf=-0.037407659
			12:leaf=0.0186211821
		6:[f1<2.86701918] yes=13,no=14,missing=13
			13:leaf=-0.0326772742
			14:leaf=-0.0535460971
booster[40]:
0:[f1<7.96850204] yes=1,no=2,missing=1
	1:[f8<0.0145249525] yes=3,no=4,missing=3
		3:[f11<3.5] yes=7,no=8,missing=7
			7:leaf=-0.0281118304
			8:leaf=0.0165375434
		4:[f1<0.638785124] yes=9,no=10,missing=9
			9:leaf=0.00243616337
			10:leaf=0.0437705964
	2:[f0<14.651165] yes=5,no=6,missing=5
		5:[f5<1.69464755] yes=11,no=12,missing=11
			11:leaf=0.036500629
			12:leaf=-0.00981867779
		6:[f0<24.1297436] yes=13,no=14,missing=13
			13:leaf=0.0439101867
			14:leaf=0.0533202775
booster[41]:
0:[f1<7.96850204] yes=1,no=2,missing=1
	1:[f8<0.0145249525] yes=3,no=4,missing=3
		3:[f11<3.5] yes=7,no=8,missing=7
			7:leaf=0.0281118359
			8:leaf=-0.0165375415
		4:[f1<0.638785124] yes=9,no=10,missing=9
			9:leaf=-0.00243615685
			10:leaf=-0.0437705964
	2:[f0<14.651165] yes=5,no=6,missing=5
		5:[f5<1.69464755] yes=11,no=12,missing=11
			11:leaf=-0.0365006328
			12:leaf=0.00981867593
		6:[f0<24.1297436] yes=13,no=14,missing=13
			13:leaf=-0.0439101867
			14:leaf=-0.05332027
booster[42]:
0:[f0<10.0848274] yes=1,no=2,missing=1
	1:[f1<3.18190527] yes=3,no=4,missing=3
		3:[f17<0.0582218543] yes=7,no=8,missing=7
			7:leaf=-0.0258075129
			8:leaf=0.0368377045
		4:[f5<1.56203103] yes=9,no=10,missing=9
			9:leaf=0.0240588691
			10:leaf=-0.0196670257
	2:[f0<22.5249672] yes=5,no=6,missing=5
		5:[f7<2.62001801] yes=11,no=12,missing=11
			11:leaf=0.039840579
			12:leaf=-0.0197805222
		6:[f1<2.86701918] yes=13,no=14,missing=13
			13:leaf=0.0318516605
			14:leaf=0.0528620593
booster[43]:
0:[f0<10.0848274] yes=1,no=2,missing=1
	1:[f1<3.18190527] yes=3,no=4,missing=3
		3:[f17<0.0582218543] yes=7,no=8,missing=7
			7:leaf=0.0258075148
			8:leaf=-0.0368377045
		4:[f5<1.56203103] yes=9,no=10,missing=9
			9:leaf=-0.0240588672
			10:leaf=0.0196670275
	2:[f0<22.5249672] yes=5,no=6,missing=5
		5:[f7<2.62001801] yes=11,no=12,missing=11
			11:leaf=-0.0398405828
			12:leaf=0.0197805222
		6:[f1<2.86701918] yes=13,no=14,missing=13
			13:leaf=-0.0318516605
			14:leaf=-0.0528620593
booster[44]:
0:[f1<7.97606277] yes=1,no=2,missing=1
	1:[f14<0.0395796522] yes=3,no=4,missing=3
		3:[f8<0.0102042966] yes=7,no=8,missing=7
			7:leaf=-0.0256332047
			8:leaf=0.0242414176
		4:[f5<1.31065154] yes=9,no=10,missing=9
			9:leaf=0.0281961691
			10:leaf=-0.0135420552
	2:[f0<18.2727432] yes=5,no=6,missing=5
		5:[f14<0.0129869897] yes=11,no=12,missing=11
			11:leaf=0.00850698352
			12:leaf=0.0426148586
		6:[f0<28.5879192] yes=13,no=14,missing=13
			13:leaf=0.0447976105
			14:leaf=0.0526788794
booster[45]:
0:[f1<7.97606277] yes=1,no=2,missing=1
	1:[f14<0.0395796522] yes=3,no=4,missing=3
		3:[f8<0.0102042966] yes=7,no=8,missing=7
			7:leaf=0.025633201
			8:leaf=-0.0242414176
		4:[f5<1.31065154] yes=9,no=10,missing=9
			9:leaf=-0.0281961653
			10:leaf=0.0135420552
	2:[f0<18.2727432] yes=5,no=6,missing=5
		5:[f14<0.0129869897] yes=11,no=12,missing=11
			11:leaf=-0.00850697979
			12:leaf=-0.0426148586
		6:[f0<28.5879192] yes=13,no=14,missing=13
			13:leaf=-0.0447976142
			14:leaf=-0.0526788831
booster[46]:
0:[f0<11.5298023] yes=1,no=2,missing=1
	1:[f1<3.18190527] yes=3,no=4,missing=3
		3:[f17<0.0582218543] yes=7,no=8,missing=7
			7:leaf=-0.0233594924
			8:leaf=0.0327195711
		4:[f10<0.0028150666] yes=9,no=10,missing=9
			9:leaf=0.0266613793
			10:leaf=-0.00717676291
	2:[f0<28.1509991] yes=5,no=6,missing=5
		5:[f7<2.8076582] yes=11,no=12,missing=11
			11:leaf=0.0401885025
			12:leaf=-0.0176797137
		6:[f1<2.84026718] yes=13,no=14,missing=13
			13:leaf=0.0399031043
			14:leaf=0.0523560345
booster[47]:
0:[f0<11.5298023] yes=1,no=2,missing=1
	1:[f1<3.18190527] yes=3,no=4,missing=3
		3:[f17<0.0582218543] yes=7,no=8,missing=7
			7:leaf=0.0233594924
			8:leaf=-0.0327195674
		4:[f10<0.0028150666] yes=9,no=10,missing=9
			9:leaf=-0.0266613793
			10:leaf=0.00717676291
	2:[f0<28.1509991] yes=5,no=6,missing=5
		5:[f7<2.8076582] yes=11,no=12,missing=11
			11:leaf=-0.0401885025
			12:leaf=0.0176797118
		6:[f1<2.84026718] yes=13,no=14,missing=13
			13:leaf=-0.039903108
			14:leaf=-0.052356042
booster[48]:
0:[f1<10.0115376] yes=1,no=2,missing=1
	1:[f11<2.5] yes=3,no=4,missing=3
		3:[f8<0.0248040613] yes=7,no=8,missing=7
			7:leaf=-0.0280130692
			8:leaf=0.0297985766
		4:[f5<1.54871142] yes=9,no=10,missing=9
			9:leaf=0.026283985
			10:leaf=-0.0140050938
	2:[f0<24.1297436] yes=5,no=6,missing=5
		5:[f5<1.58449781] yes=11,no=12,missing=11
			11:leaf=0.0406172834
			12:leaf=-0.00114477309
		6:[f0<55.669426] yes=13,no=14,missing=13
			13:leaf=0.0490783788
			14:leaf=0.0522638671
booster[49]:
0:[f1<10.0115376] yes=1,no=2,missing=1
	1:[f11<2.5] yes=3,no=4,missing=3
		3:[f8<0.0248040613] yes=7,no=8,missing=7
			7:leaf=0.0280130748
			8:leaf=-0.0297985766
		4:[f5<1.54871142] yes=9,no=10,missing=9
			9:leaf=-0.026283985
			10:leaf=0.0140050901
	2:[f0<24.1297436] yes=5,no=6,missing=5
		5:[f5<1.58449781] yes=11,no=12,missing=11
			11:leaf=-0.0406172834
			12:leaf=0.0011447802
		6:[f0<55.6730537] yes=13,no=14,missing=13
			13:leaf=-0.0490787737
			14:leaf=-0.0522638671
booster[50]:
0:[f0<12.7426548] yes=1,no=2,missing=1
	1:[f1<1.04669189] yes=3,no=4,missing=3
		3:[f6<-0.5] yes=7,no=8,missing=7
			7:leaf=0.340296149
			8:leaf=-0.0285831969
		4:[f5<1.30132794] yes=9,no=10,missing=9
			9:leaf=0.0166779552
			10:leaf=-0.0180676561
	2:[f0<28.1509991] yes=5,no=6,missing=5
		5:[f7<2.69096136] yes=11,no=12,missing=11
			11:leaf=0.0399973355
			12:leaf=-0.0198917519
		6:[f1<2.84026718] yes=13,no=14,missing=13
			13:leaf=0.0374325477
			14:leaf=0.0518212579
booster[51]:
0:[f0<12.7426548] yes=1,no=2,missing=1
	1:[f1<1.04669189] yes=3,no=4,missing=3
		3:[f6<-0.5] yes=7,no=8,missing=7
			7:leaf=-0.340296119
			8:leaf=0.0285831988
		4:[f5<1.30132794] yes=9,no=10,missing=9
			9:leaf=-0.016677957
			10:leaf=0.0180676561
	2:[f0<28.1509991] yes=5,no=6,missing=5
		5:[f7<2.69096136] yes=11,no=12,missing=11
			11:leaf=-0.0399973355
			12:leaf=0.0198917594
		6:[f1<2.84026718] yes=13,no=14,missing=13
			13:leaf=-0.0374325477
			14:leaf=-0.0518212505
booster[52]:
0:[f1<10.0838947] yes=1,no=2,missing=1
	1:[f11<4.5] yes=3,no=4,missing=3
		3:[f8<0.00645320443] yes=7,no=8,missing=7
			7:leaf=-0.0196695849
			8:leaf=0.0254226569
		4:[f13<17.2119675] yes=9,no=10,missing=9
			9:leaf=0.0241822302
			10:leaf=0.0757576749
	2:[f0<24.1297436] yes=5,no=6,missing=5
		5:[f14<0.00284741353] yes=11,no=12,missing=11
			11:leaf=0.0088475626
			12:leaf=0.0424283929
		6:[f0<55.6632309] yes=13,no=14,missing=13
			13:leaf=0.0480184667
			14:leaf=0.0518142357
booster[53]:
0:[f1<10.0838947] yes=1,no=2,missing=1
	1:[f11<4.5] yes=3,no=4,missing=3
		3:[f8<0.00645320443] yes=7,no=8,missing=7
			7:leaf=0.0196695831
			8:leaf=-0.0254226569
		4:[f13<17.2119675] yes=9,no=10,missing=9
			9:leaf=-0.0241822302
			10:leaf=-0.0757576749
	2:[f0<24.1297436] yes=5,no=6,missing=5
		5:[f14<0.00284741353] yes=11,no=12,missing=11
			11:leaf=-0.0088475598
			12:leaf=-0.0424283929
		6:[f0<55.669426] yes=13,no=14,missing=13
			13:leaf=-0.0480189435
			14:leaf=-0.0518142395
booster[54]:
0:[f0<15.9699688] yes=1,no=2,missing=1
	1:[f17<0.0427333787] yes=3,no=4,missing=3
		3:[f14<0.0219987743] yes=7,no=8,missing=7
			7:leaf=-0.023471158
			8:leaf=0.00860913657
		4:[f1<0.684892297] yes=9,no=10,missing=9
			9:leaf=-0.00416889647
			10:leaf=0.0353573747
	2:[f1<2.86701918] yes=5,no=6,missing=5
		5:[f12<64.594635] yes=11,no=12,missing=11
			11:leaf=-0.034154661
			12:leaf=0.0562179051
		6:[f0<28.587574] yes=13,no=14,missing=13
			13:leaf=0.0380646251
			14:leaf=0.0513850339
booster[55]:
0:[f0<15.9699688] yes=1,no=2,missing=1
	1:[f17<0.0427333787] yes=3,no=4,missing=3
		3:[f14<0.0219987743] yes=7,no=8,missing=7
			7:leaf=0.0234711599
			8:leaf=-0.00860913657
		4:[f1<0.684892297] yes=9,no=10,missing=9
			9:leaf=0.00416890299
			10:leaf=-0.0353573747
	2:[f1<2.86701918] yes=5,no=6,missing=5
		5:[f12<64.594635] yes=11,no=12,missing=11
			11:leaf=0.034154661
			12:leaf=-0.0562179051
		6:[f0<28.587574] yes=13,no=14,missing=13
			13:leaf=-0.0380646326
			14:leaf=-0.0513850339
booster[56]:
0:[f1<10.7645149] yes=1,no=2,missing=1
	1:[f10<0.00257221889] yes=3,no=4,missing=3
		3:[f11<1.5] yes=7,no=8,missing=7
			7:leaf=-0.0110187
			8:leaf=0.0236176644
		4:[f11<5.5] yes=9,no=10,missing=9
			9:leaf=-0.0244931076
			10:leaf=0.0252723452
	2:[f0<24.1297436] yes=5,no=6,missing=5
		5:[f14<0.015956562] yes=11,no=12,missing=11
			11:leaf=0.0101701431
			12:leaf=0.0420527235
		6:[f0<55.6632309] yes=13,no=14,missing=13
			13:leaf=0.0470818579
			14:leaf=0.0514465645
booster[57]:
0:[f1<10.7645149] yes=1,no=2,missing=1
	1:[f10<0.00257221889] yes=3,no=4,missing=3
		3:[f11<1.5] yes=7,no=8,missing=7
			7:leaf=0.0110186962
			8:leaf=-0.0236176662
		4:[f11<5.5] yes=9,no=10,missing=9
			9:leaf=0.0244931038
			10:leaf=-0.0252723452
	2:[f0<24.1297436] yes=5,no=6,missing=5
		5:[f14<0.015956562] yes=11,no=12,missing=11
			11:leaf=-0.0101701431
			12:leaf=-0.0420527235
		6:[f0<55.6632309] yes=13,no=14,missing=13
			13:leaf=-0.0470818579
			14:leaf=-0.0514465645
booster[58]:
0:[f0<15.9699688] yes=1,no=2,missing=1
	1:[f1<0.983732164] yes=3,no=4,missing=3
		3:[f18<69.980217] yes=7,no=8,missing=7
			7:leaf=-0.0269706491
			8:leaf=0.10933093
		4:[f5<1.63413835] yes=9,no=10,missing=9
			9:leaf=0.0151953651
			10:leaf=-0.0182105098
	2:[f0<33.3404388] yes=5,no=6,missing=5
		5:[f7<2.67727232] yes=11,no=12,missing=11
			11:leaf=0.0403280966
			12:leaf=-0.0198806208
		6:[f0<67.8725128] yes=13,no=14,missing=13
			13:leaf=0.0460650139
			14:leaf=0.051366102
booster[59]:
0:[f0<15.9699688] yes=1,no=2,missing=1
	1:[f1<0.983732164] yes=3,no=4,missing=3
		3:[f18<69.980217] yes=7,no=8,missing=7
			7:leaf=0.0269706529
			8:leaf=-0.10933093
		4:[f5<1.63413835] yes=9,no=10,missing=9
			9:leaf=-0.0151953651
			10:leaf=0.0182105079
	2:[f0<33.3404388] yes=5,no=6,missing=5
		5:[f7<2.67727232] yes=11,no=12,missing=11
			11:leaf=-0.0403280966
			12:leaf=0.019880617
		6:[f0<67.8673096] yes=13,no=14,missing=13
			13:leaf=-0.0460646711
			14:leaf=-0.051366102
booster[60]:
0:[f1<10.7645149] yes=1,no=2,missing=1
	1:[f8<0.010422267] yes=3,no=4,missing=3
		3:[f11<2.5] yes=7,no=8,missing=7
			7:leaf=-0.0237657856
			8:leaf=0.0083116712
		4:[f1<3.52108288] yes=9,no=10,missing=9
			9:leaf=0.0151273161
			10:leaf=0.0449224263
	2:[f0<24.1297436] yes=5,no=6,missing=5
		5:[f10<0.00430708751] yes=11,no=12,missing=11
			11:leaf=0.0368306525
			12:leaf=-0.00270077656
		6:[f0<55.6671181] yes=13,no=14,missing=13
			13:leaf=0.0460062623
			14:leaf=0.051142361
booster[61]:
0:[f1<10.7645149] yes=1,no=2,missing=1
	1:[f8<0.010422267] yes=3,no=4,missing=3
		3:[f11<2.5] yes=7,no=8,missing=7
			7:leaf=0.0237657856
			8:leaf=-0.00831167214
		4:[f1<3.52108288] yes=9,no=10,missing=9
			9:leaf=-0.0151273161
			10:leaf=-0.0449224263
	2:[f0<24.1297436] yes=5,no=6,missing=5
		5:[f10<0.00430708751] yes=11,no=12,missing=11
			11:leaf=-0.0368306525
			12:leaf=0.00270077609
		6:[f0<55.6632309] yes=13,no=14,missing=13
			13:leaf=-0.0460059419
			14:leaf=-0.051142361
booster[62]:
0:[f0<19.4490852] yes=1,no=2,missing=1
	1:[f1<3.33231497] yes=3,no=4,missing=3
		3:[f5<1.08232403] yes=7,no=8,missing=7
			7:leaf=-0.00371004641
			8:leaf=-0.0304210074
		4:[f17<0.0333615765] yes=9,no=10,missing=9
			9:leaf=0.00447620777
			10:leaf=0.0353272185
	2:[f0<33.3404388] yes=5,no=6,missing=5
		5:[f1<1.39372516] yes=11,no=12,missing=11
			11:leaf=-0.0500538051
			12:leaf=0.0369410999
		6:[f0<67.8673096] yes=13,no=14,missing=13
			13:leaf=0.0447607189
			14:leaf=0.0510911755
booster[63]:
0:[f0<19.4490852] yes=1,no=2,missing=1
	1:[f1<3.33231497] yes=3,no=4,missing=3
		3:[f5<1.08232403] yes=7,no=8,missing=7
			7:leaf=0.0037100499
			8:leaf=0.0304210093
		4:[f17<0.0333615765] yes=9,no=10,missing=9
			9:leaf=-0.00447620917
			10:leaf=-0.0353272185
	2:[f0<33.3404388] yes=5,no=6,missing=5
		5:[f1<1.39372516] yes=11,no=12,missing=11
			11:leaf=0.0500538051
			12:leaf=-0.0369411036
		6:[f0<67.8746185] yes=13,no=14,missing=13
			13:leaf=-0.0447615199
			14:leaf=-0.0510911755
booster[64]:
0:[f1<12.983202] yes=1,no=2,missing=1
	1:[f8<0.00642381515] yes=3,no=4,missing=3
		3:[f17<0.0332775712] yes=7,no=8,missing=7
			7:leaf=-0.0175957885
			8:leaf=0.0171983223
		4:[f1<3.52108288] yes=9,no=10,missing=9
			9:leaf=0.0126815084
			10:leaf=0.0422210582
	2:[f0<24.1297436] yes=5,no=6,missing=5
		5:[f7<2.80717516] yes=11,no=12,missing=11
			11:leaf=0.0363524519
			12:leaf=-0.025136916
		6:[f0<55.6632309] yes=13,no=14,missing=13
			13:leaf=0.0449238382
			14:leaf=0.0509016998
booster[65]:
0:[f1<12.983202] yes=1,no=2,missing=1
	1:[f8<0.00642381515] yes=3,no=4,missing=3
		3:[f17<0.0332775712] yes=7,no=8,missing=7
			7:leaf=0.0175957885
			8:leaf=-0.0171983223
		4:[f1<3.52108288] yes=9,no=10,missing=9
			9:leaf=-0.0126815084
			10:leaf=-0.0422210582
	2:[f0<24.1297436] yes=5,no=6,missing=5
		5:[f7<2.80717516] yes=11,no=12,missing=11
			11:leaf=-0.0363524556
			12:leaf=0.025136916
		6:[f0<55.6632309] yes=13,no=14,missing=13
			13:leaf=-0.0449238494
			14:leaf=-0.0509017073
booster[66]:
0:[f0<19.4490852] yes=1,no=2,missing=1
	1:[f14<0.0325864702] yes=3,no=4,missing=3
		3:[f17<0.0361103117] yes=7,no=8,missing=7
			7:leaf=-0.0196286645
			8:leaf=0.0144919055
		4:[f13<6.5777483] yes=9,no=10,missing=9
			9:leaf=0.00856231339
			10:leaf=0.0512058325
	2:[f0<33.3404388] yes=5,no=6,missing=5
		5:[f7<2.67727232] yes=11,no=12,missing=11
			11:leaf=0.0385964923
			12:leaf=-0.0153669119
		6:[f0<67.8673096] yes=13,no=14,missing=13
			13:leaf=0.0433574207
			14:leaf=0.0508630574
booster[67]:
0:[f0<19.4490852] yes=1,no=2,missing=1
	1:[f14<0.0325864702] yes=3,no=4,missing=3
		3:[f17<0.0361103117] yes=7,no=8,missing=7
			7:leaf=0.0196286626
			8:leaf=-0.0144919073
		4:[f13<6.5777483] yes=9,no=10,missing=9
			9:leaf=-0.00856231432
			10:leaf=-0.0512058325
	2:[f0<33.3404388] yes=5,no=6,missing=5
		5:[f7<2.67727232] yes=11,no=12,missing=11
			11:leaf=-0.0385964885
			12:leaf=0.0153668998
		6:[f0<67.8673096] yes=13,no=14,missing=13
			13:leaf=-0.0433574133
			14:leaf=-0.0508630536
booster[68]:
0:[f1<12.983202] yes=1,no=2,missing=1
	1:[f10<0.0028150666] yes=3,no=4,missing=3
		3:[f11<1.5] yes=7,no=8,missing=7
			7:leaf=-0.00796866976
			8:leaf=0.0201327614
		4:[f10<0.0277545005] yes=9,no=10,missing=9
			9:leaf=-0.0203694813
			10:leaf=0.0341032408
	2:[f0<28.4197769] yes=5,no=6,missing=5
		5:[f7<1.98816013] yes=11,no=12,missing=11
			11:leaf=0.0366028063
			12:leaf=-0.0116320821
		6:[f0<67.8725128] yes=13,no=14,missing=13
			13:leaf=0.0456201173
			14:leaf=0.0507537387
booster[69]:
0:[f1<12.983202] yes=1,no=2,missing=1
	1:[f10<0.0028150666] yes=3,no=4,missing=3
		3:[f11<1.5] yes=7,no=8,missing=7
			7:leaf=0.00796866603
			8:leaf=-0.0201327614
		4:[f10<0.0277545005] yes=9,no=10,missing=9
			9:leaf=0.0203694832
			10:leaf=-0.0341032371
	2:[f0<28.4197769] yes=5,no=6,missing=5
		5:[f7<1.98816013] yes=11,no=12,missing=11
			11:leaf=-0.0366028063
			12:leaf=0.0116320793
		6:[f0<67.8673096] yes=13,no=14,missing=13
			13:leaf=-0.0456198305
			14:leaf=-0.0507537387
booster[70]:
0:[f0<19.4490852] yes=1,no=2,missing=1
	1:[f1<0.983732164] yes=3,no=4,missing=3
		3:[f6<-0.5] yes=7,no=8,missing=7
			7:leaf=0.250365347
			8:leaf=-0.0228088778
		4:[f7<2.222574] yes=9,no=10,missing=9
			9:leaf=0.0122413253
			10:leaf=-0.0208773464
	2:[f0<44.0997086] yes=5,no=6,missing=5
		5:[f1<2.86715078] yes=11,no=12,missing=11
			11:leaf=-0.0340705179
			12:leaf=0.0367679782
		6:[f0<67.8673096] yes=13,no=14,missing=13
			13:leaf=0.0433270074
			14:leaf=0.0506674163
booster[71]:
0:[f0<19.4490852] yes=1,no=2,missing=1
	1:[f1<0.983732164] yes=3,no=4,missing=3
		3:[f6<-0.5] yes=7,no=8,missing=7
			7:leaf=-0.250365347
			8:leaf=0.0228088759
		4:[f7<2.222574] yes=9,no=10,missing=9
			9:leaf=-0.0122413253
			10:leaf=0.0208773464
	2:[f0<44.0997086] yes=5,no=6,missing=5
		5:[f1<2.86715078] yes=11,no=12,missing=11
			11:leaf=0.0340705179
			12:leaf=-0.0367679819
		6:[f0<67.8673096] yes=13,no=14,missing=13
			13:leaf=-0.0433270149
			14:leaf=-0.0506674163
booster[72]:
0:[f1<13.8019371] yes=1,no=2,missing=1
	1:[f8<0.0278212205] yes=3,no=4,missing=3
		3:[f11<3.5] yes=7,no=8,missing=7
			7:leaf=-0.0153248627
			8:leaf=0.0144188078
		4:[f1<3.08639097] yes=9,no=10,missing=9
			9:leaf=0.0182892326
			10:leaf=0.0434876755
	2:[f0<32.3426666] yes=5,no=6,missing=5
		5:[f7<2.8076582] yes=11,no=12,missing=11
			11:leaf=0.036387004
			12:leaf=-0.0179758631
		6:[f6<0.000403568672] yes=13,no=14,missing=13
			13:leaf=0.0113940528
			14:leaf=0.0502492264
booster[73]:
0:[f1<13.8019371] yes=1,no=2,missing=1
	1:[f8<0.0278212205] yes=3,no=4,missing=3
		3:[f11<3.5] yes=7,no=8,missing=7
			7:leaf=0.0153248636
			8:leaf=-0.0144188078
		4:[f1<3.08639097] yes=9,no=10,missing=9
			9:leaf=-0.0182892308
			10:leaf=-0.0434876755
	2:[f0<32.3426666] yes=5,no=6,missing=5
		5:[f7<2.8076582] yes=11,no=12,missing=11
			11:leaf=-0.0363870114
			12:leaf=0.0179758687
		6:[f6<0.000403568672] yes=13,no=14,missing=13
			13:leaf=-0.0113940015
			14:leaf=-0.0502492189
booster[74]:
0:[f0<28.1509991] yes=1,no=2,missing=1
	1:[f5<1.3094418] yes=3,no=4,missing=3
		3:[f11<1.5] yes=7,no=8,missing=7
			7:leaf=-0.00836665276
			8:leaf=0.017278878
		4:[f10<0.0277545005] yes=9,no=10,missing=9
			9:leaf=-0.0242761113
			10:leaf=0.0305266026
	2:[f1<2.84026718] yes=5,no=6,missing=5
		5:[f12<64.594635] yes=11,no=12,missing=11
			11:leaf=-0.0331133865
			12:leaf=0.0512168519
		6:[f0<67.8673096] yes=13,no=14,missing=13
			13:leaf=0.0432128794
			14:leaf=0.0504767485
booster[75]:
0:[f0<28.1509991] yes=1,no=2,missing=1
	1:[f5<1.3094418] yes=3,no=4,missing=3
		3:[f11<1.5] yes=7,no=8,missing=7
			7:leaf=0.0083666509
			8:leaf=-0.0172788762
		4:[f10<0.0277545005] yes=9,no=10,missing=9
			9:leaf=0.0242761113
			10:leaf=-0.0305266082
	2:[f1<2.84026718] yes=5,no=6,missing=5
		5:[f12<64.594635] yes=11,no=12,missing=11
			11:leaf=0.0331133865
			12:leaf=-0.0512168519
		6:[f0<67.8673096] yes=13,no=14,missing=13
			13:leaf=-0.0432128944
			14:leaf=-0.0504767485
booster[76]:
0:[f0<28.1509991] yes=1,no=2,missing=1
	1:[f8<0.00642381515] yes=3,no=4,missing=3
		3:[f13<2.49491024] yes=7,no=8,missing=7
			7:leaf=-0.0150705948
			8:leaf=0.0166355185
		4:[f1<3.52108288] yes=9,no=10,missing=9
			9:leaf=0.0095886793
			10:leaf=0.0399193056
	2:[f1<2.84026718] yes=5,no=6,missing=5
		5:[f12<64.594635] yes=11,no=12,missing=11
			11:leaf=-0.0286220498
			12:leaf=0.0503951125
		6:[f0<67.8673096] yes=13,no=14,missing=13
			13:leaf=0.0424869843
			14:leaf=0.0504014306
booster[77]:
0:[f0<28.1509991] yes=1,no=2,missing=1
	1:[f8<0.00642381515] yes=3,no=4,missing=3
		3:[f13<2.49491024] yes=7,no=8,missing=7
			7:leaf=0.0150705948
			8:leaf=-0.0166355167
		4:[f1<3.52108288] yes=9,no=10,missing=9
			9:leaf=-0.00958867837
			10:leaf=-0.0399193019
	2:[f1<2.84026718] yes=5,no=6,missing=5
		5:[f12<64.594635] yes=11,no=12,missing=11
			11:leaf=0.0286220498
			12:leaf=-0.0503951125
		6:[f0<67.8673096] yes=13,no=14,missing=13
			13:leaf=-0.0424869768
			14:leaf=-0.0504014269
booster[78]:
0:[f0<28.1509991] yes=1,no=2,missing=1
	1:[f17<0.0496251881] yes=3,no=4,missing=3
		3:[f13<11.669035] yes=7,no=8,missing=7
			7:leaf=-0.00768922037
			8:leaf=0.0546987131
		4:[f2<0.168541953] yes=9,no=10,missing=9
			9:leaf=0.0337305143
			10:leaf=-0.00353509304
	2:[f1<2.84026718] yes=5,no=6,missing=5
		5:[f0<81.7382965] yes=11,no=12,missing=11
			11:leaf=-0.0214272384
			12:leaf=0.0530949645
		6:[f0<67.8673096] yes=13,no=14,missing=13
			13:leaf=0.0417204723
			14:leaf=0.0503303297
booster[79]:
0:[f0<28.1509991] yes=1,no=2,missing=1
	1:[f17<0.0496251881] yes=3,no=4,missing=3
		3:[f13<11.669035] yes=7,no=8,missing=7
			7:leaf=0.0076892213
			8:leaf=-0.0546987131
		4:[f2<0.168541953] yes=9,no=10,missing=9
			9:leaf=-0.0337305143
			10:leaf=0.00353509234
	2:[f1<2.84026718] yes=5,no=6,missing=5
		5:[f0<81.7382965] yes=11,no=12,missing=11
			11:leaf=0.0214272365
			12:leaf=-0.0530949645
		6:[f0<67.8673096] yes=13,no=14,missing=13
			13:leaf=-0.0417204909
			14:leaf=-0.0503303297
booster[80]:
0:[f1<14.7242146] yes=1,no=2,missing=1
	1:[f10<0.00172774959] yes=3,no=4,missing=3
		3:[f3<0.5] yes=7,no=8,missing=7
			7:leaf=-0.0144307883
			8:leaf=0.0178061295
		4:[f8<0.00548483152] yes=9,no=10,missing=9
			9:leaf=-0.0172729287
			10:leaf=0.0204747096
	2:[f0<32.3426666] yes=5,no=6,missing=5
		5:[f5<1.48154795] yes=11,no=12,missing=11
			11:leaf=0.0359327905
			12:leaf=-0.0101018557
		6:[f0<67.8673096] yes=13,no=14,missing=13
			13:leaf=0.0433773175
			14:leaf=0.0503133945
booster[81]:
0:[f1<14.7242146] yes=1,no=2,missing=1
	1:[f10<0.00172774959] yes=3,no=4,missing=3
		3:[f3<0.5] yes=7,no=8,missing=7
			7:leaf=0.0144307856
			8:leaf=-0.0178061295
		4:[f8<0.00548483152] yes=9,no=10,missing=9
			9:leaf=0.0172729306
			10:leaf=-0.0204747096
	2:[f0<32.3426666] yes=5,no=6,missing=5
		5:[f5<1.48154795] yes=11,no=12,missing=11
			11:leaf=-0.0359327979
			12:leaf=0.0101018548
		6:[f0<67.8673096] yes=13,no=14,missing=13
			13:leaf=-0.0433773063
			14:leaf=-0.0503133945
booster[82]:
0:[f0<28.1509991] yes=1,no=2,missing=1
	1:[f1<1.24404001] yes=3,no=4,missing=3
		3:[f6<-0.5] yes=7,no=8,missing=7
			7:leaf=0.199783161
			8:leaf=-0.0190095268
		4:[f11<5.5] yes=9,no=10,missing=9
			9:leaf=0.00307595357
			10:leaf=0.0366261937
	2:[f0<67.8673096] yes=5,no=6,missing=5
		5:[f1<0.567475438] yes=11,no=12,missing=11
			11:leaf=-0.0635789484
			12:leaf=0.0379229076
		6:[f0<92.4643402] yes=13,no=14,missing=13
			13:leaf=0.0448008031
			14:leaf=0.0503786504
booster[83]:
0:[f0<28.1509991] yes=1,no=2,missing=1
	1:[f1<1.24404001] yes=3,no=4,missing=3
		3:[f6<-0.5] yes=7,no=8,missing=7
			7:leaf=-0.199783161
			8:leaf=0.0190095287
		4:[f11<5.5] yes=9,no=10,missing=9
			9:leaf=-0.00307595404
			10:leaf=-0.0366261937
	2:[f0<67.8673096] yes=5,no=6,missing=5
		5:[f1<0.567475438] yes=11,no=12,missing=11
			11:leaf=0.0635789484
			12:leaf=-0.0379229598
		6:[f0<92.4622192] yes=13,no=14,missing=13
			13:leaf=-0.044799991
			14:leaf=-0.0503786467
booster[84]:
0:[f0<28.1509991] yes=1,no=2,missing=1
	1:[f14<0.0441324189] yes=3,no=4,missing=3
		3:[f17<0.068618767] yes=7,no=8,missing=7
			7:leaf=-0.0115689514
			8:leaf=0.0366503932
		4:[f7<2.05328226] yes=9,no=10,missing=9
			9:leaf=0.0210043192
			10:leaf=-0.0130148157
	2:[f0<67.8673096] yes=5,no=6,missing=5
		5:[f1<2.84026718] yes=11,no=12,missing=11
			11:leaf=-0.0207588095
			12:leaf=0.039310839
		6:[f0<92.4622192] yes=13,no=14,missing=13
			13:leaf=0.044206623
			14:leaf=0.0503258593
booster[85]:
0:[f0<28.1509991] yes=1,no=2,missing=1
	1:[f14<0.0441324189] yes=3,no=4,missing=3
		3:[f17<0.068618767] yes=7,no=8,missing=7
			7:leaf=0.0115689514
			8:leaf=-0.0366503932
		4:[f7<2.05328226] yes=9,no=10,missing=9
			9:leaf=-0.0210043173
			10:leaf=0.0130148176
	2:[f0<67.8673096] yes=5,no=6,missing=5
		5:[f1<2.84026718] yes=11,no=12,missing=11
			11:leaf=0.0207588114
			12:leaf=-0.0393108837
		6:[f0<92.4643402] yes=13,no=14,missing=13
			13:leaf=-0.0442075096
			14:leaf=-0.0503258593
booster[86]:
0:[f0<28.1509991] yes=1,no=2,missing=1
	1:[f5<1.60078192] yes=3,no=4,missing=3
		3:[f7<1.57383239] yes=7,no=8,missing=7
			7:leaf=0.0114598973
			8:leaf=-0.0192715898
		4:[f10<0.0277545005] yes=9,no=10,missing=9
			9:leaf=-0.0242559668
			10:leaf=0.0292824842
	2:[f0<67.8673096] yes=5,no=6,missing=5
		5:[f1<2.84026718] yes=11,no=12,missing=11
			11:leaf=-0.0182583593
			12:leaf=0.0383747146
		6:[f0<92.4622192] yes=13,no=14,missing=13
			13:leaf=0.043576818
			14:leaf=0.0502762459
booster[87]:
0:[f0<28.1509991] yes=1,no=2,missing=1
	1:[f5<1.60078192] yes=3,no=4,missing=3
		3:[f7<1.57383239] yes=7,no=8,missing=7
			7:leaf=-0.0114598973
			8:leaf=0.019271588
		4:[f10<0.0277545005] yes=9,no=10,missing=9
			9:leaf=0.0242559705
			10:leaf=-0.0292824786
	2:[f0<67.8673096] yes=5,no=6,missing=5
		5:[f1<2.84026718] yes=11,no=12,missing=11
			11:leaf=0.0182583593
			12:leaf=-0.0383746959
		6:[f0<92.4622192] yes=13,no=14,missing=13
			13:leaf=-0.0435768478
			14:leaf=-0.0502762496
booster[88]:
0:[f1<14.7242146] yes=1,no=2,missing=1
	1:[f8<0.069280237] yes=3,no=4,missing=3
		3:[f13<8.49017429] yes=7,no=8,missing=7
			7:leaf=-0.00717621762
			8:leaf=0.0383112244
		4:[f1<3.2329073] yes=9,no=10,missing=9
			9:leaf=0.0187409502
			10:leaf=0.0418956131
	2:[f0<32.3426666] yes=5,no=6,missing=5
		5:[f5<1.48154795] yes=11,no=12,missing=11
			11:leaf=0.0336199775
			12:leaf=-0.00948819425
		6:[f0<67.8673096] yes=13,no=14,missing=13
			13:leaf=0.0406255126
			14:leaf=0.0500954986
booster[89]:
0:[f1<14.7242146] yes=1,no=2,missing=1
	1:[f8<0.069280237] yes=3,no=4,missing=3
		3:[f13<8.49017429] yes=7,no=8,missing=7
			7:leaf=0.00717621809
			8:leaf=-0.0383112207
		4:[f1<3.2329073] yes=9,no=10,missing=9
			9:leaf=-0.018740952
			10:leaf=-0.0418956131
	2:[f0<32.3426666] yes=5,no=6,missing=5
		5:[f5<1.48154795] yes=11,no=12,missing=11
			11:leaf=-0.0336199738
			12:leaf=0.0094882017
		6:[f0<67.8673096] yes=13,no=14,missing=13
			13:leaf=-0.0406255685
			14:leaf=-0.050095506
booster[90]:
0:[f0<33.3404388] yes=1,no=2,missing=1
	1:[f1<0.639819622] yes=3,no=4,missing=3
		3:[f10<-0.0249144491] yes=7,no=8,missing=7
			7:leaf=0.0682903752
			8:leaf=-0.023178814
		4:[f8<0.00377348764] yes=9,no=10,missing=9
			9:leaf=0.000178497488
			10:leaf=0.0272609387
	2:[f0<67.8673096] yes=5,no=6,missing=5
		5:[f14<0.00638853572] yes=11,no=12,missing=11
			11:leaf=-0.00972454995
			12:leaf=0.0412527397
		6:[f0<92.4622192] yes=13,no=14,missing=13
			13:leaf=0.042204313
			14:leaf=0.0501936339
booster[91]:
0:[f0<33.3404388] yes=1,no=2,missing=1
	1:[f1<0.639819622] yes=3,no=4,missing=3
		3:[f10<-0.0249144491] yes=7,no=8,missing=7
			7:leaf=-0.0682903752
			8:leaf=0.0231788084
		4:[f8<0.00377348764] yes=9,no=10,missing=9
			9:leaf=-0.000178497721
			10:leaf=-0.0272609387
	2:[f0<67.8673096] yes=5,no=6,missing=5
		5:[f14<0.00638853572] yes=11,no=12,missing=11
			11:leaf=0.00972451549
			12:leaf=-0.0412527472
		6:[f0<92.4622192] yes=13,no=14,missing=13
			13:leaf=-0.0422043949
			14:leaf=-0.0501936376
booster[92]:
0:[f0<33.3404388] yes=1,no=2,missing=1
	1:[f17<0.0436870456] yes=3,no=4,missing=3
		3:[f13<11.669035] yes=7,no=8,missing=7
			7:leaf=-0.00732317893
			8:leaf=0.0491200387
		4:[f6<0.518578053] yes=9,no=10,missing=9
			9:leaf=0.00232740259
			10:leaf=0.0298304688
	2:[f0<67.8673096] yes=5,no=6,missing=5
		5:[f14<0.00638853572] yes=11,no=12,missing=11
			11:leaf=-0.00862670597
			12:leaf=0.0403788984
		6:[f0<92.4622192] yes=13,no=14,missing=13
			13:leaf=0.0414490327
			14:leaf=0.0501501039
booster[93]:
0:[f0<33.3404388] yes=1,no=2,missing=1
	1:[f17<0.0436870456] yes=3,no=4,missing=3
		3:[f13<11.669035] yes=7,no=8,missing=7
			7:leaf=0.00732318172
			8:leaf=-0.0491200387
		4:[f6<0.518578053] yes=9,no=10,missing=9
			9:leaf=-0.00232740236
			10:leaf=-0.0298304688
	2:[f0<67.8673096] yes=5,no=6,missing=5
		5:[f14<0.00638853572] yes=11,no=12,missing=11
			11:leaf=0.00862680562
			12:leaf=-0.0403789207
		6:[f0<92.4622192] yes=13,no=14,missing=13
			13:leaf=-0.0414491221
			14:leaf=-0.0501501039
booster[94]:
0:[f0<33.3404388] yes=1,no=2,missing=1
	1:[f1<3.62949491] yes=3,no=4,missing=3
		3:[f13<17.1713943] yes=7,no=8,missing=7
			7:leaf=-0.0103454962
			8:leaf=0.0636169985
		4:[f8<0.00264574541] yes=9,no=10,missing=9
			9:leaf=0.00516522955
			10:leaf=0.0353603289
	2:[f0<67.8673096] yes=5,no=6,missing=5
		5:[f14<0.00638853572] yes=11,no=12,missing=11
			11:leaf=-0.0076674968
			12:leaf=0.0394612215
		6:[f0<92.4622192] yes=13,no=14,missing=13
			13:leaf=0.0406509489
			14:leaf=0.0501079969
booster[95]:
0:[f0<33.3404388] yes=1,no=2,missing=1
	1:[f1<3.62949491] yes=3,no=4,missing=3
		3:[f13<17.1713943] yes=7,no=8,missing=7
			7:leaf=0.0103454953
			8:leaf=-0.0636169985
		4:[f8<0.00264574541] yes=9,no=10,missing=9
			9:leaf=-0.00516522862
			10:leaf=-0.0353603289
	2:[f0<67.8673096] yes=5,no=6,missing=5
		5:[f14<0.00638853572] yes=11,no=12,missing=11
			11:leaf=0.00766742602
			12:leaf=-0.0394612812
		6:[f0<92.4622192] yes=13,no=14,missing=13
			13:leaf=-0.0406510159
			14:leaf=-0.0501079969
booster[96]:
0:[f0<33.3404388] yes=1,no=2,missing=1
	1:[f10<0.00292793592] yes=3,no=4,missing=3
		3:[f7<1.57383239] yes=7,no=8,missing=7
			7:leaf=0.0130266221
			8:leaf=-0.0184253659
		4:[f10<0.027753314] yes=9,no=10,missing=9
			9:leaf=-0.015871847
			10:leaf=0.0293291658
	2:[f0<67.8673096] yes=5,no=6,missing=5
		5:[f1<1.14224267] yes=11,no=12,missing=11
			11:leaf=-0.0410721116
			12:leaf=0.0340501703
		6:[f0<92.4622192] yes=13,no=14,missing=13
			13:leaf=0.0398094021
			14:leaf=0.0500669256
booster[97]:
0:[f0<33.3404388] yes=1,no=2,missing=1
	1:[f10<0.00292793592] yes=3,no=4,missing=3
		3:[f7<1.57383239] yes=7,no=8,missing=7
			7:leaf=-0.0130266221
			8:leaf=0.0184253659
		4:[f10<0.027753314] yes=9,no=10,missing=9
			9:leaf=0.015871847
			10:leaf=-0.029329164
	2:[f0<67.8673096] yes=5,no=6,missing=5
		5:[f1<1.14224267] yes=11,no=12,missing=11
			11:leaf=0.0410721116
			12:leaf=-0.0340501033
		6:[f0<92.4622192] yes=13,no=14,missing=13
			13:leaf=-0.0398092754
			14:leaf=-0.0500669256
booster[98]:
0:[f1<18.6338959] yes=1,no=2,missing=1
	1:[f14<0.0555038825] yes=3,no=4,missing=3
		3:[f10<0.00220215507] yes=7,no=8,missing=7
			7:leaf=0.00228737225
			8:leaf=-0.0173414405
		4:[f7<2.08206272] yes=9,no=10,missing=9
			9:leaf=0.0201172978
			10:leaf=-0.00920709688
	2:[f0<54.5726776] yes=5,no=6,missing=5
		5:[f14<0.0272257477] yes=11,no=12,missing=11
			11:leaf=-0.00173511112
			12:leaf=0.0400999263
		6:[f6<0.000403568672] yes=13,no=14,missing=13
			13:leaf=-0.0201752316
			14:leaf=0.0496332794
booster[99]:
0:[f1<18.6338959] yes=1,no=2,missing=1
	1:[f14<0.0555038825] yes=3,no=4,missing=3
		3:[f10<0.00220215507] yes=7,no=8,missing=7
			7:leaf=-0.00228737155
			8:leaf=0.0173414405
		4:[f7<2.08206272] yes=9,no=10,missing=9
			9:leaf=-0.0201172996
			10:leaf=0.00920709688
	2:[f0<54.5726776] yes=5,no=6,missing=5
		5:[f14<0.0272257477] yes=11,no=12,missing=11
			11:leaf=0.00173511263
			12:leaf=-0.04009993
		6:[f6<0.000403568672] yes=13,no=14,missing=13
			13:leaf=0.0201748703
			14:leaf=-0.0496332906
booster[100]:
0:[f0<44.0997086] yes=1,no=2,missing=1
	1:[f17<0.0597539991] yes=3,no=4,missing=3
		3:[f8<0.00601983815] yes=7,no=8,missing=7
			7:leaf=-0.00737289945
			8:leaf=0.0180570018
		4:[f2<0.190269321] yes=9,no=10,missing=9
			9:leaf=0.0363152251
			10:leaf=0.00171198638
	2:[f0<92.4622192] yes=5,no=6,missing=5
		5:[f7<4.16748905] yes=11,no=12,missing=11
			11:leaf=0.0402122997
			12:leaf=-0.0281015486
		6:leaf=0.049994383
booster[101]:
0:[f0<44.0997086] yes=1,no=2,missing=1
	1:[f17<0.0597539991] yes=3,no=4,missing=3
		3:[f8<0.00601983815] yes=7,no=8,missing=7
			7:leaf=0.00737289712
			8:leaf=-0.0180570092
		4:[f2<0.190269321] yes=9,no=10,missing=9
			9:leaf=-0.0363152288
			10:leaf=-0.00171198812
	2:[f0<92.4622192] yes=5,no=6,missing=5
		5:[f7<4.16748905] yes=11,no=12,missing=11
			11:leaf=-0.0402122401
			12:leaf=0.0281018522
		6:leaf=-0.049994383
booster[102]:
0:[f0<44.0997086] yes=1,no=2,missing=1
	1:[f1<0.639819622] yes=3,no=4,missing=3
		3:[f4<0.0217578113] yes=7,no=8,missing=7
			7:leaf=-0.0207231771
			8:leaf=0.0682910681
		4:[f11<1.5] yes=9,no=10,missing=9
			9:leaf=-0.00903856102
			10:leaf=0.0115836533
	2:[f0<92.4622192] yes=5,no=6,missing=5
		5:[f7<4.16748905] yes=11,no=12,missing=11
			11:leaf=0.0393135324
			12:leaf=-0.0242655631
		6:leaf=0.0499534979
booster[103]:
0:[f0<44.0997086] yes=1,no=2,missing=1
	1:[f1<0.639819622] yes=3,no=4,missing=3
		3:[f4<0.0217578113] yes=7,no=8,missing=7
			7:leaf=0.020723179
			8:leaf=-0.0682910606
		4:[f11<1.5] yes=9,no=10,missing=9
			9:leaf=0.00903856102
			10:leaf=-0.0115836551
	2:[f0<92.4622192] yes=5,no=6,missing=5
		5:[f7<4.16748905] yes=11,no=12,missing=11
			11:leaf=-0.0393135101
			12:leaf=0.024265239
		6:leaf=-0.0499535054
booster[104]:
0:[f11<5.5] yes=1,no=2,missing=1
	1:[f8<0.00612069434] yes=3,no=4,missing=3
		3:[f17<0.0307676271] yes=7,no=8,missing=7
			7:leaf=-0.0146382321
			8:leaf=0.009599627
		4:[f1<3.55480862] yes=9,no=10,missing=9
			9:leaf=0.0049208994
			10:leaf=0.0355013274
	2:[f1<5.10463333] yes=5,no=6,missing=5
		5:[f13<19.4031219] yes=11,no=12,missing=11
			11:leaf=0.00925116986
			12:leaf=0.0595155172
		6:[f14<0.0322922841] yes=13,no=14,missing=13
			13:leaf=0.0324458964
			14:leaf=0.0478861891
booster[105]:
0:[f11<5.5] yes=1,no=2,missing=1
	1:[f8<0.00612069434] yes=3,no=4,missing=3
		3:[f17<0.0307676271] yes=7,no=8,missing=7
			7:leaf=0.0146382367
			8:leaf=-0.009599627
		4:[f1<3.55480862] yes=9,no=10,missing=9
			9:leaf=-0.00492090033
			10:leaf=-0.0355012976
	2:[f1<5.10463333] yes=5,no=6,missing=5
		5:[f13<19.4031219] yes=11,no=12,missing=11
			11:leaf=-0.00925116986
			12:leaf=-0.0595155172
		6:[f14<0.0322922841] yes=13,no=14,missing=13
			13:leaf=-0.0324457996
			14:leaf=-0.0478861704
booster[106]:
0:[f0<59.1801949] yes=1,no=2,missing=1
	1:[f5<1.94186687] yes=3,no=4,missing=3
		3:[f5<-1.93254352] yes=7,no=8,missing=7
			7:leaf=-0.0227865148
			8:leaf=0.00893573184
		4:[f10<0.0161127374] yes=9,no=10,missing=9
			9:leaf=-0.0280850474
			10:leaf=0.0113248704
	2:[f0<92.4622192] yes=5,no=6,missing=5
		5:[f7<5.01292658] yes=11,no=12,missing=11
			11:leaf=0.0427495204
			12:leaf=-0.0287670586
		6:[f6<0.999601901] yes=13,no=14,missing=13
			13:leaf=0.0499916971
			14:leaf=0.0307864789
booster[107]:
0:[f0<59.1801949] yes=1,no=2,missing=1
	1:[f5<1.94186687] yes=3,no=4,missing=3
		3:[f5<-1.93254352] yes=7,no=8,missing=7
			7:leaf=0.022786513
			8:leaf=-0.00893573184
		4:[f10<0.0161127374] yes=9,no=10,missing=9
			9:leaf=0.0280850437
			10:leaf=-0.0113248741
	2:[f0<92.4622192] yes=5,no=6,missing=5
		5:[f7<5.01292658] yes=11,no=12,missing=11
			11:leaf=-0.0427495502
			12:leaf=0.0287670083
		6:[f6<0.999601901] yes=13,no=14,missing=13
			13:leaf=-0.0499917008
			14:leaf=-0.0307866819
booster[108]:
0:[f0<59.1801949] yes=1,no=2,missing=1
	1:[f14<0.0555038825] yes=3,no=4,missing=3
		3:[f17<0.0748313442] yes=7,no=8,missing=7
			7:leaf=-0.00808100309
			8:leaf=0.0363124236
		4:[f13<4.21349478] yes=9,no=10,missing=9
			9:leaf=0.00720229605
			10:leaf=0.0362163335
	2:[f0<92.4622192] yes=5,no=6,missing=5
		5:[f7<5.01292658] yes=11,no=12,missing=11
			11:leaf=0.0420710519
			12:leaf=-0.0249566212
		6:[f6<0.999601901] yes=13,no=14,missing=13
			13:leaf=0.0499593616
			14:leaf=0.0297213998
booster[109]:
0:[f0<59.1801949] yes=1,no=2,missing=1
	1:[f14<0.0555038825] yes=3,no=4,missing=3
		3:[f17<0.0748313442] yes=7,no=8,missing=7
			7:leaf=0.00808100309
			8:leaf=-0.0363124236
		4:[f13<4.21349478] yes=9,no=10,missing=9
			9:leaf=-0.00720229605
			10:leaf=-0.0362163335
	2:[f0<92.4622192] yes=5,no=6,missing=5
		5:[f7<5.01292658] yes=11,no=12,missing=11
			11:leaf=-0.0420710891
			12:leaf=0.0249565635
		6:[f6<0.999601901] yes=13,no=14,missing=13
			13:leaf=-0.0499593653
			14:leaf=-0.0297214072
booster[110]:
0:[f11<6.5] yes=1,no=2,missing=1
	1:[f8<0.00619007088] yes=3,no=4,missing=3
		3:[f5<1.07344317] yes=7,no=8,missing=7
			7:leaf=0.00157712307
			8:leaf=-0.0192633905
		4:[f1<3.62886333] yes=9,no=10,missing=9
			9:leaf=0.00460150186
			10:leaf=0.0348319598
	2:[f1<5.4203577] yes=5,no=6,missing=5
		5:[f13<24.4732819] yes=11,no=12,missing=11
			11:leaf=0.0197127666
			12:leaf=0.0636956915
		6:[f14<0.021181073] yes=13,no=14,missing=13
			13:leaf=0.0278900899
			14:leaf=0.0480876528
booster[111]:
0:[f11<6.5] yes=1,no=2,missing=1
	1:[f8<0.00619007088] yes=3,no=4,missing=3
		3:[f5<1.07344317] yes=7,no=8,missing=7
			7:leaf=-0.00157711806
			8:leaf=0.019263396
		4:[f1<3.62886333] yes=9,no=10,missing=9
			9:leaf=-0.00460150186
			10:leaf=-0.0348319449
	2:[f1<5.4203577] yes=5,no=6,missing=5
		5:[f13<24.4732819] yes=11,no=12,missing=11
			11:leaf=-0.0197127666
			12:leaf=-0.0636956915
		6:[f14<0.021181073] yes=13,no=14,missing=13
			13:leaf=-0.0278898869
			14:leaf=-0.0480876863
booster[112]:
0:[f0<59.1801949] yes=1,no=2,missing=1
	1:[f7<2.08214664] yes=3,no=4,missing=3
		3:[f3<5.5] yes=7,no=8,missing=7
			7:leaf=-0.00290597253
			8:leaf=0.024362579
		4:[f10<0.0153620373] yes=9,no=10,missing=9
			9:leaf=-0.0242302381
			10:leaf=0.0230361223
	2:[f0<92.4622192] yes=5,no=6,missing=5
		5:[f7<5.01292658] yes=11,no=12,missing=11
			11:leaf=0.0407890081
			12:leaf=-0.0236427281
		6:[f6<0.999601901] yes=13,no=14,missing=13
			13:leaf=0.049903933
			14:leaf=0.0273208208
booster[113]:
0:[f0<59.1801949] yes=1,no=2,missing=1
	1:[f7<2.08214664] yes=3,no=4,missing=3
		3:[f3<5.5] yes=7,no=8,missing=7
			7:leaf=0.00290597393
			8:leaf=-0.0243625771
		4:[f10<0.0153620373] yes=9,no=10,missing=9
			9:leaf=0.0242302399
			10:leaf=-0.0230361242
	2:[f0<92.4622192] yes=5,no=6,missing=5
		5:[f7<5.01292658] yes=11,no=12,missing=11
			11:leaf=-0.0407890156
			12:leaf=0.023642635
		6:[f6<0.999601901] yes=13,no=14,missing=13
			13:leaf=-0.049903933
			14:leaf=-0.0273205843
booster[114]:
0:[f0<59.1801949] yes=1,no=2,missing=1
	1:[f1<0.639819622] yes=3,no=4,missing=3
		3:[f18<69.980217] yes=7,no=8,missing=7
			7:leaf=-0.0183792878
			8:leaf=0.0938620493
		4:[f11<1.5] yes=9,no=10,missing=9
			9:leaf=-0.00791201182
			10:leaf=0.0100006191
	2:[f0<92.4622192] yes=5,no=6,missing=5
		5:[f7<5.01292658] yes=11,no=12,missing=11
			11:leaf=0.0399908759
			12:leaf=-0.0206793472
		6:[f6<0.999601901] yes=13,no=14,missing=13
			13:leaf=0.0498692729
			14:leaf=0.0262419283
booster[115]:
0:[f0<59.1801949] yes=1,no=2,missing=1
	1:[f1<0.639819622] yes=3,no=4,missing=3
		3:[f18<69.980217] yes=7,no=8,missing=7
			7:leaf=0.0183792897
			8:leaf=-0.0938620493
		4:[f11<1.5] yes=9,no=10,missing=9
			9:leaf=0.00791201182
			10:leaf=-0.0100006191
	2:[f0<92.4622192] yes=5,no=6,missing=5
		5:[f7<5.01292658] yes=11,no=12,missing=11
			11:leaf=-0.03999082
			12:leaf=0.0206792988
		6:[f6<0.999601901] yes=13,no=14,missing=13
			13:leaf=-0.0498692766
			14:leaf=-0.026242286
booster[116]:
0:[f11<6.5] yes=1,no=2,missing=1
	1:[f8<0.0036169705] yes=3,no=4,missing=3
		3:[f17<0.0311866812] yes=7,no=8,missing=7
			7:leaf=-0.0118639702
			8:leaf=0.00962220505
		4:[f1<7.32991982] yes=9,no=10,missing=9
			9:leaf=0.0066270614
			10:leaf=0.039824117
	2:[f1<5.4203577] yes=5,no=6,missing=5
		5:[f13<24.4732819] yes=11,no=12,missing=11
			11:leaf=0.0175287984
			12:leaf=0.0606731884
		6:[f14<0.0299144499] yes=13,no=14,missing=13
			13:leaf=0.0283919182
			14:leaf=0.0478979461
booster[117]:
0:[f11<6.5] yes=1,no=2,missing=1
	1:[f8<0.0036169705] yes=3,no=4,missing=3
		3:[f17<0.0311866812] yes=7,no=8,missing=7
			7:leaf=0.0118639721
			8:leaf=-0.00962220505
		4:[f1<7.32991982] yes=9,no=10,missing=9
			9:leaf=-0.0066270614
			10:leaf=-0.0398240499
	2:[f1<5.4203577] yes=5,no=6,missing=5
		5:[f13<24.4732819] yes=11,no=12,missing=11
			11:leaf=-0.0175287984
			12:leaf=-0.0606731884
		6:[f14<0.0299144499] yes=13,no=14,missing=13
			13:leaf=-0.0283917673
			14:leaf=-0.0478979312
booster[118]:
0:[f0<67.8673096] yes=1,no=2,missing=1
	1:[f6<0.960689187] yes=3,no=4,missing=3
		3:[f1<3.33231497] yes=7,no=8,missing=7
			7:leaf=-0.0114206364
			8:leaf=0.00540892594
		4:[f17<0.0166782383] yes=9,no=10,missing=9
			9:leaf=0.00390700763
			10:leaf=0.0314021111
	2:[f0<126.575302] yes=5,no=6,missing=5
		5:[f7<5.01292658] yes=11,no=12,missing=11
			11:leaf=0.0442905948
			12:leaf=-0.019890612
		6:leaf=0.0499972068
booster[119]:
0:[f0<67.8673096] yes=1,no=2,missing=1
	1:[f6<0.960689187] yes=3,no=4,missing=3
		3:[f1<3.33231497] yes=7,no=8,missing=7
			7:leaf=0.0114206374
			8:leaf=-0.00540892547
		4:[f17<0.0166782383] yes=9,no=10,missing=9
			9:leaf=-0.00390700484
			10:leaf=-0.0314021111
	2:[f0<126.575302] yes=5,no=6,missing=5
		5:[f7<5.01292658] yes=11,no=12,missing=11
			11:leaf=-0.0442906544
			12:leaf=0.0198906343
		6:leaf=-0.0499972068
booster[120]:
0:[f0<67.8673096] yes=1,no=2,missing=1
	1:[f10<0.00172783411] yes=3,no=4,missing=3
		3:[f5<-1.93254352] yes=7,no=8,missing=7
			7:leaf=-0.0210970361
			8:leaf=0.0127233937
		4:[f17<0.061384201] yes=9,no=10,missing=9
			9:leaf=-0.0105732288
			10:leaf=0.0253260862
	2:[f0<126.575302] yes=5,no=6,missing=5
		5:[f7<5.01292658] yes=11,no=12,missing=11
			11:leaf=0.0437502377
			12:leaf=-0.0175003838
		6:leaf=0.0499776229
booster[121]:
0:[f0<67.8673096] yes=1,no=2,missing=1
	1:[f10<0.00172783411] yes=3,no=4,missing=3
		3:[f5<-1.93254352] yes=7,no=8,missing=7
			7:leaf=0.0210970361
			8:leaf=-0.0127233956
		4:[f17<0.061384201] yes=9,no=10,missing=9
			9:leaf=0.010573227
			10:leaf=-0.0253260825
	2:[f0<126.575302] yes=5,no=6,missing=5
		5:[f7<5.01292658] yes=11,no=12,missing=11
			11:leaf=-0.0437501371
			12:leaf=0.0175004825
		6:leaf=-0.0499776267
booster[122]:
0:[f11<6.5] yes=1,no=2,missing=1
	1:[f5<1.87165332] yes=3,no=4,missing=3
		3:[f5<-1.68836892] yes=7,no=8,missing=7
			7:leaf=-0.0189133119
			8:leaf=0.00687704096
		4:[f10<0.0160727743] yes=9,no=10,missing=9
			9:leaf=-0.024744235
			10:leaf=0.00909060519
	2:[f1<8.79188824] yes=5,no=6,missing=5
		5:[f14<0.0188895073] yes=11,no=12,missing=11
			11:leaf=-0.0112375971
			12:leaf=0.0293861236
		6:[f14<0.00614998583] yes=13,no=14,missing=13
			13:leaf=0.0169054233
			14:leaf=0.0473781526
booster[123]:
0:[f11<6.5] yes=1,no=2,missing=1
	1:[f5<1.87165332] yes=3,no=4,missing=3
		3:[f5<-1.68836892] yes=7,no=8,missing=7
			7:leaf=0.0189133063
			8:leaf=-0.00687704375
		4:[f10<0.0160727743] yes=9,no=10,missing=9
			9:leaf=0.0247442294
			10:leaf=-0.00909061544
	2:[f1<8.79188824] yes=5,no=6,missing=5
		5:[f14<0.0188895073] yes=11,no=12,missing=11
			11:leaf=0.0112375971
			12:leaf=-0.0293861236
		6:[f14<0.00614998583] yes=13,no=14,missing=13
			13:leaf=-0.0169056281
			14:leaf=-0.0473781005
booster[124]:
0:[f0<67.8673096] yes=1,no=2,missing=1
	1:[f13<14.8117008] yes=3,no=4,missing=3
		3:[f14<0.0583040118] yes=7,no=8,missing=7
			7:leaf=-0.00663970644
			8:leaf=0.0102044335
		4:[f14<0.0197619908] yes=9,no=10,missing=9
			9:leaf=0.00180070684
			10:leaf=0.0553332157
	2:[f0<126.575302] yes=5,no=6,missing=5
		5:[f4<-0.00703124981] yes=11,no=12,missing=11
			11:leaf=-0.0399024338
			12:leaf=0.0386490822
		6:leaf=0.0499476381
booster[125]:
0:[f0<67.8673096] yes=1,no=2,missing=1
	1:[f13<14.8117008] yes=3,no=4,missing=3
		3:[f14<0.0583040118] yes=7,no=8,missing=7
			7:leaf=0.00663970551
			8:leaf=-0.0102044344
		4:[f14<0.0197619908] yes=9,no=10,missing=9
			9:leaf=-0.00180070568
			10:leaf=-0.0553332157
	2:[f0<126.575302] yes=5,no=6,missing=5
		5:[f4<-0.00703124981] yes=11,no=12,missing=11
			11:leaf=0.0399029665
			12:leaf=-0.0386489332
		6:leaf=-0.0499476306
booster[126]:
0:[f0<67.8673096] yes=1,no=2,missing=1
	1:[f6<0.948700905] yes=3,no=4,missing=3
		3:[f8<0.313592643] yes=7,no=8,missing=7
			7:leaf=-0.00595459854
			8:leaf=0.0234930981
		4:[f10<0.00381314592] yes=9,no=10,missing=9
			9:leaf=0.0271218158
			10:leaf=0.00177463412
	2:[f0<126.575302] yes=5,no=6,missing=5
		5:[f7<5.01292658] yes=11,no=12,missing=11
			11:leaf=0.0423174165
			12:leaf=-0.0189327877
		6:leaf=0.04992681
booster[127]:
0:[f0<67.8673096] yes=1,no=2,missing=1
	1:[f6<0.948700905] yes=3,no=4,missing=3
		3:[f8<0.313592643] yes=7,no=8,missing=7
			7:leaf=0.00595459994
			8:leaf=-0.0234930944
		4:[f10<0.00381314592] yes=9,no=10,missing=9
			9:leaf=-0.0271218158
			10:leaf=-0.00177463423
	2:[f0<126.575302] yes=5,no=6,missing=5
		5:[f7<5.01292658] yes=11,no=12,missing=11
			11:leaf=-0.0423175097
			12:leaf=0.0189329963
		6:leaf=-0.0499267988
booster[128]:
0:[f1<37.1924324] yes=1,no=2,missing=1
	1:[f17<0.0613338575] yes=3,no=4,missing=3
		3:[f13<10.6779118] yes=7,no=8,missing=7
			7:leaf=-0.00390290259
			8:leaf=0.0359079577
		4:[f2<0.190269321] yes=9,no=10,missing=9
			9:leaf=0.0307269897
			10:leaf=-0.00551964017
	2:[f11<0.5] yes=5,no=6,missing=5
		5:leaf=-0.0590022691
		6:[f6<0.0134448521] yes=11,no=12,missing=11
			11:leaf=-0.0249051992
			12:leaf=0.0479751751
booster[129]:
0:[f1<37.1924324] yes=1,no=2,missing=1
	1:[f17<0.0613338575] yes=3,no=4,missing=3
		3:[f13<10.6779118] yes=7,no=8,missing=7
			7:leaf=0.00390290399
			8:leaf=-0.035907954
		4:[f2<0.190269321] yes=9,no=10,missing=9
			9:leaf=-0.0307269897
			10:leaf=0.00551963923
	2:[f11<0.5] yes=5,no=6,missing=5
		5:leaf=0.0590021722
		6:[f6<0.0134448521] yes=11,no=12,missing=11
			11:leaf=0.0249057747
			12:leaf=-0.0479751416
booster[130]:
0:[f0<92.4622192] yes=1,no=2,missing=1
	1:[f1<0.639819622] yes=3,no=4,missing=3
		3:[f10<-0.0249144491] yes=7,no=8,missing=7
			7:leaf=0.06046132
			8:leaf=-0.0170035865
		4:[f2<0.151808023] yes=9,no=10,missing=9
			9:leaf=0.00742648495
			10:leaf=-0.011748557
	2:[f6<0.999601901] yes=5,no=6,missing=5
		5:leaf=0.0495657437
		6:[f10<0.00190436328] yes=11,no=12,missing=11
			11:leaf=0.0317660533
			12:leaf=-0.0249625742
booster[131]:
0:[f0<92.4622192] yes=1,no=2,missing=1
	1:[f1<0.639819622] yes=3,no=4,missing=3
		3:[f10<-0.0249144491] yes=7,no=8,missing=7
			7:leaf=-0.0604613125
			8:leaf=0.0170035865
		4:[f2<0.151808023] yes=9,no=10,missing=9
			9:leaf=-0.00742648309
			10:leaf=0.0117485598
	2:[f6<0.999601901] yes=5,no=6,missing=5
		5:leaf=-0.0495657548
		6:[f10<0.00190436328] yes=11,no=12,missing=11
			11:leaf=-0.0317664854
			12:leaf=0.0249611717
booster[132]:
0:[f11<6.5] yes=1,no=2,missing=1
	1:[f6<-0.5] yes=3,no=4,missing=3
		3:[f0<3.10703182] yes=7,no=8,missing=7
			7:leaf=0.212520227
			8:leaf=0.0616252907
		4:[f8<0.00271637831] yes=9,no=10,missing=9
			9:leaf=-0.00499320729
			10:leaf=0.0133476285
	2:[f1<5.4203577] yes=5,no=6,missing=5
		5:[f18<70.4580841] yes=11,no=12,missing=11
			11:leaf=0.0133431079
			12:leaf=0.0667743161
		6:[f14<0.0299144499] yes=13,no=14,missing=13
			13:leaf=0.0186220501
			14:leaf=0.0458198041
booster[133]:
0:[f11<6.5] yes=1,no=2,missing=1
	1:[f6<-0.5] yes=3,no=4,missing=3
		3:[f0<3.10703182] yes=7,no=8,missing=7
			7:leaf=-0.212520227
			8:leaf=-0.0616252907
		4:[f8<0.00271637831] yes=9,no=10,missing=9
			9:leaf=0.00499321008
			10:leaf=-0.0133476509
	2:[f1<5.4203577] yes=5,no=6,missing=5
		5:[f18<70.4580841] yes=11,no=12,missing=11
			11:leaf=-0.0133431079
			12:leaf=-0.0667743161
		6:[f14<0.0299144499] yes=13,no=14,missing=13
			13:leaf=-0.0186217353
			14:leaf=-0.0458197705
booster[134]:
0:[f0<92.4622192] yes=1,no=2,missing=1
	1:[f5<1.20016241] yes=3,no=4,missing=3
		3:[f5<-1.48618555] yes=7,no=8,missing=7
			7:leaf=-0.0150992023
			8:leaf=0.00900241174
		4:[f10<0.0273869559] yes=9,no=10,missing=9
			9:leaf=-0.0141400322
			10:leaf=0.024813164
	2:[f6<0.999601901] yes=5,no=6,missing=5
		5:leaf=0.049471695
		6:[f16<0.443394542] yes=11,no=12,missing=11
			11:leaf=0.0303295013
			12:leaf=-0.0249633957
booster[135]:
0:[f0<92.4622192] yes=1,no=2,missing=1
	1:[f5<1.20016241] yes=3,no=4,missing=3
		3:[f5<-1.48618555] yes=7,no=8,missing=7
			7:leaf=0.0150992041
			8:leaf=-0.00900241174
		4:[f10<0.0273869559] yes=9,no=10,missing=9
			9:leaf=0.0141400341
			10:leaf=-0.024813164
	2:[f6<0.999601901] yes=5,no=6,missing=5
		5:leaf=-0.0494716875
		6:[f16<0.443394542] yes=11,no=12,missing=11
			11:leaf=-0.0303295739
			12:leaf=0.0249631498
booster[136]:
0:[f1<3.62949491] yes=1,no=2,missing=1
	1:[f18<70.4580841] yes=3,no=4,missing=3
		3:[f6<-0.5] yes=7,no=8,missing=7
			7:leaf=0.145009637
			8:leaf=-0.00730435643
		4:[f16<0.166113779] yes=9,no=10,missing=9
			9:leaf=0.116951585
			10:leaf=0.0641236082
	2:[f11<4.5] yes=5,no=6,missing=5
		5:[f8<0.00258097053] yes=11,no=12,missing=11
			11:leaf=-0.0020343177
			12:leaf=0.0252183229
		6:[f1<10.4219303] yes=13,no=14,missing=13
			13:leaf=0.0204213448
			14:leaf=0.0404624231
booster[137]:
0:[f1<3.62949491] yes=1,no=2,missing=1
	1:[f18<70.4580841] yes=3,no=4,missing=3
		3:[f6<-0.5] yes=7,no=8,missing=7
			7:leaf=-0.145009622
			8:leaf=0.00730435504
		4:[f16<0.166113779] yes=9,no=10,missing=9
			9:leaf=-0.116951585
			10:leaf=-0.0641236082
	2:[f11<4.5] yes=5,no=6,missing=5
		5:[f8<0.00258097053] yes=11,no=12,missing=11
			11:leaf=0.00203431468
			12:leaf=-0.0252182931
		6:[f1<10.4219303] yes=13,no=14,missing=13
			13:leaf=-0.0204213448
			14:leaf=-0.0404622555
booster[138]:
0:[f0<92.4622192] yes=1,no=2,missing=1
	1:[f17<0.0748822838] yes=3,no=4,missing=3
		3:[f13<8.48982811] yes=7,no=8,missing=7
			7:leaf=-0.00326430099
			8:leaf=0.0272943266
		4:[f2<0.111071572] yes=9,no=10,missing=9
			9:leaf=0.0437521301
			10:leaf=0.00756881386
	2:[f6<0.999601901] yes=5,no=6,missing=5
		5:leaf=0.0493565612
		6:[f10<0.00152436388] yes=11,no=12,missing=11
			11:leaf=0.028523704
			12:leaf=-0.0249509178
booster[139]:
0:[f0<92.4622192] yes=1,no=2,missing=1
	1:[f17<0.0748822838] yes=3,no=4,missing=3
		3:[f13<8.48982811] yes=7,no=8,missing=7
			7:leaf=0.00326430099
			8:leaf=-0.0272943266
		4:[f2<0.111071572] yes=9,no=10,missing=9
			9:leaf=-0.0437521301
			10:leaf=-0.00756881246
	2:[f6<0.999601901] yes=5,no=6,missing=5
		5:leaf=-0.0493565947
		6:[f10<0.00152436388] yes=11,no=12,missing=11
			11:leaf=-0.0285238065
			12:leaf=0.0249506421
booster[140]:
0:[f14<0.0556271113] yes=1,no=2,missing=1
	1:[f1<1.66829062] yes=3,no=4,missing=3
		3:[f6<-0.5] yes=7,no=8,missing=7
			7:leaf=0.110917524
			8:leaf=-0.0153089855
		4:[f3<0.5] yes=9,no=10,missing=9
			9:leaf=-0.0209118742
			10:leaf=0.00489606988
	2:[f15<0.219234824] yes=5,no=6,missing=5
		5:[f13<4.72935915] yes=11,no=12,missing=11
			11:leaf=0.012357831
			12:leaf=0.0354230069
		6:[f1<7.93331861] yes=13,no=14,missing=13
			13:leaf=-0.0159055851
			14:leaf=0.0200721808
booster[141]:
0:[f14<0.0556271113] yes=1,no=2,missing=1
	1:[f1<1.66829062] yes=3,no=4,missing=3
		3:[f6<-0.5] yes=7,no=8,missing=7
			7:leaf=-0.110917524
			8:leaf=0.0153089864
		4:[f3<0.5] yes=9,no=10,missing=9
			9:leaf=0.0209118705
			10:leaf=-0.00489607966
	2:[f15<0.219234824] yes=5,no=6,missing=5
		5:[f13<4.72935915] yes=11,no=12,missing=11
			11:leaf=-0.0123578468
			12:leaf=-0.0354230069
		6:[f1<7.93331861] yes=13,no=14,missing=13
			13:leaf=0.0159055851
			14:leaf=-0.020072218
booster[142]:
0:[f0<92.4622192] yes=1,no=2,missing=1
	1:[f6<0.964624941] yes=3,no=4,missing=3
		3:[f3<5.5] yes=7,no=8,missing=7
			7:leaf=-0.00953964796
			8:leaf=0.00572889578
		4:[f17<0.0220721178] yes=9,no=10,missing=9
			9:leaf=0.00443743728
			10:leaf=0.0288119949
	2:[f6<0.999601901] yes=5,no=6,missing=5
		5:leaf=0.0492621027
		6:[f16<0.4402349] yes=11,no=12,missing=11
			11:leaf=0.0280205794
			12:leaf=-0.0249687377
booster[143]:
0:[f0<92.4622192] yes=1,no=2,missing=1
	1:[f6<0.964624941] yes=3,no=4,missing=3
		3:[f3<5.5] yes=7,no=8,missing=7
			7:leaf=0.00953964796
			8:leaf=-0.00572889624
		4:[f17<0.0220721178] yes=9,no=10,missing=9
			9:leaf=-0.00443743588
			10:leaf=-0.0288119949
	2:[f6<0.999601901] yes=5,no=6,missing=5
		5:leaf=-0.0492620952
		6:[f16<0.4402349] yes=11,no=12,missing=11
			11:leaf=-0.0280203968
			12:leaf=0.0249684136
booster[144]:
0:[f7<2.30727291] yes=1,no=2,missing=1
	1:[f3<5.5] yes=3,no=4,missing=3
		3:[f17<0.0214216076] yes=7,no=8,missing=7
			7:leaf=-0.0121934703
			8:leaf=0.00890821125
		4:[f1<2.44754553] yes=9,no=10,missing=9
			9:leaf=0.00786072481
			10:leaf=0.0293955784
	2:[f10<0.0153592639] yes=5,no=6,missing=5
		5:[f3<5.5] yes=11,no=12,missing=11
			11:leaf=-0.0654737577
			12:leaf=-0.0158721004
		6:[f2<0.385209084] yes=13,no=14,missing=13
			13:leaf=0.0821884722
			14:leaf=0.0128649026
booster[145]:
0:[f7<2.30727291] yes=1,no=2,missing=1
	1:[f3<5.5] yes=3,no=4,missing=3
		3:[f17<0.0214216076] yes=7,no=8,missing=7
			7:leaf=0.0121934693
			8:leaf=-0.00890821125
		4:[f1<2.44754553] yes=9,no=10,missing=9
			9:leaf=-0.00786072575
			10:leaf=-0.0293955747
	2:[f10<0.0153592639] yes=5,no=6,missing=5
		5:[f3<5.5] yes=11,no=12,missing=11
			11:leaf=0.0654737651
			12:leaf=0.0158721041
		6:[f2<0.385209084] yes=13,no=14,missing=13
			13:leaf=-0.0821884722
			14:leaf=-0.0128649017
booster[146]:
0:[f10<0.00151172164] yes=1,no=2,missing=1
	1:[f5<-1.93255854] yes=3,no=4,missing=3
		3:[f10<-0.0196021162] yes=7,no=8,missing=7
			7:leaf=0.0435685962
			8:leaf=-0.0265134554
		4:[f7<0.718134284] yes=9,no=10,missing=9
			9:leaf=0.0160103403
			10:leaf=-0.00664071878
	2:[f8<0.00272773276] yes=5,no=6,missing=5
		5:[f10<0.0333423167] yes=11,no=12,missing=11
			11:leaf=-0.0115456972
			12:leaf=0.0290204678
		6:[f1<7.85927582] yes=13,no=14,missing=13
			13:leaf=0.00366738788
			14:leaf=0.0413123816
booster[147]:
0:[f10<0.00151172164] yes=1,no=2,missing=1
	1:[f5<-1.93255854] yes=3,no=4,missing=3
		3:[f10<-0.0196021162] yes=7,no=8,missing=7
			7:leaf=-0.0435685925
			8:leaf=0.0265134461
		4:[f7<0.718134284] yes=9,no=10,missing=9
			9:leaf=-0.0160103422
			10:leaf=0.00664076442
	2:[f8<0.00272773276] yes=5,no=6,missing=5
		5:[f10<0.0333423167] yes=11,no=12,missing=11
			11:leaf=0.0115456982
			12:leaf=-0.0290204715
		6:[f1<7.85927582] yes=13,no=14,missing=13
			13:leaf=-0.00366738695
			14:leaf=-0.0413123779
booster[148]:
0:[f18<70.4416199] yes=1,no=2,missing=1
	1:[f5<2.22192025] yes=3,no=4,missing=3
		3:[f7<1.57386017] yes=7,no=8,missing=7
			7:leaf=0.00673237164
			8:leaf=-0.0136776865
		4:[f10<0.0161126424] yes=9,no=10,missing=9
			9:leaf=-0.0239626653
			10:leaf=0.00968244579
	2:[f16<0.166106462] yes=5,no=6,missing=5
		5:[f0<5.91501904] yes=11,no=12,missing=11
			11:leaf=0.103147067
			12:leaf=0.0523686372
		6:[f18<82.4899368] yes=13,no=14,missing=13
			13:leaf=0.0137806712
			14:leaf=0.0649627969
booster[149]:
0:[f18<70.4416199] yes=1,no=2,missing=1
	1:[f5<2.22192025] yes=3,no=4,missing=3
		3:[f7<1.57386017] yes=7,no=8,missing=7
			7:leaf=-0.00673235301
			8:leaf=0.0136776865
		4:[f10<0.0161126424] yes=9,no=10,missing=9
			9:leaf=0.0239626747
			10:leaf=-0.00968243182
	2:[f16<0.166106462] yes=5,no=6,missing=5
		5:[f0<5.91501904] yes=11,no=12,missing=11
			11:leaf=-0.103147067
			12:leaf=-0.0523686409
		6:[f18<82.4899368] yes=13,no=14,missing=13
			13:leaf=-0.0137806265
			14:leaf=-0.0649628267
booster[150]:
0:[f0<126.575302] yes=1,no=2,missing=1
	1:[f17<0.076748386] yes=3,no=4,missing=3
		3:[f13<13.5899725] yes=5,no=6,missing=5
			5:leaf=-0.00259522232
			6:leaf=0.0380993299
		4:[f2<0.0841941461] yes=7,no=8,missing=7
			7:leaf=0.0427656732
			8:leaf=0.00971516781
	2:leaf=0.0497183315
booster[151]:
0:[f0<126.575302] yes=1,no=2,missing=1
	1:[f17<0.076748386] yes=3,no=4,missing=3
		3:[f13<13.5899725] yes=5,no=6,missing=5
			5:leaf=0.00259522232
			6:leaf=-0.0380993299
		4:[f2<0.0841941461] yes=7,no=8,missing=7
			7:leaf=-0.0427656732
			8:leaf=-0.00971516594
	2:leaf=-0.0497183278
booster[152]:
0:[f1<3.62949491] yes=1,no=2,missing=1
	1:[f18<70.4580841] yes=3,no=4,missing=3
		3:[f6<0.948307037] yes=7,no=8,missing=7
			7:leaf=-0.00918653142
			8:leaf=0.00996464957
		4:[f14<0.125117481] yes=9,no=10,missing=9
			9:leaf=0.0820013136
			10:leaf=0.0358130299
	2:[f11<4.5] yes=5,no=6,missing=5
		5:[f8<-499.51474] yes=11,no=12,missing=11
			11:leaf=-0.00303042447
			12:leaf=0.0171331745
		6:[f8<1.31139932e-05] yes=13,no=14,missing=13
			13:leaf=0.019903997
			14:leaf=0.0451073721
booster[153]:
0:[f1<3.62949491] yes=1,no=2,missing=1
	1:[f18<70.4580841] yes=3,no=4,missing=3
		3:[f6<0.948307037] yes=7,no=8,missing=7
			7:leaf=0.00918653142
			8:leaf=-0.00996465143
		4:[f14<0.125117481] yes=9,no=10,missing=9
			9:leaf=-0.0820013136
			10:leaf=-0.0358130299
	2:[f11<4.5] yes=5,no=6,missing=5
		5:[f8<-499.51474] yes=11,no=12,missing=11
			11:leaf=0.00303042377
			12:leaf=-0.0171331838
		6:[f8<1.31139932e-05] yes=13,no=14,missing=13
			13:leaf=-0.0199039895
			14:leaf=-0.0451073907
booster[154]:
0:[f11<1.5] yes=1,no=2,missing=1
	1:[f8<0.399456501] yes=3,no=4,missing=3
		3:[f6<-0.5] yes=7,no=8,missing=7
			7:leaf=0.102434509
			8:leaf=-0.0120551158
		4:[f4<0.000194931024] yes=9,no=10,missing=9
			9:leaf=0.00545985205
			10:leaf=0.0321411602
	2:[f1<3.60784101] yes=5,no=6,missing=5
		5:[f5<0.748133838] yes=11,no=12,missing=11
			11:leaf=0.00452481071
			12:leaf=-0.0106177451
		6:[f0<126.575302] yes=13,no=14,missing=13
			13:leaf=0.01092955
			14:leaf=0.049625989
booster[155]:
0:[f11<1.5] yes=1,no=2,missing=1
	1:[f8<0.399456501] yes=3,no=4,missing=3
		3:[f6<-0.5] yes=7,no=8,missing=7
			7:leaf=-0.102434509
			8:leaf=0.0120551158
		4:[f4<0.000194931024] yes=9,no=10,missing=9
			9:leaf=-0.00545985019
			10:leaf=-0.0321411602
	2:[f1<3.60784101] yes=5,no=6,missing=5
		5:[f5<0.748133838] yes=11,no=12,missing=11
			11:leaf=-0.00452481024
			12:leaf=0.010617746
		6:[f0<126.575302] yes=13,no=14,missing=13
			13:leaf=-0.01092955
			14:leaf=-0.0496260002
booster[156]:
0:[f1<0.639819622] yes=1,no=2,missing=1
	1:[f4<0.0217578113] yes=3,no=4,missing=3
		3:[f0<5.4217453] yes=7,no=8,missing=7
			7:leaf=-0.0111886598
			8:leaf=-0.0436629504
		4:[f18<22.264143] yes=9,no=10,missing=9
			9:leaf=0.0145013276
			10:leaf=0.099833928
	2:[f5<-2.6212678] yes=5,no=6,missing=5
		5:[f10<-0.0293771196] yes=11,no=12,missing=11
			11:leaf=0.0550797097
			12:leaf=-0.0305079073
		6:[f5<0.891164064] yes=13,no=14,missing=13
			13:leaf=0.0107094813
			14:leaf=-0.00384366326
booster[157]:
0:[f1<0.639819622] yes=1,no=2,missing=1
	1:[f4<0.0217578113] yes=3,no=4,missing=3
		3:[f0<5.4217453] yes=7,no=8,missing=7
			7:leaf=0.0111886589
			8:leaf=0.0436629504
		4:[f18<22.264143] yes=9,no=10,missing=9
			9:leaf=-0.0145013249
			10:leaf=-0.0998339206
	2:[f5<-2.6212678] yes=5,no=6,missing=5
		5:[f10<-0.0293771196] yes=11,no=12,missing=11
			11:leaf=-0.0550797097
			12:leaf=0.0305079054
		6:[f5<0.891164064] yes=13,no=14,missing=13
			13:leaf=-0.010709459
			14:leaf=0.00384367513
booster[158]:
0:[f14<0.0556271113] yes=1,no=2,missing=1
	1:[f13<17.2106667] yes=3,no=4,missing=3
		3:[f10<0.00330793951] yes=7,no=8,missing=7
			7:leaf=0.000258517161
			8:leaf=-0.0130986143
		4:[f14<0.0157329552] yes=9,no=10,missing=9
			9:leaf=0.000365856744
			10:leaf=0.0492570698
	2:[f15<0.219234824] yes=5,no=6,missing=5
		5:[f6<0.574459553] yes=11,no=12,missing=11
			11:leaf=0.00292313006
			12:leaf=0.0215256419
		6:[f12<2.53154635] yes=13,no=14,missing=13
			13:leaf=-0.022952633
			14:leaf=0.00446327263
booster[159]:
0:[f14<0.0556271113] yes=1,no=2,missing=1
	1:[f13<17.2106667] yes=3,no=4,missing=3
		3:[f10<0.00330793951] yes=7,no=8,missing=7
			7:leaf=-0.000258515036
			8:leaf=0.0130986078
		4:[f14<0.0157329552] yes=9,no=10,missing=9
			9:leaf=-0.000365843822
			10:leaf=-0.0492570698
	2:[f15<0.219234824] yes=5,no=6,missing=5
		5:[f6<0.574459553] yes=11,no=12,missing=11
			11:leaf=-0.00292303227
			12:leaf=-0.0215256345
		6:[f12<2.53154635] yes=13,no=14,missing=13
			13:leaf=0.022952633
			14:leaf=-0.00446323073
booster[160]:
0:[f0<126.575302] yes=1,no=2,missing=1
	1:[f2<0.108489394] yes=3,no=4,missing=3
		3:[f2<0.000132038156] yes=5,no=6,missing=5
			5:leaf=-0.00224407483
			6:leaf=0.0211998746
		4:[f3<5.5] yes=7,no=8,missing=7
			7:leaf=-0.0527644046
			8:leaf=-0.00578629784
	2:leaf=0.0496132746
booster[161]:
0:[f0<126.575302] yes=1,no=2,missing=1
	1:[f2<0.108489394] yes=3,no=4,missing=3
		3:[f2<0.000132038156] yes=5,no=6,missing=5
			5:leaf=0.0022440746
			6:leaf=-0.0211998746
		4:[f3<5.5] yes=7,no=8,missing=7
			7:leaf=0.0527644046
			8:leaf=0.00578629738
	2:leaf=-0.0496132635
booster[162]:
0:[f18<70.4416199] yes=1,no=2,missing=1
	1:[f6<0.981789708] yes=3,no=4,missing=3
		3:[f3<5.5] yes=7,no=8,missing=7
			7:leaf=-0.00828943681
			8:leaf=0.00512482738
		4:[f10<0.0056535732] yes=9,no=10,missing=9
			9:leaf=0.0211931616
			10:leaf=-0.0033624263
	2:[f18<98.9863052] yes=5,no=6,missing=5
		5:[f16<0.220086426] yes=11,no=12,missing=11
			11:leaf=0.0750075877
			12:leaf=0.0142431511
		6:[f0<3.19687724] yes=13,no=14,missing=13
			13:leaf=0.0872094482
			14:leaf=0.0577034019
booster[163]:
0:[f18<70.4416199] yes=1,no=2,missing=1
	1:[f6<0.981789708] yes=3,no=4,missing=3
		3:[f3<5.5] yes=7,no=8,missing=7
			7:leaf=0.00828943867
			8:leaf=-0.00512480829
		4:[f10<0.0056535732] yes=9,no=10,missing=9
			9:leaf=-0.0211931597
			10:leaf=0.0033624263
	2:[f18<98.9863052] yes=5,no=6,missing=5
		5:[f16<0.220086426] yes=11,no=12,missing=11
			11:leaf=-0.0750075951
			12:leaf=-0.0142431809
		6:[f0<3.19687724] yes=13,no=14,missing=13
			13:leaf=-0.0872094482
			14:leaf=-0.057703387
booster[164]:
0:[f11<7.5] yes=1,no=2,missing=1
	1:[f17<0.0748822838] yes=3,no=4,missing=3
		3:[f10<0.00172783411] yes=7,no=8,missing=7
			7:leaf=0.00371256541
			8:leaf=-0.00729953218
		4:[f8<-0.00423753634] yes=9,no=10,missing=9
			9:leaf=0.0403302945
			10:leaf=0.011733341
	2:[f14<0.0242072381] yes=5,no=6,missing=5
		5:[f12<28.4004955] yes=11,no=12,missing=11
			11:leaf=-0.0260076355
			12:leaf=0.0421840772
		6:[f0<0.97257328] yes=13,no=14,missing=13
			13:leaf=0.006650378
			14:leaf=0.0406211317
booster[165]:
0:[f11<7.5] yes=1,no=2,missing=1
	1:[f17<0.0748822838] yes=3,no=4,missing=3
		3:[f10<0.00172783411] yes=7,no=8,missing=7
			7:leaf=-0.00371256541
			8:leaf=0.00729953451
		4:[f8<-0.00423753634] yes=9,no=10,missing=9
			9:leaf=-0.0403302945
			10:leaf=-0.011733341
	2:[f14<0.0242072381] yes=5,no=6,missing=5
		5:[f12<28.4004955] yes=11,no=12,missing=11
			11:leaf=0.0260076169
			12:leaf=-0.0421841033
		6:[f0<0.97257328] yes=13,no=14,missing=13
			13:leaf=-0.0066503766
			14:leaf=-0.0406211279
booster[166]:
0:[f1<0.639819622] yes=1,no=2,missing=1
	1:[f10<0.0356548801] yes=3,no=4,missing=3
		3:[f10<-0.0164818726] yes=7,no=8,missing=7
			7:leaf=0.037319582
			8:leaf=-0.0152567746
		4:[f13<1.55997992] yes=9,no=10,missing=9
			9:leaf=0.0256159306
			10:leaf=0.0812162086
	2:[f5<-1.89778304] yes=5,no=6,missing=5
		5:[f10<-0.0293771196] yes=11,no=12,missing=11
			11:leaf=0.0516176298
			12:leaf=-0.0202967059
		6:[f2<0.108492881] yes=13,no=14,missing=13
			13:leaf=0.0085147582
			14:leaf=-0.00685388083
booster[167]:
0:[f1<0.639819622] yes=1,no=2,missing=1
	1:[f10<0.0356548801] yes=3,no=4,missing=3
		3:[f10<-0.0164818726] yes=7,no=8,missing=7
			7:leaf=-0.037319582
			8:leaf=0.0152567746
		4:[f13<1.55997992] yes=9,no=10,missing=9
			9:leaf=-0.0256159399
			10:leaf=-0.0812162161
	2:[f5<-1.89778304] yes=5,no=6,missing=5
		5:[f10<-0.0293771196] yes=11,no=12,missing=11
			11:leaf=-0.0516176298
			12:leaf=0.0202967059
		6:[f2<0.108492881] yes=13,no=14,missing=13
			13:leaf=-0.00851476658
			14:leaf=0.00685384078
booster[168]:
0:[f0<126.575302] yes=1,no=2,missing=1
	1:[f17<0.0437149033] yes=3,no=4,missing=3
		3:[f13<9.49396896] yes=5,no=6,missing=5
			5:leaf=-0.00437686779
			6:leaf=0.026747426
		4:[f3<0.5] yes=7,no=8,missing=7
			7:leaf=-0.0219431594
			8:leaf=0.0157750454
	2:leaf=0.0495429374
booster[169]:
0:[f0<126.575302] yes=1,no=2,missing=1
	1:[f17<0.0437149033] yes=3,no=4,missing=3
		3:[f13<9.49396896] yes=5,no=6,missing=5
			5:leaf=0.00437686779
			6:leaf=-0.026747426
		4:[f3<0.5] yes=7,no=8,missing=7
			7:leaf=0.0219431575
			8:leaf=-0.0157750454
	2:leaf=-0.0495429449
booster[170]:
0:[f18<70.4416199] yes=1,no=2,missing=1
	1:[f0<126.575302] yes=3,no=4,missing=3
		3:[f6<0.981797576] yes=7,no=8,missing=7
			7:leaf=-0.00306492811
			8:leaf=0.0117658498
		4:leaf=0.0494676121
	2:[f18<97.1811676] yes=5,no=6,missing=5
		5:[f16<0.220086426] yes=9,no=10,missing=9
			9:leaf=0.0714098141
			10:leaf=0.0118928952
		6:[f0<5.86782265] yes=11,no=12,missing=11
			11:leaf=0.077574648
			12:leaf=0.0525070541
booster[171]:
0:[f18<70.4416199] yes=1,no=2,missing=1
	1:[f0<126.575302] yes=3,no=4,missing=3
		3:[f6<0.981797576] yes=7,no=8,missing=7
			7:leaf=0.00306492765
			8:leaf=-0.0117658498
		4:leaf=-0.0494676232
	2:[f18<97.1811676] yes=5,no=6,missing=5
		5:[f16<0.220086426] yes=9,no=10,missing=9
			9:leaf=-0.0714097992
			10:leaf=-0.0118929548
		6:[f0<5.86782265] yes=11,no=12,missing=11
			11:leaf=-0.077574648
			12:leaf=-0.0525070541
booster[172]:
0:[f14<0.0689414293] yes=1,no=2,missing=1
	1:[f13<17.2106667] yes=3,no=4,missing=3
		3:[f6<-0.5] yes=7,no=8,missing=7
			7:leaf=0.0952015668
			8:leaf=-0.00422748318
		4:[f6<0.999685466] yes=9,no=10,missing=9
			9:leaf=0.0442762151
			10:leaf=-0.0245177504
	2:[f16<0.300612688] yes=5,no=6,missing=5
		5:[f15<0.21922636] yes=11,no=12,missing=11
			11:leaf=0.0216572937
			12:leaf=-0.0163392685
		6:[f2<0.085104689] yes=13,no=14,missing=13
			13:leaf=0.00578694139
			14:leaf=-0.0176577605
booster[173]:
0:[f14<0.0689414293] yes=1,no=2,missing=1
	1:[f13<17.2106667] yes=3,no=4,missing=3
		3:[f6<-0.5] yes=7,no=8,missing=7
			7:leaf=-0.0952015668
			8:leaf=0.00422748039
		4:[f6<0.999685466] yes=9,no=10,missing=9
			9:leaf=-0.0442762338
			10:leaf=0.0245177578
	2:[f16<0.300612688] yes=5,no=6,missing=5
		5:[f15<0.21922636] yes=11,no=12,missing=11
			11:leaf=-0.021657316
			12:leaf=0.0163392387
		6:[f2<0.085104689] yes=13,no=14,missing=13
			13:leaf=-0.00578696188
			14:leaf=0.017657714
booster[174]:
0:[f5<2.22192025] yes=1,no=2,missing=1
	1:[f7<1.57386017] yes=3,no=4,missing=3
		3:[f5<-1.48618555] yes=7,no=8,missing=7
			7:leaf=-0.0150199579
			8:leaf=0.00939836074
		4:[f8<-499.515289] yes=9,no=10,missing=9
			9:leaf=-0.0322213396
			10:leaf=-0.00230089249
	2:[f10<0.0140510928] yes=5,no=6,missing=5
		5:[f10<-0.0209791604] yes=11,no=12,missing=11
			11:leaf=0.0514240339
			12:leaf=-0.0229172315
		6:[f8<0.00180753437] yes=13,no=14,missing=13
			13:leaf=0.0017030217
			14:leaf=0.0611469038
booster[175]:
0:[f5<2.22192025] yes=1,no=2,missing=1
	1:[f7<1.57386017] yes=3,no=4,missing=3
		3:[f5<-1.48618555] yes=7,no=8,missing=7
			7:leaf=0.0150199383
			8:leaf=-0.0093983775
		4:[f8<-499.515289] yes=9,no=10,missing=9
			9:leaf=0.032221321
			10:leaf=0.00230083405
	2:[f10<0.0140510928] yes=5,no=6,missing=5
		5:[f10<-0.0209791604] yes=11,no=12,missing=11
			11:leaf=-0.0514240339
			12:leaf=0.0229172166
		6:[f8<0.00180753437] yes=13,no=14,missing=13
			13:leaf=-0.00170302729
			14:leaf=-0.0611468814
booster[176]:
0:[f17<0.076748386] yes=1,no=2,missing=1
	1:[f1<1.87654352] yes=3,no=4,missing=3
		3:[f4<-0.0336328112] yes=7,no=8,missing=7
			7:leaf=0.0685161278
			8:leaf=-0.00881449413
		4:[f3<5.5] yes=9,no=10,missing=9
			9:leaf=-0.00222251914
			10:leaf=0.0124090398
	2:[f2<0.249668181] yes=5,no=6,missing=5
		5:[f10<-0.00134745473] yes=11,no=12,missing=11
			11:leaf=0.0135294273
			12:leaf=0.0433650985
		6:[f13<1.67259359] yes=13,no=14,missing=13
			13:leaf=0.0400167815
			14:leaf=-0.0159622636
booster[177]:
0:[f17<0.076748386] yes=1,no=2,missing=1
	1:[f1<1.87654352] yes=3,no=4,missing=3
		3:[f4<-0.0336328112] yes=7,no=8,missing=7
			7:leaf=-0.0685161278
			8:leaf=0.00881449413
		4:[f3<5.5] yes=9,no=10,missing=9
			9:leaf=0.00222251681
			10:leaf=-0.0124090733
	2:[f2<0.249668181] yes=5,no=6,missing=5
		5:[f10<-0.00134745473] yes=11,no=12,missing=11
			11:leaf=-0.0135294339
			12:leaf=-0.0433650985
		6:[f13<1.67259359] yes=13,no=14,missing=13
			13:leaf=-0.0400167853
			14:leaf=0.0159622636
booster[178]:
0:[f18<70.4416199] yes=1,no=2,missing=1
	1:[f6<0.288319618] yes=3,no=4,missing=3
		3:[f3<5.5] yes=7,no=8,missing=7
			7:leaf=-0.0229990091
			8:leaf=0.00286996877
		4:[f17<0.0347414911] yes=9,no=10,missing=9
			9:leaf=-0.00163551385
			10:leaf=0.0118151084
	2:[f18<95.9265366] yes=5,no=6,missing=5
		5:[f16<0.220086426] yes=11,no=12,missing=11
			11:leaf=0.0673960894
			12:leaf=0.0106303887
		6:[f0<5.86782265] yes=13,no=14,missing=13
			13:leaf=0.0743391216
			14:leaf=0.0519139878
booster[179]:
0:[f18<70.4416199] yes=1,no=2,missing=1
	1:[f6<0.288319618] yes=3,no=4,missing=3
		3:[f3<5.5] yes=7,no=8,missing=7
			7:leaf=0.0229990091
			8:leaf=-0.00287002744
		4:[f17<0.0347414911] yes=9,no=10,missing=9
			9:leaf=0.00163549616
			10:leaf=-0.0118151093
	2:[f18<95.9265366] yes=5,no=6,missing=5
		5:[f16<0.220086426] yes=11,no=12,missing=11
			11:leaf=-0.0673961267
			12:leaf=-0.0106304204
		6:[f0<5.86782265] yes=13,no=14,missing=13
			13:leaf=-0.0743391216
			14:leaf=-0.0519139953
booster[180]:
0:[f0<126.575302] yes=1,no=2,missing=1
	1:[f2<0.0822427645] yes=3,no=4,missing=3
		3:[f2<0.000132038156] yes=5,no=6,missing=5
			5:leaf=-0.00207915599
			6:leaf=0.021554891
		4:[f3<5.5] yes=7,no=8,missing=7
			7:leaf=-0.0424469821
			8:leaf=-0.00446155388
	2:leaf=0.0494039617
booster[181]:
0:[f0<126.575302] yes=1,no=2,missing=1
	1:[f2<0.0822427645] yes=3,no=4,missing=3
		3:[f2<0.000132038156] yes=5,no=6,missing=5
			5:leaf=0.00207915646
			6:leaf=-0.0215548892
		4:[f3<5.5] yes=7,no=8,missing=7
			7:leaf=0.0424469821
			8:leaf=0.00446155434
	2:leaf=-0.0494039655
booster[182]:
0:[f13<17.2106667] yes=1,no=2,missing=1
	1:[f1<0.532048285] yes=3,no=4,missing=3
		3:[f10<-0.0164818726] yes=7,no=8,missing=7
			7:leaf=0.0338365547
			8:leaf=-0.0134965023
		4:[f5<-2.6212678] yes=9,no=10,missing=9
			9:leaf=-0.0200662892
			10:leaf=0.00295848004
	2:[f17<1.48039217e-05] yes=5,no=6,missing=5
		5:[f11<2.5] yes=11,no=12,missing=11
			11:leaf=0.0349514447
			12:leaf=-0.0584023111
		6:[f5<2.54080439] yes=13,no=14,missing=13
			13:leaf=0.0512930155
			14:leaf=0.014470649
booster[183]:
0:[f13<17.2106667] yes=1,no=2,missing=1
	1:[f1<0.532048285] yes=3,no=4,missing=3
		3:[f10<-0.0164818726] yes=7,no=8,missing=7
			7:leaf=-0.0338365547
			8:leaf=0.0134965004
		4:[f5<-2.6212678] yes=9,no=10,missing=9
			9:leaf=0.0200662613
			10:leaf=-0.00295847375
	2:[f17<1.48039217e-05] yes=5,no=6,missing=5
		5:[f11<2.5] yes=11,no=12,missing=11
			11:leaf=-0.0349514484
			12:leaf=0.0584023297
		6:[f5<2.54080439] yes=13,no=14,missing=13
			13:leaf=-0.0512930155
			14:leaf=-0.0144706443
booster[184]:
0:[f5<0.98959434] yes=1,no=2,missing=1
	1:[f5<-1.48618555] yes=3,no=4,missing=3
		3:[f10<-0.0381314382] yes=7,no=8,missing=7
			7:leaf=0.0635068938
			8:leaf=-0.0125366477
		4:[f7<1.57386017] yes=9,no=10,missing=9
			9:leaf=0.0100516556
			10:leaf=-0.0108891623
	2:[f10<0.0273867752] yes=5,no=6,missing=5
		5:[f4<-0.00136413577] yes=11,no=12,missing=11
			11:leaf=0.000211651743
			12:leaf=-0.0146056367
		6:[f17<0.00129321509] yes=13,no=14,missing=13
			13:leaf=0.0477036908
			14:leaf=0.00912993308
booster[185]:
0:[f5<0.98959434] yes=1,no=2,missing=1
	1:[f5<-1.48618555] yes=3,no=4,missing=3
		3:[f10<-0.0381314382] yes=7,no=8,missing=7
			7:leaf=-0.0635069013
			8:leaf=0.0125366403
		4:[f7<1.57386017] yes=9,no=10,missing=9
			9:leaf=-0.0100516388
			10:leaf=0.0108891288
	2:[f10<0.0273867752] yes=5,no=6,missing=5
		5:[f4<-0.00136413577] yes=11,no=12,missing=11
			11:leaf=-0.000211647857
			12:leaf=0.0146056432
		6:[f17<0.00129321509] yes=13,no=14,missing=13
			13:leaf=-0.0477036908
			14:leaf=-0.00912992936
booster[186]:
0:[f0<126.575302] yes=1,no=2,missing=1
	1:[f6<0.426890463] yes=3,no=4,missing=3
		3:[f8<-499.515289] yes=5,no=6,missing=5
			5:leaf=-0.0174252745
			6:leaf=0.00367542147
		4:[f17<0.0316319391] yes=7,no=8,missing=7
			7:leaf=-0.00202378607
			8:leaf=0.0127784554
	2:leaf=0.0493312739
booster[187]:
0:[f0<126.575302] yes=1,no=2,missing=1
	1:[f6<0.426890463] yes=3,no=4,missing=3
		3:[f8<-499.515289] yes=5,no=6,missing=5
			5:leaf=0.0174252726
			6:leaf=-0.003675421
		4:[f17<0.0316319391] yes=7,no=8,missing=7
			7:leaf=0.00202378514
			8:leaf=-0.0127784554
	2:leaf=-0.0493312664
booster[188]:
0:[f18<70.4416199] yes=1,no=2,missing=1
	1:[f10<0.00149098691] yes=3,no=4,missing=3
		3:[f10<-0.00204595597] yes=7,no=8,missing=7
			7:leaf=-0.00268457923
			8:leaf=0.0131994886
		4:[f10<0.0304108858] yes=9,no=10,missing=9
			9:leaf=-0.00619977294
			10:leaf=0.0226513725
	2:[f18<95.9265366] yes=5,no=6,missing=5
		5:[f16<0.220086426] yes=11,no=12,missing=11
			11:leaf=0.0638845414
			12:leaf=0.00923248939
		6:[f0<5.86782265] yes=13,no=14,missing=13
			13:leaf=0.0723217055
			14:leaf=0.0514403544
booster[189]:
0:[f18<70.4416199] yes=1,no=2,missing=1
	1:[f10<0.00149098691] yes=3,no=4,missing=3
		3:[f10<-0.00204595597] yes=7,no=8,missing=7
			7:leaf=0.00268459017
			8:leaf=-0.013199483
		4:[f10<0.0304108858] yes=9,no=10,missing=9
			9:leaf=0.00619978458
			10:leaf=-0.022651365
	2:[f18<95.9265366] yes=5,no=6,missing=5
		5:[f16<0.220086426] yes=11,no=12,missing=11
			11:leaf=-0.0638845712
			12:leaf=-0.00923244935
		6:[f0<5.86782265] yes=13,no=14,missing=13
			13:leaf=-0.0723217055
			14:leaf=-0.0514403582
booster[190]:
0:[f13<14.8082371] yes=1,no=2,missing=1
	1:[f14<0.0689414293] yes=3,no=4,missing=3
		3:[f6<-0.5] yes=7,no=8,missing=7
			7:leaf=0.0877958536
			8:leaf=-0.00376318651
		4:[f16<0.300612688] yes=9,no=10,missing=9
			9:leaf=0.0152215231
			10:leaf=-0.00406960025
	2:[f14<0.0197619908] yes=5,no=6,missing=5
		5:[f13<24.6501713] yes=11,no=12,missing=11
			11:leaf=-0.0438830033
			12:leaf=0.0434366614
		6:[f6<0.999685466] yes=13,no=14,missing=13
			13:leaf=0.04864721
			14:leaf=-0.0117892623
booster[191]:
0:[f13<14.8082371] yes=1,no=2,missing=1
	1:[f14<0.0689414293] yes=3,no=4,missing=3
		3:[f6<-0.5] yes=7,no=8,missing=7
			7:leaf=-0.0877958536
			8:leaf=0.00376318744
		4:[f16<0.300612688] yes=9,no=10,missing=9
			9:leaf=-0.0152215054
			10:leaf=0.00406961842
	2:[f14<0.0197619908] yes=5,no=6,missing=5
		5:[f13<24.6501713] yes=11,no=12,missing=11
			11:leaf=0.043883007
			12:leaf=-0.0434366651
		6:[f6<0.999685466] yes=13,no=14,missing=13
			13:leaf=-0.0486472063
			14:leaf=0.0117892576
booster[192]:
0:[f1<3.60148001] yes=1,no=2,missing=1
	1:[f6<0.940107405] yes=3,no=4,missing=3
		3:[f4<0.0198291019] yes=7,no=8,missing=7
			7:leaf=-0.00738082407
			8:leaf=0.0405844785
		4:[f14<0.0795582086] yes=9,no=10,missing=9
			9:leaf=0.00253840559
			10:leaf=0.0255168956
	2:[f8<0.000665179337] yes=5,no=6,missing=5
		5:[f17<0.0166827645] yes=11,no=12,missing=11
			11:leaf=-0.00899022724
			12:leaf=0.0125396345
		6:[f0<8.60117722] yes=13,no=14,missing=13
			13:leaf=0.00503291981
			14:leaf=0.0319899321
booster[193]:
0:[f1<3.60148001] yes=1,no=2,missing=1
	1:[f6<0.940107405] yes=3,no=4,missing=3
		3:[f4<0.0198291019] yes=7,no=8,missing=7
			7:leaf=0.00738082454
			8:leaf=-0.0405844823
		4:[f14<0.0795582086] yes=9,no=10,missing=9
			9:leaf=-0.00253840606
			10:leaf=-0.0255168956
	2:[f8<0.000665179337] yes=5,no=6,missing=5
		5:[f17<0.0166827645] yes=11,no=12,missing=11
			11:leaf=0.00899024401
			12:leaf=-0.0125396298
		6:[f0<8.60117722] yes=13,no=14,missing=13
			13:leaf=-0.00503291981
			14:leaf=-0.0319898613
booster[194]:
0:[f5<2.7112565] yes=1,no=2,missing=1
	1:[f4<0.00104705803] yes=3,no=4,missing=3
		3:[f4<-0.000953674316] yes=7,no=8,missing=7
			7:leaf=0.0103420531
			8:leaf=-0.00796492957
		4:[f5<-2.57393122] yes=9,no=10,missing=9
			9:leaf=-0.0136770327
			10:leaf=0.0167428125
	2:[f8<0.00271285418] yes=5,no=6,missing=5
		5:[f10<0.0154413087] yes=11,no=12,missing=11
			11:leaf=-0.0279009994
			12:leaf=0.00224004383
		6:[f10<0.00841472298] yes=13,no=14,missing=13
			13:leaf=-0.00191925967
			14:leaf=0.0497398637
booster[195]:
0:[f5<2.7112565] yes=1,no=2,missing=1
	1:[f4<0.00104705803] yes=3,no=4,missing=3
		3:[f4<-0.000953674316] yes=7,no=8,missing=7
			7:leaf=-0.0103420401
			8:leaf=0.0079649426
		4:[f5<-2.57393122] yes=9,no=10,missing=9
			9:leaf=0.0136770234
			10:leaf=-0.0167427994
	2:[f8<0.00271285418] yes=5,no=6,missing=5
		5:[f10<0.0154413087] yes=11,no=12,missing=11
			11:leaf=0.0279009994
			12:leaf=-0.00224003894
		6:[f10<0.00841472298] yes=13,no=14,missing=13
			13:leaf=0.00191928016
			14:leaf=-0.0497398637
booster[196]:
0:[f17<0.0786355212] yes=1,no=2,missing=1
	1:[f10<0.00149098691] yes=3,no=4,missing=3
		3:[f10<-0.00213718065] yes=7,no=8,missing=7
			7:leaf=-0.00272269757
			8:leaf=0.0119630089
		4:[f10<0.0495628715] yes=9,no=10,missing=9
			9:leaf=-0.005932122
			10:leaf=0.0349713676
	2:[f8<-0.00423753634] yes=5,no=6,missing=5
		5:[f12<6.37672615] yes=11,no=12,missing=11
			11:leaf=0.0473616719
			12:leaf=-0.0527375303
		6:[f13<1.65711665] yes=13,no=14,missing=13
			13:leaf=0.0372119062
			14:leaf=-0.00300548016
booster[197]:
0:[f17<0.0786355212] yes=1,no=2,missing=1
	1:[f10<0.00149098691] yes=3,no=4,missing=3
		3:[f10<-0.00213718065] yes=7,no=8,missing=7
			7:leaf=0.00272271503
			8:leaf=-0.0119630015
		4:[f10<0.0495628715] yes=9,no=10,missing=9
			9:leaf=0.00593213551
			10:leaf=-0.0349713638
	2:[f8<-0.00423753634] yes=5,no=6,missing=5
		5:[f12<6.37672615] yes=11,no=12,missing=11
			11:leaf=-0.0473616756
			12:leaf=0.0527375229
		6:[f13<1.65711665] yes=13,no=14,missing=13
			13:leaf=-0.0372119062
			14:leaf=0.00300548295
booster[198]:
0:[f0<126.575302] yes=1,no=2,missing=1
	1:[f6<0.981797576] yes=3,no=4,missing=3
		3:[f13<8.48904228] yes=5,no=6,missing=5
			5:leaf=-0.00325324503
			6:leaf=0.0191520397
		4:[f10<0.0056535732] yes=7,no=8,missing=7
			7:leaf=0.0163632371
			8:leaf=-0.00408249861
	2:leaf=0.0492074005
booster[199]:
0:[f0<126.575302] yes=1,no=2,missing=1
	1:[f6<0.981797576] yes=3,no=4,missing=3
		3:[f13<8.48904228] yes=5,no=6,missing=5
			5:leaf=0.00325324549
			6:leaf=-0.0191520397
		4:[f10<0.0056535732] yes=7,no=8,missing=7
			7:leaf=-0.0163632389
			8:leaf=0.00408250047
	2:leaf=-0.0492073633
