booster[0]:
0:[f7<0.534539163] yes=1,no=2,missing=1
	1:[f6<0.22710824] yes=3,no=4,missing=3
		3:[f1<10.0078402] yes=7,no=8,missing=7
			7:leaf=0.0868053958
			8:leaf=0.0997477993
		4:[f0<0.0563261509] yes=9,no=10,missing=9
			9:leaf=0.080313094
			10:leaf=-0.0512430966
	2:[f0<0.0732871294] yes=5,no=6,missing=5
		5:[f2<0.659751892] yes=11,no=12,missing=11
			11:leaf=0.0218724124
			12:leaf=-0.0658453107
		6:[f1<57.3609695] yes=13,no=14,missing=13
			13:leaf=-0.0964435637
			14:leaf=0.0777777806
booster[1]:
0:[f7<0.534539163] yes=1,no=2,missing=1
	1:[f6<0.22710824] yes=3,no=4,missing=3
		3:[f1<10.0078402] yes=7,no=8,missing=7
			7:leaf=-0.0868053958
			8:leaf=-0.0997477993
		4:[f0<0.0563261509] yes=9,no=10,missing=9
			9:leaf=-0.080313094
			10:leaf=0.0512430966
	2:[f0<0.0732871294] yes=5,no=6,missing=5
		5:[f2<0.659751892] yes=11,no=12,missing=11
			11:leaf=-0.0218724124
			12:leaf=0.0658453107
		6:[f1<57.3609695] yes=13,no=14,missing=13
			13:leaf=0.0964435637
			14:leaf=-0.0777777806
booster[2]:
0:[f7<0.573596358] yes=1,no=2,missing=1
	1:[f7<0.277126789] yes=3,no=4,missing=3
		3:[f6<0.0955139548] yes=7,no=8,missing=7
			7:leaf=0.0906836838
			8:leaf=0.0755220577
		4:[f0<0.0854237974] yes=9,no=10,missing=9
			9:leaf=0.0660520718
			10:leaf=-0.0587420277
	2:[f0<0.0570610166] yes=5,no=6,missing=5
		5:[f2<0.786837459] yes=11,no=12,missing=11
			11:leaf=0.00944309682
			12:leaf=-0.0676320642
		6:[f1<69.1108246] yes=13,no=14,missing=13
			13:leaf=-0.0876470059
			14:leaf=0.0845478103
booster[3]:
0:[f7<0.573596358] yes=1,no=2,missing=1
	1:[f7<0.277126789] yes=3,no=4,missing=3
		3:[f6<0.0955139548] yes=7,no=8,missing=7
			7:leaf=-0.0906836838
			8:leaf=-0.0755220577
		4:[f0<0.0854237974] yes=9,no=10,missing=9
			9:leaf=-0.0660520718
			10:leaf=0.0587420277
	2:[f0<0.0570610166] yes=5,no=6,missing=5
		5:[f2<0.786837459] yes=11,no=12,missing=11
			11:leaf=-0.00944309868
			12:leaf=0.0676320717
		6:[f1<69.1108246] yes=13,no=14,missing=13
			13:leaf=0.0876470059
			14:leaf=-0.0845478103
booster[4]:
0:[f7<0.534097791] yes=1,no=2,missing=1
	1:[f6<0.216081738] yes=3,no=4,missing=3
		3:[f1<8.11551094] yes=7,no=8,missing=7
			7:leaf=0.0699106231
			8:leaf=0.0838541314
		4:[f0<0.0510706007] yes=9,no=10,missing=9
			9:leaf=0.0682934448
			10:leaf=-0.04116299
	2:[f0<0.0840587616] yes=5,no=6,missing=5
		5:[f7<0.838187575] yes=11,no=12,missing=11
			11:leaf=0.0192349516
			12:leaf=-0.0543504357
		6:[f1<57.3609695] yes=13,no=14,missing=13
			13:leaf=-0.0811103731
			14:leaf=0.0657231808
booster[5]:
0:[f7<0.534097791] yes=1,no=2,missing=1
	1:[f6<0.216081738] yes=3,no=4,missing=3
		3:[f1<8.11551094] yes=7,no=8,missing=7
			7:leaf=-0.0699106231
			8:leaf=-0.0838541314
		4:[f0<0.0510706007] yes=9,no=10,missing=9
			9:leaf=-0.0682934448
			10:leaf=0.0411629863
	2:[f0<0.0840587616] yes=5,no=6,missing=5
		5:[f7<0.838187575] yes=11,no=12,missing=11
			11:leaf=-0.0192349423
			12:leaf=0.0543504432
		6:[f1<57.3609695] yes=13,no=14,missing=13
			13:leaf=0.0811103657
			14:leaf=-0.0657231882
booster[6]:
0:[f7<0.573596358] yes=1,no=2,missing=1
	1:[f7<0.277512103] yes=3,no=4,missing=3
		3:[f6<0.102091052] yes=7,no=8,missing=7
			7:leaf=0.0785825774
			8:leaf=0.0634329244
		4:[f0<0.0510706007] yes=9,no=10,missing=9
			9:leaf=0.0593525544
			10:leaf=-0.0409949198
	2:[f0<0.122954279] yes=5,no=6,missing=5
		5:[f2<0.673801184] yes=11,no=12,missing=11
			11:leaf=0.00863498356
			12:leaf=-0.0530211627
		6:[f3<15.7588482] yes=13,no=14,missing=13
			13:leaf=-0.0764963254
			14:leaf=0.0273705106
booster[7]:
0:[f7<0.573596358] yes=1,no=2,missing=1
	1:[f7<0.277512103] yes=3,no=4,missing=3
		3:[f6<0.102091052] yes=7,no=8,missing=7
			7:leaf=-0.07858257
			8:leaf=-0.0634329244
		4:[f0<0.0510706007] yes=9,no=10,missing=9
			9:leaf=-0.0593525544
			10:leaf=0.0409949236
	2:[f0<0.122954279] yes=5,no=6,missing=5
		5:[f2<0.673801184] yes=11,no=12,missing=11
			11:leaf=-0.00863499101
			12:leaf=0.0530211627
		6:[f3<15.7588482] yes=13,no=14,missing=13
			13:leaf=0.076496318
			14:leaf=-0.0273705162
booster[8]:
0:[f7<0.518141091] yes=1,no=2,missing=1
	1:[f6<0.169437438] yes=3,no=4,missing=3
		3:[f1<10.0752506] yes=7,no=8,missing=7
			7:leaf=0.0649017021
			8:leaf=0.074468255
		4:[f0<0.0879582763] yes=9,no=10,missing=9
			9:leaf=0.0590997748
			10:leaf=-0.0453710407
	2:[f0<0.0500511825] yes=5,no=6,missing=5
		5:[f7<0.841866374] yes=11,no=12,missing=11
			11:leaf=0.0238985512
			12:leaf=-0.0467387736
		6:[f0<0.280427814] yes=13,no=14,missing=13
			13:leaf=-0.0530062728
			14:leaf=-0.0729399472
booster[9]:
0:[f7<0.518141091] yes=1,no=2,missing=1
	1:[f6<0.169437438] yes=3,no=4,missing=3
		3:[f1<10.0752506] yes=7,no=8,missing=7
			7:leaf=-0.0649017021
			8:leaf=-0.074468255
		4:[f0<0.0879582763] yes=9,no=10,missing=9
			9:leaf=-0.0590997748
			10:leaf=0.0453710407
	2:[f0<0.0500511825] yes=5,no=6,missing=5
		5:[f7<0.841866374] yes=11,no=12,missing=11
			11:leaf=-0.0238985587
			12:leaf=0.0467387736
		6:[f0<0.280427814] yes=13,no=14,missing=13
			13:leaf=0.0530062728
			14:leaf=0.0729399472
booster[10]:
0:[f7<0.587703109] yes=1,no=2,missing=1
	1:[f6<0.213240549] yes=3,no=4,missing=3
		3:[f1<10.0078402] yes=7,no=8,missing=7
			7:leaf=0.0586902797
			8:leaf=0.0710121691
		4:[f0<0.0434617698] yes=9,no=10,missing=9
			9:leaf=0.0553292744
			10:leaf=-0.0320270434
	2:[f0<0.0701757371] yes=5,no=6,missing=5
		5:[f2<0.786837459] yes=11,no=12,missing=11
			11:leaf=0.00636726478
			12:leaf=-0.0511444211
		6:[f1<57.3609695] yes=13,no=14,missing=13
			13:leaf=-0.0682613701
			14:leaf=0.0646824837
booster[11]:
0:[f7<0.587703109] yes=1,no=2,missing=1
	1:[f6<0.213240549] yes=3,no=4,missing=3
		3:[f1<10.0078402] yes=7,no=8,missing=7
			7:leaf=-0.0586902797
			8:leaf=-0.0710121691
		4:[f0<0.0434617698] yes=9,no=10,missing=9
			9:leaf=-0.0553292707
			10:leaf=0.0320270434
	2:[f0<0.0701757371] yes=5,no=6,missing=5
		5:[f2<0.786837459] yes=11,no=12,missing=11
			11:leaf=-0.00636726711
			12:leaf=0.0511444211
		6:[f1<57.3609695] yes=13,no=14,missing=13
			13:leaf=0.0682613626
			14:leaf=-0.0646824837
booster[12]:
0:[f7<0.48401469] yes=1,no=2,missing=1
	1:[f6<0.155739158] yes=3,no=4,missing=3
		3:[f6<0.0591500774] yes=7,no=8,missing=7
			7:leaf=0.0682859048
			8:leaf=0.0597975217
		4:[f0<0.160502672] yes=9,no=10,missing=9
			9:leaf=0.0516698323
			10:leaf=-0.0521807186
	2:[f0<0.122954279] yes=5,no=6,missing=5
		5:[f2<0.497710764] yes=11,no=12,missing=11
			11:leaf=0.0226525161
			12:leaf=-0.0373988748
		6:[f0<0.401440203] yes=13,no=14,missing=13
			13:leaf=-0.0536801331
			14:leaf=-0.0669579729
booster[13]:
0:[f7<0.48401469] yes=1,no=2,missing=1
	1:[f6<0.155739158] yes=3,no=4,missing=3
		3:[f6<0.0591500774] yes=7,no=8,missing=7
			7:leaf=-0.0682858974
			8:leaf=-0.0597975142
		4:[f0<0.160502672] yes=9,no=10,missing=9
			9:leaf=-0.0516698323
			10:leaf=0.0521807261
	2:[f0<0.122954279] yes=5,no=6,missing=5
		5:[f2<0.497710764] yes=11,no=12,missing=11
			11:leaf=-0.0226525199
			12:leaf=0.037398871
		6:[f0<0.401440203] yes=13,no=14,missing=13
			13:leaf=0.0536801293
			14:leaf=0.0669579655
booster[14]:
0:[f7<0.483129203] yes=1,no=2,missing=1
	1:[f1<8.11551094] yes=3,no=4,missing=3
		3:[f0<0.0476199985] yes=7,no=8,missing=7
			7:leaf=0.0533846021
			8:leaf=-0.023770215
		4:[f0<0.574458659] yes=9,no=10,missing=9
			9:leaf=0.0656838194
			10:leaf=0.0244117416
	2:[f0<0.0501180589] yes=5,no=6,missing=5
		5:[f7<0.880553842] yes=11,no=12,missing=11
			11:leaf=0.0181508418
			12:leaf=-0.0429947339
		6:[f0<0.276346266] yes=13,no=14,missing=13
			13:leaf=-0.0429456681
			14:leaf=-0.0638743564
booster[15]:
0:[f7<0.483129203] yes=1,no=2,missing=1
	1:[f1<8.11551094] yes=3,no=4,missing=3
		3:[f0<0.0476199985] yes=7,no=8,missing=7
			7:leaf=-0.0533846095
			8:leaf=0.0237702187
		4:[f0<0.574458659] yes=9,no=10,missing=9
			9:leaf=-0.0656838194
			10:leaf=-0.0244117435
	2:[f0<0.0501180589] yes=5,no=6,missing=5
		5:[f7<0.880553842] yes=11,no=12,missing=11
			11:leaf=-0.01815084
			12:leaf=0.0429947339
		6:[f0<0.276346266] yes=13,no=14,missing=13
			13:leaf=0.0429456644
			14:leaf=0.0638743564
booster[16]:
0:[f7<0.612712741] yes=1,no=2,missing=1
	1:[f6<0.15525648] yes=3,no=4,missing=3
		3:[f6<0.0591500774] yes=7,no=8,missing=7
			7:leaf=0.0639230087
			8:leaf=0.0542824268
		4:[f0<0.0376673937] yes=9,no=10,missing=9
			9:leaf=0.0500783995
			10:leaf=-0.0259124991
	2:[f0<0.126523465] yes=5,no=6,missing=5
		5:[f3<6.69757175] yes=11,no=12,missing=11
			11:leaf=-0.0273153186
			12:leaf=0.0732387304
		6:[f1<57.0841064] yes=13,no=14,missing=13
			13:leaf=-0.0612735152
			14:leaf=0.0557533391
booster[17]:
0:[f7<0.612712741] yes=1,no=2,missing=1
	1:[f6<0.15525648] yes=3,no=4,missing=3
		3:[f6<0.0591500774] yes=7,no=8,missing=7
			7:leaf=-0.0639230087
			8:leaf=-0.0542824268
		4:[f0<0.0376673937] yes=9,no=10,missing=9
			9:leaf=-0.0500783995
			10:leaf=0.0259124972
	2:[f0<0.126523465] yes=5,no=6,missing=5
		5:[f3<6.69757175] yes=11,no=12,missing=11
			11:leaf=0.0273153186
			12:leaf=-0.0732387453
		6:[f1<57.0841064] yes=13,no=14,missing=13
			13:leaf=0.0612735152
			14:leaf=-0.0557533316
booster[18]:
0:[f7<0.446347058] yes=1,no=2,missing=1
	1:[f1<8.11551094] yes=3,no=4,missing=3
		3:[f0<0.0435369313] yes=7,no=8,missing=7
			7:leaf=0.0497251041
			8:leaf=-0.0193681624
		4:[f0<0.574458659] yes=9,no=10,missing=9
			9:leaf=0.0619499162
			10:leaf=0.0205622874
	2:[f0<0.122954279] yes=5,no=6,missing=5
		5:[f3<5.90493155] yes=11,no=12,missing=11
			11:leaf=-0.0185827333
			12:leaf=0.0565267615
		6:[f3<24.9553032] yes=13,no=14,missing=13
			13:leaf=-0.058549501
			14:leaf=0.0764676854
booster[19]:
0:[f7<0.446347058] yes=1,no=2,missing=1
	1:[f1<8.11551094] yes=3,no=4,missing=3
		3:[f0<0.0435369313] yes=7,no=8,missing=7
			7:leaf=-0.0497250967
			8:leaf=0.0193681624
		4:[f0<0.574458659] yes=9,no=10,missing=9
			9:leaf=-0.0619499162
			10:leaf=-0.0205622893
	2:[f0<0.122954279] yes=5,no=6,missing=5
		5:[f3<5.90493155] yes=11,no=12,missing=11
			11:leaf=0.0185827352
			12:leaf=-0.0565267615
		6:[f3<24.9553032] yes=13,no=14,missing=13
			13:leaf=0.058549501
			14:leaf=-0.0764676854
booster[20]:
0:[f7<0.408126116] yes=1,no=2,missing=1
	1:[f1<9.07192993] yes=3,no=4,missing=3
		3:[f0<0.0552877486] yes=7,no=8,missing=7
			7:leaf=0.0487536378
			8:leaf=-0.0178714395
		4:[f0<0.626705766] yes=9,no=10,missing=9
			9:leaf=0.0605392866
			10:leaf=0.0200566724
	2:[f0<0.124788076] yes=5,no=6,missing=5
		5:[f1<18.1773472] yes=11,no=12,missing=11
			11:leaf=-0.0132779879
			12:leaf=0.0714232698
		6:[f0<0.474646747] yes=13,no=14,missing=13
			13:leaf=-0.0428350531
			14:leaf=-0.0591336004
booster[21]:
0:[f7<0.408126116] yes=1,no=2,missing=1
	1:[f1<9.07192993] yes=3,no=4,missing=3
		3:[f0<0.0552877486] yes=7,no=8,missing=7
			7:leaf=-0.0487536378
			8:leaf=0.0178714395
		4:[f0<0.626705766] yes=9,no=10,missing=9
			9:leaf=-0.0605392866
			10:leaf=-0.0200566798
	2:[f0<0.124788076] yes=5,no=6,missing=5
		5:[f1<18.1773472] yes=11,no=12,missing=11
			11:leaf=0.0132779852
			12:leaf=-0.0714232698
		6:[f0<0.474646747] yes=13,no=14,missing=13
			13:leaf=0.0428350531
			14:leaf=0.0591336004
booster[22]:
0:[f7<0.623301148] yes=1,no=2,missing=1
	1:[f6<0.153665423] yes=3,no=4,missing=3
		3:[f6<0.0591500774] yes=7,no=8,missing=7
			7:leaf=0.0594843403
			8:leaf=0.0477072261
		4:[f0<0.0336666405] yes=9,no=10,missing=9
			9:leaf=0.0439368412
			10:leaf=-0.0224580336
	2:[f0<0.0302402973] yes=5,no=6,missing=5
		5:[f2<0.847218513] yes=11,no=12,missing=11
			11:leaf=0.00664512161
			12:leaf=-0.0435222946
		6:[f3<15.4602356] yes=13,no=14,missing=13
			13:leaf=-0.0551013239
			14:leaf=0.0555685423
booster[23]:
0:[f7<0.623301148] yes=1,no=2,missing=1
	1:[f6<0.153665423] yes=3,no=4,missing=3
		3:[f6<0.0591500774] yes=7,no=8,missing=7
			7:leaf=-0.0594843403
			8:leaf=-0.0477072261
		4:[f0<0.0336666405] yes=9,no=10,missing=9
			9:leaf=-0.0439368449
			10:leaf=0.0224580336
	2:[f0<0.0302402973] yes=5,no=6,missing=5
		5:[f2<0.847218513] yes=11,no=12,missing=11
			11:leaf=-0.00664511928
			12:leaf=0.0435223058
		6:[f3<15.4602356] yes=13,no=14,missing=13
			13:leaf=0.0551013313
			14:leaf=-0.0555685423
booster[24]:
0:[f7<0.370102525] yes=1,no=2,missing=1
	1:[f6<0.0955139548] yes=3,no=4,missing=3
		3:[f6<0.058534272] yes=7,no=8,missing=7
			7:leaf=0.0583753102
			8:leaf=0.0493435115
		4:[f0<0.140610039] yes=9,no=10,missing=9
			9:leaf=0.0443339609
			10:leaf=-0.046520602
	2:[f0<0.174116164] yes=5,no=6,missing=5
		5:[f3<7.91281986] yes=11,no=12,missing=11
			11:leaf=-0.0126890931
			12:leaf=0.0580699928
		6:[f0<0.482458621] yes=13,no=14,missing=13
			13:leaf=-0.0404417403
			14:leaf=-0.0564739704
booster[25]:
0:[f7<0.370102525] yes=1,no=2,missing=1
	1:[f6<0.0955139548] yes=3,no=4,missing=3
		3:[f6<0.058534272] yes=7,no=8,missing=7
			7:leaf=-0.0583753176
			8:leaf=-0.0493435077
		4:[f0<0.140610039] yes=9,no=10,missing=9
			9:leaf=-0.0443339609
			10:leaf=0.0465205982
	2:[f0<0.174116164] yes=5,no=6,missing=5
		5:[f3<7.91281986] yes=11,no=12,missing=11
			11:leaf=0.0126890941
			12:leaf=-0.0580699928
		6:[f0<0.482458621] yes=13,no=14,missing=13
			13:leaf=0.0404417403
			14:leaf=0.0564739704
booster[26]:
0:[f7<0.368446082] yes=1,no=2,missing=1
	1:[f1<10.0838642] yes=3,no=4,missing=3
		3:[f0<0.0353526175] yes=7,no=8,missing=7
			7:leaf=0.0467724614
			8:leaf=-0.0126469834
		4:[f1<24.1302052] yes=9,no=10,missing=9
			9:leaf=0.0512245409
			10:leaf=0.0576407723
	2:[f0<0.174116164] yes=5,no=6,missing=5
		5:[f2<0.332162052] yes=11,no=12,missing=11
			11:leaf=0.0234537479
			12:leaf=-0.0225448329
		6:[f0<0.482458621] yes=13,no=14,missing=13
			13:leaf=-0.0384442732
			14:leaf=-0.055231031
booster[27]:
0:[f7<0.368446082] yes=1,no=2,missing=1
	1:[f1<10.0838642] yes=3,no=4,missing=3
		3:[f0<0.0353526175] yes=7,no=8,missing=7
			7:leaf=-0.0467724614
			8:leaf=0.0126469871
		4:[f1<24.1297436] yes=9,no=10,missing=9
			9:leaf=-0.0512241609
			10:leaf=-0.0576407723
	2:[f0<0.174116164] yes=5,no=6,missing=5
		5:[f2<0.332162052] yes=11,no=12,missing=11
			11:leaf=-0.0234537497
			12:leaf=0.0225448292
		6:[f0<0.482458621] yes=13,no=14,missing=13
			13:leaf=0.0384442732
			14:leaf=0.0552310348
booster[28]:
0:[f2<0.0162316412] yes=1,no=2,missing=1
	1:[f6<0.110966772] yes=3,no=4,missing=3
		3:[f6<0.0570323169] yes=7,no=8,missing=7
			7:leaf=0.0565869212
			8:leaf=0.045545496
		4:[f0<0.0309692621] yes=9,no=10,missing=9
			9:leaf=0.0440711081
			10:leaf=-0.0151957748
	2:[f0<0.0850360394] yes=5,no=6,missing=5
		5:[f1<14.0341606] yes=11,no=12,missing=11
			11:leaf=-0.0153604923
			12:leaf=0.0566190444
		6:[f7<0.0554726385] yes=13,no=14,missing=13
			13:leaf=0.0597301312
			14:leaf=-0.0515013337
booster[29]:
0:[f2<0.0162316412] yes=1,no=2,missing=1
	1:[f6<0.110966772] yes=3,no=4,missing=3
		3:[f6<0.0570323169] yes=7,no=8,missing=7
			7:leaf=-0.0565869287
			8:leaf=-0.0455454998
		4:[f0<0.0309692621] yes=9,no=10,missing=9
			9:leaf=-0.0440711081
			10:leaf=0.0151957767
	2:[f0<0.0850360394] yes=5,no=6,missing=5
		5:[f1<14.0341606] yes=11,no=12,missing=11
			11:leaf=0.0153604886
			12:leaf=-0.0566190444
		6:[f7<0.0554726385] yes=13,no=14,missing=13
			13:leaf=-0.0597301237
			14:leaf=0.0515013337
booster[30]:
0:[f7<0.365410775] yes=1,no=2,missing=1
	1:[f1<10.0838642] yes=3,no=4,missing=3
		3:[f0<0.0353526175] yes=7,no=8,missing=7
			7:leaf=0.0435129665
			8:leaf=-0.0126586976
		4:[f1<24.1297436] yes=9,no=10,missing=9
			9:leaf=0.048605524
			10:leaf=0.0560515597
	2:[f0<0.252361208] yes=5,no=6,missing=5
		5:[f1<17.9226913] yes=11,no=12,missing=11
			11:leaf=-0.0104611311
			12:leaf=0.0626225695
		6:[f1<68.4167023] yes=13,no=14,missing=13
			13:leaf=-0.0512902252
			14:leaf=0.100327291
booster[31]:
0:[f7<0.365410775] yes=1,no=2,missing=1
	1:[f1<10.0838642] yes=3,no=4,missing=3
		3:[f0<0.0353526175] yes=7,no=8,missing=7
			7:leaf=-0.0435129665
			8:leaf=0.0126587003
		4:[f1<24.1297436] yes=9,no=10,missing=9
			9:leaf=-0.048605524
			10:leaf=-0.0560515597
	2:[f0<0.252361208] yes=5,no=6,missing=5
		5:[f1<17.9226913] yes=11,no=12,missing=11
			11:leaf=0.0104611302
			12:leaf=-0.0626225695
		6:[f1<68.4167023] yes=13,no=14,missing=13
			13:leaf=0.0512902252
			14:leaf=-0.100327291
booster[32]:
0:[f7<0.322906613] yes=1,no=2,missing=1
	1:[f6<0.0763194263] yes=3,no=4,missing=3
		3:[f1<19.4309616] yes=7,no=8,missing=7
			7:leaf=0.0496710129
			8:leaf=0.0553469546
		4:[f0<0.071213901] yes=9,no=10,missing=9
			9:leaf=0.0422531106
			10:leaf=-0.0370413661
	2:[f0<0.280427814] yes=5,no=6,missing=5
		5:[f3<12.7498255] yes=11,no=12,missing=11
			11:leaf=-0.00875878986
			12:leaf=0.0608139597
		6:[f1<31.5199738] yes=13,no=14,missing=13
			13:leaf=-0.0505713224
			14:leaf=0.0562421754
booster[33]:
0:[f7<0.322906613] yes=1,no=2,missing=1
	1:[f6<0.0763194263] yes=3,no=4,missing=3
		3:[f1<19.4309616] yes=7,no=8,missing=7
			7:leaf=-0.0496710166
			8:leaf=-0.0553469546
		4:[f0<0.071213901] yes=9,no=10,missing=9
			9:leaf=-0.0422531106
			10:leaf=0.0370413661
	2:[f0<0.280427814] yes=5,no=6,missing=5
		5:[f3<12.7498255] yes=11,no=12,missing=11
			11:leaf=0.008758788
			12:leaf=-0.0608139597
		6:[f1<31.5199738] yes=13,no=14,missing=13
			13:leaf=0.0505713224
			14:leaf=-0.0562421754
booster[34]:
0:[f2<0.199615568] yes=1,no=2,missing=1
	1:[f1<10.0838642] yes=3,no=4,missing=3
		3:[f0<0.0276927352] yes=7,no=8,missing=7
			7:leaf=0.0388277099
			8:leaf=-0.015917344
		4:[f1<19.4309616] yes=9,no=10,missing=9
			9:leaf=0.0429888926
			10:leaf=0.0547316968
	2:[f0<0.0721606016] yes=5,no=6,missing=5
		5:[f2<0.931645036] yes=11,no=12,missing=11
			11:leaf=-0.000388631102
			12:leaf=-0.0501450188
		6:[f0<0.611203074] yes=13,no=14,missing=13
			13:leaf=-0.036504969
			14:leaf=-0.0524562784
booster[35]:
0:[f2<0.199615568] yes=1,no=2,missing=1
	1:[f1<10.0838642] yes=3,no=4,missing=3
		3:[f0<0.0276927352] yes=7,no=8,missing=7
			7:leaf=-0.0388277099
			8:leaf=0.015917344
		4:[f1<19.4309616] yes=9,no=10,missing=9
			9:leaf=-0.0429888815
			10:leaf=-0.0547316968
	2:[f0<0.0721606016] yes=5,no=6,missing=5
		5:[f2<0.931645036] yes=11,no=12,missing=11
			11:leaf=0.000388633925
			12:leaf=0.05014503
		6:[f0<0.611203074] yes=13,no=14,missing=13
			13:leaf=0.0365049727
			14:leaf=0.0524562784
booster[36]:
0:[f7<0.322906613] yes=1,no=2,missing=1
	1:[f6<0.0763194263] yes=3,no=4,missing=3
		3:[f1<19.4309616] yes=7,no=8,missing=7
			7:leaf=0.0477651767
			8:leaf=0.0542403236
		4:[f0<0.0435295701] yes=9,no=10,missing=9
			9:leaf=0.0414770953
			10:leaf=-0.0243756119
	2:[f0<0.280427814] yes=5,no=6,missing=5
		5:[f7<0.880537629] yes=11,no=12,missing=11
			11:leaf=0.0105002485
			12:leaf=-0.0301214643
		6:[f1<31.5199738] yes=13,no=14,missing=13
			13:leaf=-0.0484989733
			14:leaf=0.0486059524
booster[37]:
0:[f7<0.322906613] yes=1,no=2,missing=1
	1:[f6<0.0763194263] yes=3,no=4,missing=3
		3:[f1<19.4309616] yes=7,no=8,missing=7
			7:leaf=-0.0477651767
			8:leaf=-0.0542403162
		4:[f0<0.0435295701] yes=9,no=10,missing=9
			9:leaf=-0.0414770991
			10:leaf=0.0243756101
	2:[f0<0.280427814] yes=5,no=6,missing=5
		5:[f7<0.880537629] yes=11,no=12,missing=11
			11:leaf=-0.0105002504
			12:leaf=0.0301214643
		6:[f1<31.5199738] yes=13,no=14,missing=13
			13:leaf=0.0484989733
			14:leaf=-0.0486059487
booster[38]:
0:[f1<6.42668152] yes=1,no=2,missing=1
	1:[f0<0.280530661] yes=3,no=4,missing=3
		3:[f7<0.722949386] yes=7,no=8,missing=7
			7:leaf=0.0153400293
			8:leaf=-0.0213240478
		4:[f7<0.0481283441] yes=9,no=10,missing=9
			9:leaf=0.0473754741
			10:leaf=-0.0482061133
	2:[f1<17.3503227] yes=5,no=6,missing=5
		5:[f0<0.0435295701] yes=11,no=12,missing=11
			11:leaf=0.0439812019
			12:leaf=-0.0252025425
		6:[f0<0.762964308] yes=13,no=14,missing=13
			13:leaf=0.0536290966
			14:leaf=0.000849544944
booster[39]:
0:[f1<6.42668152] yes=1,no=2,missing=1
	1:[f0<0.280530661] yes=3,no=4,missing=3
		3:[f7<0.722949386] yes=7,no=8,missing=7
			7:leaf=-0.0153400302
			8:leaf=0.0213240478
		4:[f7<0.0481283441] yes=9,no=10,missing=9
			9:leaf=-0.0473754667
			10:leaf=0.0482061133
	2:[f1<17.3503227] yes=5,no=6,missing=5
		5:[f0<0.0435295701] yes=11,no=12,missing=11
			11:leaf=-0.0439811982
			12:leaf=0.0252025481
		6:[f0<0.762964308] yes=13,no=14,missing=13
			13:leaf=-0.0536290966
			14:leaf=-0.000849537377
booster[40]:
0:[f1<6.85789728] yes=1,no=2,missing=1
	1:[f0<0.280956745] yes=3,no=4,missing=3
		3:[f21<0.0434801653] yes=7,no=8,missing=7
			7:leaf=-0.00986051932
			8:leaf=0.0340409689
		4:[f7<0.0481283441] yes=9,no=10,missing=9
			9:leaf=0.0457443744
			10:leaf=-0.0471918024
	2:[f6<0.06642887] yes=5,no=6,missing=5
		5:[f1<28.4209404] yes=11,no=12,missing=11
			11:leaf=0.04878214
			12:leaf=0.0534856208
		6:[f0<0.254422009] yes=13,no=14,missing=13
			13:leaf=0.0375026055
			14:leaf=-0.0486220829
booster[41]:
0:[f1<6.85789728] yes=1,no=2,missing=1
	1:[f0<0.280956745] yes=3,no=4,missing=3
		3:[f21<0.0434801653] yes=7,no=8,missing=7
			7:leaf=0.00986052211
			8:leaf=-0.0340409689
		4:[f7<0.0481283441] yes=9,no=10,missing=9
			9:leaf=-0.0457443744
			10:leaf=0.047191795
	2:[f6<0.06642887] yes=5,no=6,missing=5
		5:[f1<28.4197769] yes=11,no=12,missing=11
			11:leaf=-0.0487819128
			12:leaf=-0.0534856133
		6:[f0<0.254422009] yes=13,no=14,missing=13
			13:leaf=-0.0375026055
			14:leaf=0.0486220829
booster[42]:
0:[f7<0.277126789] yes=1,no=2,missing=1
	1:[f6<0.0591500774] yes=3,no=4,missing=3
		3:[f1<22.4841995] yes=7,no=8,missing=7
			7:leaf=0.0475973971
			8:leaf=0.0530605987
		4:[f0<0.0552877486] yes=9,no=10,missing=9
			9:leaf=0.0401839763
			10:leaf=-0.0350432247
	2:[f0<0.37351197] yes=5,no=6,missing=5
		5:[f5<10.5] yes=11,no=12,missing=11
			11:leaf=0.00261114794
			12:leaf=-0.0685501918
		6:[f1<24.2678604] yes=13,no=14,missing=13
			13:leaf=-0.0466376357
			14:leaf=0.0385199077
booster[43]:
0:[f7<0.277126789] yes=1,no=2,missing=1
	1:[f6<0.0591500774] yes=3,no=4,missing=3
		3:[f1<22.4856796] yes=7,no=8,missing=7
			7:leaf=-0.0475977063
			8:leaf=-0.0530605912
		4:[f0<0.0552877486] yes=9,no=10,missing=9
			9:leaf=-0.0401839763
			10:leaf=0.0350432284
	2:[f0<0.37351197] yes=5,no=6,missing=5
		5:[f5<10.5] yes=11,no=12,missing=11
			11:leaf=-0.00261114887
			12:leaf=0.0685501918
		6:[f1<24.2678604] yes=13,no=14,missing=13
			13:leaf=0.0466376394
			14:leaf=-0.038519904
booster[44]:
0:[f1<8.11551094] yes=1,no=2,missing=1
	1:[f7<0.880537629] yes=3,no=4,missing=3
		3:[f0<0.021394074] yes=7,no=8,missing=7
			7:leaf=0.0220607203
			8:leaf=-0.0190345068
		4:[f0<0.589494586] yes=9,no=10,missing=9
			9:leaf=-0.0287700742
			10:leaf=-0.0503845774
	2:[f1<19.4309616] yes=5,no=6,missing=5
		5:[f0<0.0337070525] yes=11,no=12,missing=11
			11:leaf=0.0442558639
			12:leaf=-0.0223600343
		6:[f0<0.578851342] yes=13,no=14,missing=13
			13:leaf=0.0525848083
			14:leaf=0.0235411432
booster[45]:
0:[f1<8.11551094] yes=1,no=2,missing=1
	1:[f7<0.880537629] yes=3,no=4,missing=3
		3:[f0<0.021394074] yes=7,no=8,missing=7
			7:leaf=-0.0220607203
			8:leaf=0.0190345068
		4:[f0<0.589494586] yes=9,no=10,missing=9
			9:leaf=0.028770078
			10:leaf=0.0503845774
	2:[f1<19.4309616] yes=5,no=6,missing=5
		5:[f0<0.0337070525] yes=11,no=12,missing=11
			11:leaf=-0.0442558639
			12:leaf=0.0223600399
		6:[f0<0.578851342] yes=13,no=14,missing=13
			13:leaf=-0.0525848083
			14:leaf=-0.0235411357
booster[46]:
0:[f7<0.169842377] yes=1,no=2,missing=1
	1:[f6<0.0591500774] yes=3,no=4,missing=3
		3:[f1<22.4841995] yes=7,no=8,missing=7
			7:leaf=0.0462024473
			8:leaf=0.0524308942
		4:[f0<0.0729271173] yes=9,no=10,missing=9
			9:leaf=0.0393596329
			10:leaf=-0.0576496124
	2:[f0<0.37351197] yes=5,no=6,missing=5
		5:[f1<20.1689873] yes=11,no=12,missing=11
			11:leaf=-0.00534780463
			12:leaf=0.0517147072
		6:[f0<0.759899259] yes=13,no=14,missing=13
			13:leaf=-0.0339190885
			14:leaf=-0.0495738834
booster[47]:
0:[f7<0.169842377] yes=1,no=2,missing=1
	1:[f6<0.0591500774] yes=3,no=4,missing=3
		3:[f1<22.4856796] yes=7,no=8,missing=7
			7:leaf=-0.0462027863
			8:leaf=-0.0524308942
		4:[f0<0.0729271173] yes=9,no=10,missing=9
			9:leaf=-0.0393596366
			10:leaf=0.0576496124
	2:[f0<0.37351197] yes=5,no=6,missing=5
		5:[f1<20.1689873] yes=11,no=12,missing=11
			11:leaf=0.0053478051
			12:leaf=-0.0517147072
		6:[f0<0.759899259] yes=13,no=14,missing=13
			13:leaf=0.0339190848
			14:leaf=0.0495738834
booster[48]:
0:[f1<8.11551094] yes=1,no=2,missing=1
	1:[f7<0.896497846] yes=3,no=4,missing=3
		3:[f0<0.021394074] yes=7,no=8,missing=7
			7:leaf=0.0193720981
			8:leaf=-0.0174545031
		4:[f0<0.611271143] yes=9,no=10,missing=9
			9:leaf=-0.0282599162
			10:leaf=-0.0498269089
	2:[f1<19.4309616] yes=5,no=6,missing=5
		5:[f0<0.0293510258] yes=11,no=12,missing=11
			11:leaf=0.042944286
			12:leaf=-0.0182425678
		6:[f3<2.86701918] yes=13,no=14,missing=13
			13:leaf=0.0221731551
			14:leaf=0.0519500375
booster[49]:
0:[f1<8.11551094] yes=1,no=2,missing=1
	1:[f7<0.896497846] yes=3,no=4,missing=3
		3:[f0<0.021394074] yes=7,no=8,missing=7
			7:leaf=-0.0193720981
			8:leaf=0.0174545031
		4:[f0<0.611271143] yes=9,no=10,missing=9
			9:leaf=0.0282599162
			10:leaf=0.0498269163
	2:[f1<19.4309616] yes=5,no=6,missing=5
		5:[f0<0.0293510258] yes=11,no=12,missing=11
			11:leaf=-0.0429442823
			12:leaf=0.0182425752
		6:[f3<2.86701918] yes=13,no=14,missing=13
			13:leaf=-0.0221731532
			14:leaf=-0.0519500375
booster[50]:
0:[f7<0.125249088] yes=1,no=2,missing=1
	1:[f6<0.058534272] yes=3,no=4,missing=3
		3:[f1<28.4197769] yes=7,no=8,missing=7
			7:leaf=0.0454739258
			8:leaf=0.0519917682
		4:[f0<0.051110208] yes=9,no=10,missing=9
			9:leaf=0.0407416001
			10:leaf=-0.050391417
	2:[f0<0.37351197] yes=5,no=6,missing=5
		5:[f5<10.5] yes=11,no=12,missing=11
			11:leaf=0.0073558162
			12:leaf=-0.0669197068
		6:[f0<0.759899259] yes=13,no=14,missing=13
			13:leaf=-0.032164555
			14:leaf=-0.0487556942
booster[51]:
0:[f7<0.125249088] yes=1,no=2,missing=1
	1:[f6<0.058534272] yes=3,no=4,missing=3
		3:[f1<28.4209404] yes=7,no=8,missing=7
			7:leaf=-0.0454741865
			8:leaf=-0.0519917719
		4:[f0<0.051110208] yes=9,no=10,missing=9
			9:leaf=-0.0407416001
			10:leaf=0.0503914244
	2:[f0<0.37351197] yes=5,no=6,missing=5
		5:[f5<10.5] yes=11,no=12,missing=11
			11:leaf=-0.0073558162
			12:leaf=0.0669197068
		6:[f0<0.759899259] yes=13,no=14,missing=13
			13:leaf=0.032164555
			14:leaf=0.0487557016
booster[52]:
0:[f3<6.20592976] yes=1,no=2,missing=1
	1:[f2<0.786874294] yes=3,no=4,missing=3
		3:[f5<10.5] yes=7,no=8,missing=7
			7:leaf=0.0067651826
			8:leaf=-0.0537696593
		4:[f0<0.606815994] yes=9,no=10,missing=9
			9:leaf=-0.027244499
			10:leaf=-0.0486453213
	2:[f1<14.2048073] yes=5,no=6,missing=5
		5:[f0<0.031319797] yes=11,no=12,missing=11
			11:leaf=0.0381090939
			12:leaf=-0.0181872938
		6:[f1<24.4442368] yes=13,no=14,missing=13
			13:leaf=0.0397513174
			14:leaf=0.0517243519
booster[53]:
0:[f3<6.20592976] yes=1,no=2,missing=1
	1:[f2<0.786874294] yes=3,no=4,missing=3
		3:[f5<10.5] yes=7,no=8,missing=7
			7:leaf=-0.00676518166
			8:leaf=0.0537696555
		4:[f0<0.606815994] yes=9,no=10,missing=9
			9:leaf=0.027244499
			10:leaf=0.0486453176
	2:[f1<14.2048073] yes=5,no=6,missing=5
		5:[f0<0.031319797] yes=11,no=12,missing=11
			11:leaf=-0.0381090902
			12:leaf=0.0181872938
		6:[f1<24.4442368] yes=13,no=14,missing=13
			13:leaf=-0.0397513136
			14:leaf=-0.0517243519
booster[54]:
0:[f7<0.102179423] yes=1,no=2,missing=1
	1:[f6<0.0567588508] yes=3,no=4,missing=3
		3:[f1<22.4841995] yes=7,no=8,missing=7
			7:leaf=0.0436678007
			8:leaf=0.0514972508
		4:[f0<0.051110208] yes=9,no=10,missing=9
			9:leaf=0.0411948226
			10:leaf=-0.0548765548
	2:[f0<0.401440203] yes=5,no=6,missing=5
		5:[f3<18.4346313] yes=11,no=12,missing=11
			11:leaf=-0.00316039915
			12:leaf=0.0512855537
		6:[f1<68.4167023] yes=13,no=14,missing=13
			13:leaf=-0.0425028168
			14:leaf=0.0760454014
booster[55]:
0:[f7<0.102179423] yes=1,no=2,missing=1
	1:[f6<0.0567588508] yes=3,no=4,missing=3
		3:[f1<22.4841995] yes=7,no=8,missing=7
			7:leaf=-0.0436678044
			8:leaf=-0.0514972508
		4:[f0<0.051110208] yes=9,no=10,missing=9
			9:leaf=-0.0411948189
			10:leaf=0.0548765473
	2:[f0<0.401440203] yes=5,no=6,missing=5
		5:[f3<18.4346313] yes=11,no=12,missing=11
			11:leaf=0.00316039892
			12:leaf=-0.0512855537
		6:[f1<68.4167023] yes=13,no=14,missing=13
			13:leaf=0.0425028205
			14:leaf=-0.0760454014
booster[56]:
0:[f7<0.0986719579] yes=1,no=2,missing=1
	1:[f6<0.0454449728] yes=3,no=4,missing=3
		3:[f5<10.5] yes=7,no=8,missing=7
			7:leaf=0.0510167666
			8:leaf=0.0377353542
		4:[f0<0.0508936644] yes=9,no=10,missing=9
			9:leaf=0.0422320403
			10:leaf=-0.0432905518
	2:[f0<0.432281077] yes=5,no=6,missing=5
		5:[f3<18.4346313] yes=11,no=12,missing=11
			11:leaf=-0.00296558649
			12:leaf=0.0506192334
		6:[f0<0.803515792] yes=13,no=14,missing=13
			13:leaf=-0.0315268151
			14:leaf=-0.0479714386
booster[57]:
0:[f7<0.0986719579] yes=1,no=2,missing=1
	1:[f6<0.0454449728] yes=3,no=4,missing=3
		3:[f5<10.5] yes=7,no=8,missing=7
			7:leaf=-0.0510167666
			8:leaf=-0.0377353355
		4:[f0<0.0508936644] yes=9,no=10,missing=9
			9:leaf=-0.0422320329
			10:leaf=0.0432905741
	2:[f0<0.432281077] yes=5,no=6,missing=5
		5:[f3<18.4346313] yes=11,no=12,missing=11
			11:leaf=0.00296558649
			12:leaf=-0.0506192334
		6:[f0<0.803515792] yes=13,no=14,missing=13
			13:leaf=0.0315268189
			14:leaf=0.0479714386
booster[58]:
0:[f7<0.0809192359] yes=1,no=2,missing=1
	1:[f1<28.4197769] yes=3,no=4,missing=3
		3:[f0<0.0508391559] yes=7,no=8,missing=7
			7:leaf=0.0448043384
			8:leaf=-0.00297440565
		4:[f0<0.910174668] yes=9,no=10,missing=9
			9:leaf=0.051239606
			10:leaf=-0.0119901458
	2:[f0<0.280956745] yes=5,no=6,missing=5
		5:[f5<10.5] yes=11,no=12,missing=11
			11:leaf=0.00845062267
			12:leaf=-0.0598566718
		6:[f16<5.01576805] yes=13,no=14,missing=13
			13:leaf=-0.0401946157
			14:leaf=0.0034006217
booster[59]:
0:[f7<0.0809192359] yes=1,no=2,missing=1
	1:[f1<28.4197769] yes=3,no=4,missing=3
		3:[f0<0.0508391559] yes=7,no=8,missing=7
			7:leaf=-0.0448043421
			8:leaf=0.00297440798
		4:[f0<0.910174668] yes=9,no=10,missing=9
			9:leaf=-0.0512395985
			10:leaf=0.0119901439
	2:[f0<0.280956745] yes=5,no=6,missing=5
		5:[f5<10.5] yes=11,no=12,missing=11
			11:leaf=-0.0084506236
			12:leaf=0.0598566718
		6:[f16<5.01576805] yes=13,no=14,missing=13
			13:leaf=0.0401946232
			14:leaf=-0.00340061611
booster[60]:
0:[f1<13.789362] yes=1,no=2,missing=1
	1:[f2<0.520718217] yes=3,no=4,missing=3
		3:[f4<0.0802130699] yes=7,no=8,missing=7
			7:leaf=0.0196087826
			8:leaf=-0.0239862483
		4:[f2<0.931622744] yes=9,no=10,missing=9
			9:leaf=-0.0173229855
			10:leaf=-0.0449238494
	2:[f1<28.1509991] yes=5,no=6,missing=5
		5:[f0<0.0350351334] yes=11,no=12,missing=11
			11:leaf=0.0424926542
			12:leaf=-0.0211992543
		6:[f0<0.782786727] yes=13,no=14,missing=13
			13:leaf=0.0509686656
			14:leaf=-0.00832812395
booster[61]:
0:[f1<13.789362] yes=1,no=2,missing=1
	1:[f2<0.520718217] yes=3,no=4,missing=3
		3:[f4<0.0802130699] yes=7,no=8,missing=7
			7:leaf=-0.0196087807
			8:leaf=0.0239862502
		4:[f2<0.931622744] yes=9,no=10,missing=9
			9:leaf=0.0173229855
			10:leaf=0.0449238531
	2:[f1<28.1509991] yes=5,no=6,missing=5
		5:[f0<0.0350351334] yes=11,no=12,missing=11
			11:leaf=-0.0424926542
			12:leaf=0.0211992562
		6:[f0<0.782786727] yes=13,no=14,missing=13
			13:leaf=-0.0509686656
			14:leaf=0.00832815003
booster[62]:
0:[f7<0.0809192359] yes=1,no=2,missing=1
	1:[f1<28.4197769] yes=3,no=4,missing=3
		3:[f0<0.0346149206] yes=7,no=8,missing=7
			7:leaf=0.0445650145
			8:leaf=0.00200745254
		4:[f0<0.910174668] yes=9,no=10,missing=9
			9:leaf=0.0509501882
			10:leaf=-0.0105861202
	2:[f0<0.0260212123] yes=5,no=6,missing=5
		5:[f5<10.5] yes=11,no=12,missing=11
			11:leaf=0.0148744062
			12:leaf=-0.0640382394
		6:[f15<4.5] yes=13,no=14,missing=13
			13:leaf=-0.0320050903
			14:leaf=0.0223549847
booster[63]:
0:[f7<0.0809192359] yes=1,no=2,missing=1
	1:[f1<28.4197769] yes=3,no=4,missing=3
		3:[f0<0.0346149206] yes=7,no=8,missing=7
			7:leaf=-0.0445650108
			8:leaf=-0.00200744788
		4:[f0<0.910174668] yes=9,no=10,missing=9
			9:leaf=-0.0509501807
			10:leaf=0.0105861453
	2:[f0<0.0260212123] yes=5,no=6,missing=5
		5:[f5<10.5] yes=11,no=12,missing=11
			11:leaf=-0.014874408
			12:leaf=0.0640382394
		6:[f15<4.5] yes=13,no=14,missing=13
			13:leaf=0.0320050903
			14:leaf=-0.0223549828
booster[64]:
0:[f1<14.1515322] yes=1,no=2,missing=1
	1:[f7<0.896497846] yes=3,no=4,missing=3
		3:[f0<0.0206207037] yes=7,no=8,missing=7
			7:leaf=0.0188783836
			8:leaf=-0.0122467577
		4:[f2<0.948949039] yes=9,no=10,missing=9
			9:leaf=-0.022741884
			10:leaf=-0.0469185859
	2:[f1<28.1509991] yes=5,no=6,missing=5
		5:[f0<0.0259609818] yes=11,no=12,missing=11
			11:leaf=0.0425049625
			12:leaf=-0.013722335
		6:[f0<0.713606775] yes=13,no=14,missing=13
			13:leaf=0.0506532602
			14:leaf=-0.00177859608
booster[65]:
0:[f1<14.1515322] yes=1,no=2,missing=1
	1:[f7<0.896497846] yes=3,no=4,missing=3
		3:[f0<0.0206207037] yes=7,no=8,missing=7
			7:leaf=-0.0188783854
			8:leaf=0.0122467568
		4:[f2<0.948949039] yes=9,no=10,missing=9
			9:leaf=0.0227418747
			10:leaf=0.0469185933
	2:[f1<28.1509991] yes=5,no=6,missing=5
		5:[f0<0.0259609818] yes=11,no=12,missing=11
			11:leaf=-0.0425049588
			12:leaf=0.013722335
		6:[f0<0.713606775] yes=13,no=14,missing=13
			13:leaf=-0.0506532602
			14:leaf=0.00177860714
booster[66]:
0:[f7<0.0592009723] yes=1,no=2,missing=1
	1:[f1<28.4197769] yes=3,no=4,missing=3
		3:[f0<0.0278610289] yes=7,no=8,missing=7
			7:leaf=0.0455898345
			8:leaf=0.0180851351
		4:[f6<0.0433099754] yes=9,no=10,missing=9
			9:leaf=0.0507808924
			10:leaf=0.0452983491
	2:[f0<0.16951409] yes=5,no=6,missing=5
		5:[f3<14.7242146] yes=11,no=12,missing=11
			11:leaf=-4.11891924e-05
			12:leaf=0.0449704714
		6:[f0<0.759899259] yes=13,no=14,missing=13
			13:leaf=-0.0192143377
			14:leaf=-0.044713039
booster[67]:
0:[f7<0.0592009723] yes=1,no=2,missing=1
	1:[f1<28.4197769] yes=3,no=4,missing=3
		3:[f0<0.0278610289] yes=7,no=8,missing=7
			7:leaf=-0.0455898307
			8:leaf=-0.0180851351
		4:[f6<0.0433099754] yes=9,no=10,missing=9
			9:leaf=-0.0507808924
			10:leaf=-0.0452983603
	2:[f0<0.16951409] yes=5,no=6,missing=5
		5:[f3<14.7242146] yes=11,no=12,missing=11
			11:leaf=4.11876754e-05
			12:leaf=-0.0449704714
		6:[f0<0.759899259] yes=13,no=14,missing=13
			13:leaf=0.0192143321
			14:leaf=0.044713039
booster[68]:
0:[f7<0.0592009723] yes=1,no=2,missing=1
	1:[f1<28.4197769] yes=3,no=4,missing=3
		3:[f0<0.0245491564] yes=7,no=8,missing=7
			7:leaf=0.0453763828
			8:leaf=0.0180516746
		4:[f6<0.0433099754] yes=9,no=10,missing=9
			9:leaf=0.0506774262
			10:leaf=0.0447067618
	2:[f2<0.786874294] yes=5,no=6,missing=5
		5:[f5<10.5] yes=11,no=12,missing=11
			11:leaf=0.00938311219
			12:leaf=-0.0515195429
		6:[f2<0.946647525] yes=13,no=14,missing=13
			13:leaf=-0.0195898209
			14:leaf=-0.0450265333
booster[69]:
0:[f7<0.0592009723] yes=1,no=2,missing=1
	1:[f1<28.4197769] yes=3,no=4,missing=3
		3:[f0<0.0245491564] yes=7,no=8,missing=7
			7:leaf=-0.0453763753
			8:leaf=-0.0180516709
		4:[f6<0.0433099754] yes=9,no=10,missing=9
			9:leaf=-0.0506774262
			10:leaf=-0.0447067767
	2:[f2<0.786874294] yes=5,no=6,missing=5
		5:[f5<10.5] yes=11,no=12,missing=11
			11:leaf=-0.00938311312
			12:leaf=0.0515195429
		6:[f2<0.946647525] yes=13,no=14,missing=13
			13:leaf=0.0195898246
			14:leaf=0.0450265333
booster[70]:
0:[f7<0.0592009723] yes=1,no=2,missing=1
	1:[f1<28.4197769] yes=3,no=4,missing=3
		3:[f0<0.0245491564] yes=7,no=8,missing=7
			7:leaf=0.0447344892
			8:leaf=0.0167841446
		4:[f6<0.0433099754] yes=9,no=10,missing=9
			9:leaf=0.050581187
			10:leaf=0.0440836288
	2:[f0<0.0266169012] yes=5,no=6,missing=5
		5:[f21<0.039498359] yes=11,no=12,missing=11
			11:leaf=0.000221486393
			12:leaf=0.0400748178
		6:[f15<3.5] yes=13,no=14,missing=13
			13:leaf=-0.030661542
			14:leaf=0.00916286651
booster[71]:
0:[f7<0.0592009723] yes=1,no=2,missing=1
	1:[f1<28.4197769] yes=3,no=4,missing=3
		3:[f0<0.0245491564] yes=7,no=8,missing=7
			7:leaf=-0.0447344929
			8:leaf=-0.0167841464
		4:[f6<0.0433099754] yes=9,no=10,missing=9
			9:leaf=-0.0505811833
			10:leaf=-0.0440836176
	2:[f0<0.0266169012] yes=5,no=6,missing=5
		5:[f21<0.039498359] yes=11,no=12,missing=11
			11:leaf=-0.000221485956
			12:leaf=-0.0400748216
		6:[f15<3.5] yes=13,no=14,missing=13
			13:leaf=0.0306615364
			14:leaf=-0.00916286465
booster[72]:
0:[f1<17.3503227] yes=1,no=2,missing=1
	1:[f18<0.033458896] yes=3,no=4,missing=3
		3:[f0<0.0214796364] yes=7,no=8,missing=7
			7:leaf=-0.000766167184
			8:leaf=-0.0308644921
		4:[f7<0.722949386] yes=9,no=10,missing=9
			9:leaf=0.0251916852
			10:leaf=-0.0110157318
	2:[f1<32.6197815] yes=5,no=6,missing=5
		5:[f0<0.053297013] yes=11,no=12,missing=11
			11:leaf=0.0393612348
			12:leaf=-0.0229057577
		6:[f0<0.780164063] yes=13,no=14,missing=13
			13:leaf=0.0502793267
			14:leaf=-0.0139164403
booster[73]:
0:[f1<17.3503227] yes=1,no=2,missing=1
	1:[f18<0.033458896] yes=3,no=4,missing=3
		3:[f0<0.0214796364] yes=7,no=8,missing=7
			7:leaf=0.000766162935
			8:leaf=0.0308644958
		4:[f7<0.722949386] yes=9,no=10,missing=9
			9:leaf=-0.0251916889
			10:leaf=0.0110157309
	2:[f1<32.6197815] yes=5,no=6,missing=5
		5:[f0<0.053297013] yes=11,no=12,missing=11
			11:leaf=-0.0393612348
			12:leaf=0.0229057502
		6:[f0<0.780164063] yes=13,no=14,missing=13
			13:leaf=-0.0502793267
			14:leaf=0.0139163909
booster[74]:
0:[f1<18.2727432] yes=1,no=2,missing=1
	1:[f4<0.151622877] yes=3,no=4,missing=3
		3:[f2<0.897761345] yes=7,no=8,missing=7
			7:leaf=0.0109239416
			8:leaf=-0.0330968499
		4:[f12<0.00642013922] yes=9,no=10,missing=9
			9:leaf=-0.0413860269
			10:leaf=0.0124904914
	2:[f1<32.6197815] yes=5,no=6,missing=5
		5:[f0<0.053297013] yes=11,no=12,missing=11
			11:leaf=0.0392732322
			12:leaf=-0.0201923288
		6:[f3<2.85145569] yes=13,no=14,missing=13
			13:leaf=0.0104093626
			14:leaf=0.0502302125
booster[75]:
0:[f1<18.2727432] yes=1,no=2,missing=1
	1:[f4<0.151622877] yes=3,no=4,missing=3
		3:[f2<0.897761345] yes=7,no=8,missing=7
			7:leaf=-0.0109239407
			8:leaf=0.0330968648
		4:[f12<0.00642013922] yes=9,no=10,missing=9
			9:leaf=0.0413860343
			10:leaf=-0.0124904858
	2:[f1<32.6197815] yes=5,no=6,missing=5
		5:[f0<0.053297013] yes=11,no=12,missing=11
			11:leaf=-0.0392732359
			12:leaf=0.0201923307
		6:[f3<2.85145569] yes=13,no=14,missing=13
			13:leaf=-0.0104093608
			14:leaf=-0.0502302051
booster[76]:
0:[f7<0.0592009723] yes=1,no=2,missing=1
	1:[f1<28.4197769] yes=3,no=4,missing=3
		3:[f0<0.0214094222] yes=7,no=8,missing=7
			7:leaf=0.0439563133
			8:leaf=0.0161444433
		4:[f6<0.0433099754] yes=9,no=10,missing=9
			9:leaf=0.0503274761
			10:leaf=0.0417900085
	2:[f0<0.449940056] yes=5,no=6,missing=5
		5:[f20<0.274972081] yes=11,no=12,missing=11
			11:leaf=-0.00760753546
			12:leaf=0.0218606237
		6:[f7<0.206269607] yes=13,no=14,missing=13
			13:leaf=-0.0722178668
			14:leaf=-0.0314405859
booster[77]:
0:[f7<0.0592009723] yes=1,no=2,missing=1
	1:[f1<28.4197769] yes=3,no=4,missing=3
		3:[f0<0.0214094222] yes=7,no=8,missing=7
			7:leaf=-0.0439563058
			8:leaf=-0.0161444396
		4:[f6<0.0433099754] yes=9,no=10,missing=9
			9:leaf=-0.0503274687
			10:leaf=-0.0417899825
	2:[f0<0.449940056] yes=5,no=6,missing=5
		5:[f20<0.274972081] yes=11,no=12,missing=11
			11:leaf=0.00760753546
			12:leaf=-0.0218606237
		6:[f7<0.206269607] yes=13,no=14,missing=13
			13:leaf=0.0722178668
			14:leaf=0.0314405933
booster[78]:
0:[f1<19.4309616] yes=1,no=2,missing=1
	1:[f2<-0.876081705] yes=3,no=4,missing=3
		3:[f0<0.0240086615] yes=7,no=8,missing=7
			7:leaf=0.042314332
			8:leaf=0.0102259126
		4:[f4<0.155978233] yes=9,no=10,missing=9
			9:leaf=-0.00101356173
			10:leaf=-0.035939239
	2:[f1<43.533886] yes=5,no=6,missing=5
		5:[f0<0.053297013] yes=11,no=12,missing=11
			11:leaf=0.0409638695
			12:leaf=-0.0189497638
		6:[f3<1.75952232] yes=13,no=14,missing=13
			13:leaf=0.0153782098
			14:leaf=0.0502216816
booster[79]:
0:[f1<19.4309616] yes=1,no=2,missing=1
	1:[f2<-0.876081705] yes=3,no=4,missing=3
		3:[f0<0.0240086615] yes=7,no=8,missing=7
			7:leaf=-0.042314332
			8:leaf=-0.0102259135
		4:[f4<0.155978233] yes=9,no=10,missing=9
			9:leaf=0.00101356395
			10:leaf=0.0359392352
	2:[f1<43.533886] yes=5,no=6,missing=5
		5:[f0<0.053297013] yes=11,no=12,missing=11
			11:leaf=-0.0409638695
			12:leaf=0.0189497638
		6:[f3<1.75952232] yes=13,no=14,missing=13
			13:leaf=-0.0153782098
			14:leaf=-0.0502216779
booster[80]:
0:[f7<0.0454853103] yes=1,no=2,missing=1
	1:[f5<10.5] yes=3,no=4,missing=3
		3:[f18<2.08802521e-06] yes=7,no=8,missing=7
			7:leaf=0.0373984501
			8:leaf=0.0498160869
		4:[f0<0.0882740021] yes=9,no=10,missing=9
			9:leaf=0.0257010404
			10:leaf=-0.188838452
	2:[f0<0.449940056] yes=5,no=6,missing=5
		5:[f3<22.5125237] yes=11,no=12,missing=11
			11:leaf=-0.000555862964
			12:leaf=0.0473956279
		6:[f0<0.803504944] yes=13,no=14,missing=13
			13:leaf=-0.0208582766
			14:leaf=-0.0426058769
booster[81]:
0:[f7<0.0454853103] yes=1,no=2,missing=1
	1:[f5<10.5] yes=3,no=4,missing=3
		3:[f18<2.08802521e-06] yes=7,no=8,missing=7
			7:leaf=-0.0373984203
			8:leaf=-0.0498160832
		4:[f0<0.0882740021] yes=9,no=10,missing=9
			9:leaf=-0.0257010218
			10:leaf=0.188838482
	2:[f0<0.449940056] yes=5,no=6,missing=5
		5:[f3<22.5125237] yes=11,no=12,missing=11
			11:leaf=0.000555864011
			12:leaf=-0.0473956279
		6:[f0<0.803504944] yes=13,no=14,missing=13
			13:leaf=0.0208582748
			14:leaf=0.0426058769
booster[82]:
0:[f1<24.1297436] yes=1,no=2,missing=1
	1:[f18<0.033458896] yes=3,no=4,missing=3
		3:[f21<0.039502345] yes=7,no=8,missing=7
			7:leaf=-0.0198081415
			8:leaf=0.017832458
		4:[f7<0.722949386] yes=9,no=10,missing=9
			9:leaf=0.0231496729
			10:leaf=-0.0077438727
	2:[f3<8.39407349] yes=5,no=6,missing=5
		5:[f6<0.0454022959] yes=11,no=12,missing=11
			11:leaf=0.0490858071
			12:leaf=-0.0229758993
		6:[f0<0.810008049] yes=13,no=14,missing=13
			13:leaf=0.0494273379
			14:leaf=-0.0301329829
booster[83]:
0:[f1<24.1297436] yes=1,no=2,missing=1
	1:[f18<0.033458896] yes=3,no=4,missing=3
		3:[f21<0.039502345] yes=7,no=8,missing=7
			7:leaf=0.0198081434
			8:leaf=-0.017832458
		4:[f7<0.722949386] yes=9,no=10,missing=9
			9:leaf=-0.0231496748
			10:leaf=0.00774387363
	2:[f3<8.39407349] yes=5,no=6,missing=5
		5:[f6<0.0454022959] yes=11,no=12,missing=11
			11:leaf=-0.0490858108
			12:leaf=0.0229758974
		6:[f0<0.810008049] yes=13,no=14,missing=13
			13:leaf=-0.0494273342
			14:leaf=0.030133009
booster[84]:
0:[f7<0.0452145711] yes=1,no=2,missing=1
	1:[f5<10.5] yes=3,no=4,missing=3
		3:[f18<2.08802521e-06] yes=7,no=8,missing=7
			7:leaf=0.035844516
			8:leaf=0.0495554693
		4:[f6<0.013490079] yes=9,no=10,missing=9
			9:leaf=0.0375136621
			10:leaf=-0.0596236363
	2:[f0<0.0206207037] yes=5,no=6,missing=5
		5:[f10<0.848520398] yes=11,no=12,missing=11
			11:leaf=0.0240222309
			12:leaf=-0.0117431246
		6:[f15<2.5] yes=13,no=14,missing=13
			13:leaf=-0.0293958094
			14:leaf=0.00154487079
booster[85]:
0:[f7<0.0452145711] yes=1,no=2,missing=1
	1:[f5<10.5] yes=3,no=4,missing=3
		3:[f18<2.08802521e-06] yes=7,no=8,missing=7
			7:leaf=-0.0358445384
			8:leaf=-0.0495554768
		4:[f6<0.013490079] yes=9,no=10,missing=9
			9:leaf=-0.0375136547
			10:leaf=0.0596236773
	2:[f0<0.0206207037] yes=5,no=6,missing=5
		5:[f10<0.848520398] yes=11,no=12,missing=11
			11:leaf=-0.024022229
			12:leaf=0.0117431255
		6:[f15<2.5] yes=13,no=14,missing=13
			13:leaf=0.0293958131
			14:leaf=-0.00154487172
booster[86]:
0:[f1<24.4501572] yes=1,no=2,missing=1
	1:[f4<0.151622877] yes=3,no=4,missing=3
		3:[f2<0.925548911] yes=7,no=8,missing=7
			7:leaf=0.00951747596
			8:leaf=-0.0349414013
		4:[f12<-499.513672] yes=9,no=10,missing=9
			9:leaf=-0.0514773019
			10:leaf=-0.00743184239
	2:[f3<9.19673061] yes=5,no=6,missing=5
		5:[f6<0.0454022959] yes=11,no=12,missing=11
			11:leaf=0.0488483086
			12:leaf=-0.0193625353
		6:[f0<0.810008049] yes=13,no=14,missing=13
			13:leaf=0.049168963
			14:leaf=-0.0288674477
booster[87]:
0:[f1<24.4501572] yes=1,no=2,missing=1
	1:[f4<0.151622877] yes=3,no=4,missing=3
		3:[f2<0.925548911] yes=7,no=8,missing=7
			7:leaf=-0.00951747503
			8:leaf=0.0349414051
		4:[f12<-499.513672] yes=9,no=10,missing=9
			9:leaf=0.0514773093
			10:leaf=0.0074318382
	2:[f3<9.19673061] yes=5,no=6,missing=5
		5:[f6<0.0454022959] yes=11,no=12,missing=11
			11:leaf=-0.0488483086
			12:leaf=0.0193625335
		6:[f0<0.810008049] yes=13,no=14,missing=13
			13:leaf=-0.0491689593
			14:leaf=0.028867444
booster[88]:
0:[f7<0.0452145711] yes=1,no=2,missing=1
	1:[f5<10.5] yes=3,no=4,missing=3
		3:[f18<2.08802521e-06] yes=7,no=8,missing=7
			7:leaf=0.0337136313
			8:leaf=0.0492990278
		4:[f2<-0.902518034] yes=9,no=10,missing=9
			9:leaf=0.0241286829
			10:leaf=-0.114715695
	2:[f21<0.0359657072] yes=5,no=6,missing=5
		5:[f1<59.2145653] yes=11,no=12,missing=11
			11:leaf=-0.0119603314
			12:leaf=0.0487619378
		6:[f0<0.0219644606] yes=13,no=14,missing=13
			13:leaf=0.0337707624
			14:leaf=-0.00806371029
booster[89]:
0:[f7<0.0452145711] yes=1,no=2,missing=1
	1:[f5<10.5] yes=3,no=4,missing=3
		3:[f18<2.08802521e-06] yes=7,no=8,missing=7
			7:leaf=-0.0337135196
			8:leaf=-0.0492990203
		4:[f2<-0.902518034] yes=9,no=10,missing=9
			9:leaf=-0.0241287276
			10:leaf=0.114715628
	2:[f21<0.0359657072] yes=5,no=6,missing=5
		5:[f1<59.2145653] yes=11,no=12,missing=11
			11:leaf=0.0119603314
			12:leaf=-0.0487619378
		6:[f0<0.0219644606] yes=13,no=14,missing=13
			13:leaf=-0.0337707624
			14:leaf=0.00806370471
booster[90]:
0:[f1<27.9400902] yes=1,no=2,missing=1
	1:[f4<0.108489394] yes=3,no=4,missing=3
		3:[f2<0.925548911] yes=7,no=8,missing=7
			7:leaf=0.00971735176
			8:leaf=-0.0335634984
		4:[f12<-499.513672] yes=9,no=10,missing=9
			9:leaf=-0.046907749
			10:leaf=-0.00527156377
	2:[f3<2.84026718] yes=5,no=6,missing=5
		5:[f1<81.7382965] yes=11,no=12,missing=11
			11:leaf=-0.0436449088
			12:leaf=0.0533662252
		6:[f0<0.731571674] yes=13,no=14,missing=13
			13:leaf=0.0490402989
			14:leaf=-0.0175120439
booster[91]:
0:[f1<27.9400902] yes=1,no=2,missing=1
	1:[f4<0.108489394] yes=3,no=4,missing=3
		3:[f2<0.925548911] yes=7,no=8,missing=7
			7:leaf=-0.0097173471
			8:leaf=0.0335635021
		4:[f12<-499.513672] yes=9,no=10,missing=9
			9:leaf=0.046907749
			10:leaf=0.00527155958
	2:[f3<2.84026718] yes=5,no=6,missing=5
		5:[f1<81.7382965] yes=11,no=12,missing=11
			11:leaf=0.0436449125
			12:leaf=-0.0533662215
		6:[f0<0.731571674] yes=13,no=14,missing=13
			13:leaf=-0.0490403026
			14:leaf=0.0175120719
booster[92]:
0:[f7<0.0452145711] yes=1,no=2,missing=1
	1:[f5<10.5] yes=3,no=4,missing=3
		3:[f18<2.08802521e-06] yes=7,no=8,missing=7
			7:leaf=0.0314824767
			8:leaf=0.0490198955
		4:[f6<0.013490079] yes=9,no=10,missing=9
			9:leaf=0.0348531976
			10:leaf=-0.0473308787
	2:[f20<0.16837135] yes=5,no=6,missing=5
		5:[f21<0.043685589] yes=11,no=12,missing=11
			11:leaf=-0.01678822
			12:leaf=0.0157344509
		6:[f2<0.395015121] yes=13,no=14,missing=13
			13:leaf=0.0201668423
			14:leaf=-0.00834983401
booster[93]:
0:[f7<0.0452145711] yes=1,no=2,missing=1
	1:[f5<10.5] yes=3,no=4,missing=3
		3:[f18<2.08802521e-06] yes=7,no=8,missing=7
			7:leaf=-0.0314824097
			8:leaf=-0.0490199029
		4:[f6<0.013490079] yes=9,no=10,missing=9
			9:leaf=-0.0348532423
			10:leaf=0.0473310128
	2:[f20<0.16837135] yes=5,no=6,missing=5
		5:[f21<0.043685589] yes=11,no=12,missing=11
			11:leaf=0.01678822
			12:leaf=-0.0157344472
		6:[f2<0.395015121] yes=13,no=14,missing=13
			13:leaf=-0.0201668423
			14:leaf=0.00834983494
booster[94]:
0:[f1<28.1509991] yes=1,no=2,missing=1
	1:[f0<0.0213941336] yes=3,no=4,missing=3
		3:[f10<0.848520398] yes=7,no=8,missing=7
			7:leaf=0.0226077493
			8:leaf=-0.0103618233
		4:[f15<4.5] yes=9,no=10,missing=9
			9:leaf=-0.0204672664
			10:leaf=0.0164965577
	2:[f1<67.8673096] yes=5,no=6,missing=5
		5:[f0<0.0461876392] yes=11,no=12,missing=11
			11:leaf=0.042246677
			12:leaf=-0.0244915169
		6:[f0<0.901738703] yes=13,no=14,missing=13
			13:leaf=0.0500131436
			14:leaf=-0.0224457588
booster[95]:
0:[f1<28.1509991] yes=1,no=2,missing=1
	1:[f0<0.0213941336] yes=3,no=4,missing=3
		3:[f10<0.848520398] yes=7,no=8,missing=7
			7:leaf=-0.0226077493
			8:leaf=0.010361826
		4:[f15<4.5] yes=9,no=10,missing=9
			9:leaf=0.0204672646
			10:leaf=-0.0164965596
	2:[f1<67.8673096] yes=5,no=6,missing=5
		5:[f0<0.0461876392] yes=11,no=12,missing=11
			11:leaf=-0.0422466882
			12:leaf=0.0244915057
		6:[f0<0.901738703] yes=13,no=14,missing=13
			13:leaf=-0.0500131436
			14:leaf=0.0224457663
booster[96]:
0:[f1<32.5088043] yes=1,no=2,missing=1
	1:[f4<0.108489394] yes=3,no=4,missing=3
		3:[f2<0.926362634] yes=7,no=8,missing=7
			7:leaf=0.00911719911
			8:leaf=-0.0313314945
		4:[f12<-499.513672] yes=9,no=10,missing=9
			9:leaf=-0.0440124907
			10:leaf=-0.00495116645
	2:[f3<11.6754875] yes=5,no=6,missing=5
		5:[f16<85.7062149] yes=11,no=12,missing=11
			11:leaf=-0.0173246209
			12:leaf=0.0471490435
		6:[f0<0.810008049] yes=13,no=14,missing=13
			13:leaf=0.0492967814
			14:leaf=-0.0247122403
booster[97]:
0:[f1<32.5088043] yes=1,no=2,missing=1
	1:[f4<0.108489394] yes=3,no=4,missing=3
		3:[f2<0.926362634] yes=7,no=8,missing=7
			7:leaf=-0.00911719725
			8:leaf=0.0313315094
		4:[f12<-499.513672] yes=9,no=10,missing=9
			9:leaf=0.0440124981
			10:leaf=0.00495117484
	2:[f3<11.6754875] yes=5,no=6,missing=5
		5:[f16<85.7062149] yes=11,no=12,missing=11
			11:leaf=0.017324632
			12:leaf=-0.0471490473
		6:[f0<0.810008049] yes=13,no=14,missing=13
			13:leaf=-0.0492967777
			14:leaf=0.0247122217
booster[98]:
0:[f7<0.0452145711] yes=1,no=2,missing=1
	1:[f5<10.5] yes=3,no=4,missing=3
		3:[f18<2.08802521e-06] yes=7,no=8,missing=7
			7:leaf=0.0279277563
			8:leaf=0.0485588014
		4:[f2<-0.959791422] yes=9,no=10,missing=9
			9:leaf=0.0298367944
			10:leaf=-0.0502573363
	2:[f0<0.68071878] yes=5,no=6,missing=5
		5:[f5<10.5] yes=11,no=12,missing=11
			11:leaf=0.00407841336
			12:leaf=-0.0428494662
		6:[f17<16.4445381] yes=13,no=14,missing=13
			13:leaf=-0.0348633192
			14:leaf=0.0860981941
booster[99]:
0:[f7<0.0452145711] yes=1,no=2,missing=1
	1:[f5<10.5] yes=3,no=4,missing=3
		3:[f18<2.08802521e-06] yes=7,no=8,missing=7
			7:leaf=-0.0279276352
			8:leaf=-0.0485588126
		4:[f2<-0.959791422] yes=9,no=10,missing=9
			9:leaf=-0.0298368223
			10:leaf=0.0502572618
	2:[f0<0.68071878] yes=5,no=6,missing=5
		5:[f5<10.5] yes=11,no=12,missing=11
			11:leaf=-0.00407841383
			12:leaf=0.0428494662
		6:[f17<16.4445381] yes=13,no=14,missing=13
			13:leaf=0.0348633006
			14:leaf=-0.0860982016
booster[100]:
0:[f1<32.5088043] yes=1,no=2,missing=1
	1:[f21<0.0436870456] yes=3,no=4,missing=3
		3:[f9<0.999460816] yes=7,no=8,missing=7
			7:leaf=0.00234563835
			8:leaf=-0.0205795113
		4:[f0<0.0214682221] yes=9,no=10,missing=9
			9:leaf=0.0361519903
			10:leaf=-0.00738128508
	2:[f3<13.4710007] yes=5,no=6,missing=5
		5:[f16<85.7062149] yes=11,no=12,missing=11
			11:leaf=-0.0110328039
			12:leaf=0.0465135165
		6:[f0<0.810008049] yes=13,no=14,missing=13
			13:leaf=0.0491254441
			14:leaf=-0.0226287507
booster[101]:
0:[f1<32.5088043] yes=1,no=2,missing=1
	1:[f21<0.0436870456] yes=3,no=4,missing=3
		3:[f9<0.999460816] yes=7,no=8,missing=7
			7:leaf=-0.00234563625
			8:leaf=0.0205795132
		4:[f0<0.0214682221] yes=9,no=10,missing=9
			9:leaf=-0.0361519903
			10:leaf=0.00738128228
	2:[f3<13.4710007] yes=5,no=6,missing=5
		5:[f16<85.7062149] yes=11,no=12,missing=11
			11:leaf=0.01103283
			12:leaf=-0.046513509
		6:[f0<0.810008049] yes=13,no=14,missing=13
			13:leaf=-0.0491254441
			14:leaf=0.0226287562
booster[102]:
0:[f7<0.0333666578] yes=1,no=2,missing=1
	1:[f5<10.5] yes=3,no=4,missing=3
		3:[f18<2.08802521e-06] yes=7,no=8,missing=7
			7:leaf=0.0321811959
			8:leaf=0.0485820621
		4:[f0<0.0882740021] yes=9,no=10,missing=9
			9:leaf=0.0198710952
			10:leaf=-0.107848421
	2:[f18<0.0556229055] yes=5,no=6,missing=5
		5:[f4<0.179779157] yes=11,no=12,missing=11
			11:leaf=-0.00342653319
			12:leaf=-0.0325094573
		6:[f15<4.5] yes=13,no=14,missing=13
			13:leaf=0.00610273425
			14:leaf=0.0308539961
booster[103]:
0:[f7<0.0333666578] yes=1,no=2,missing=1
	1:[f5<10.5] yes=3,no=4,missing=3
		3:[f18<2.08802521e-06] yes=7,no=8,missing=7
			7:leaf=-0.0321811549
			8:leaf=-0.0485820733
		4:[f0<0.0882740021] yes=9,no=10,missing=9
			9:leaf=-0.019871071
			10:leaf=0.107848458
	2:[f18<0.0556229055] yes=5,no=6,missing=5
		5:[f4<0.179779157] yes=11,no=12,missing=11
			11:leaf=0.00342653133
			12:leaf=0.0325094536
		6:[f15<4.5] yes=13,no=14,missing=13
			13:leaf=-0.00610273564
			14:leaf=-0.0308540054
booster[104]:
0:[f1<32.5088043] yes=1,no=2,missing=1
	1:[f21<0.0497005619] yes=3,no=4,missing=3
		3:[f5<10.5] yes=7,no=8,missing=7
			7:leaf=-0.00222245394
			8:leaf=-0.0449960977
		4:[f0<0.0195083618] yes=9,no=10,missing=9
			9:leaf=0.0384546556
			10:leaf=-0.00622915477
	2:[f3<11.6754875] yes=5,no=6,missing=5
		5:[f16<85.7062149] yes=11,no=12,missing=11
			11:leaf=-0.0170710776
			12:leaf=0.0451885574
		6:[f0<0.810008049] yes=13,no=14,missing=13
			13:leaf=0.0487552546
			14:leaf=-0.0220477358
booster[105]:
0:[f1<32.5088043] yes=1,no=2,missing=1
	1:[f21<0.0497005619] yes=3,no=4,missing=3
		3:[f5<10.5] yes=7,no=8,missing=7
			7:leaf=0.00222245231
			8:leaf=0.0449960977
		4:[f0<0.0195083618] yes=9,no=10,missing=9
			9:leaf=-0.0384546556
			10:leaf=0.00622915709
	2:[f3<11.6754875] yes=5,no=6,missing=5
		5:[f16<85.7062149] yes=11,no=12,missing=11
			11:leaf=0.0170710888
			12:leaf=-0.0451885425
		6:[f0<0.810008049] yes=13,no=14,missing=13
			13:leaf=-0.0487552583
			14:leaf=0.0220477786
booster[106]:
0:[f2<-0.909257531] yes=1,no=2,missing=1
	1:[f1<31.845562] yes=3,no=4,missing=3
		3:[f0<0.334865183] yes=7,no=8,missing=7
			7:leaf=0.0298103932
			8:leaf=-0.0522016771
		4:[f3<7.14835453] yes=9,no=10,missing=9
			9:leaf=0.0240274239
			10:leaf=0.0495896451
	2:[f4<0.108489394] yes=5,no=6,missing=5
		5:[f2<0.949395299] yes=11,no=12,missing=11
			11:leaf=0.0060316287
			12:leaf=-0.0360972211
		6:[f12<-499.513672] yes=13,no=14,missing=13
			13:leaf=-0.0469094142
			14:leaf=-0.0042115422
booster[107]:
0:[f2<-0.909257531] yes=1,no=2,missing=1
	1:[f1<31.845562] yes=3,no=4,missing=3
		3:[f0<0.334865183] yes=7,no=8,missing=7
			7:leaf=-0.0298103876
			8:leaf=0.0522016697
		4:[f3<7.14835453] yes=9,no=10,missing=9
			9:leaf=-0.0240273755
			10:leaf=-0.0495896377
	2:[f4<0.108489394] yes=5,no=6,missing=5
		5:[f2<0.949395299] yes=11,no=12,missing=11
			11:leaf=-0.00603162451
			12:leaf=0.0360972136
		6:[f12<-499.513672] yes=13,no=14,missing=13
			13:leaf=0.046909418
			14:leaf=0.00421154592
booster[108]:
0:[f1<43.533886] yes=1,no=2,missing=1
	1:[f0<0.0213996768] yes=3,no=4,missing=3
		3:[f10<0.872461677] yes=7,no=8,missing=7
			7:leaf=0.020240359
			8:leaf=-0.0119941887
		4:[f15<2.5] yes=9,no=10,missing=9
			9:leaf=-0.0230019838
			10:leaf=0.00239323522
	2:[f1<92.4622192] yes=5,no=6,missing=5
		5:[f0<0.156237453] yes=11,no=12,missing=11
			11:leaf=0.0394640453
			12:leaf=-0.072163485
		6:leaf=0.0500100851
booster[109]:
0:[f1<43.533886] yes=1,no=2,missing=1
	1:[f0<0.0213996768] yes=3,no=4,missing=3
		3:[f10<0.872461677] yes=7,no=8,missing=7
			7:leaf=-0.0202403609
			8:leaf=0.0119941877
		4:[f15<2.5] yes=9,no=10,missing=9
			9:leaf=0.0230019856
			10:leaf=-0.00239323382
	2:[f1<92.4622192] yes=5,no=6,missing=5
		5:[f0<0.156237453] yes=11,no=12,missing=11
			11:leaf=-0.0394640379
			12:leaf=0.072163485
		6:leaf=-0.0500100851
booster[110]:
0:[f7<0.0333666578] yes=1,no=2,missing=1
	1:[f5<10.5] yes=3,no=4,missing=3
		3:[f18<2.08802521e-06] yes=7,no=8,missing=7
			7:leaf=0.0276368987
			8:leaf=0.0478669144
		4:[f6<0.00896597933] yes=9,no=10,missing=9
			9:leaf=0.0375256687
			10:leaf=-0.0293180048
	2:[f20<0.29018563] yes=5,no=6,missing=5
		5:[f12<0.00562642608] yes=11,no=12,missing=11
			11:leaf=-0.0116178421
			12:leaf=0.0166711304
		6:[f0<0.706986189] yes=13,no=14,missing=13
			13:leaf=0.0151798427
			14:leaf=-0.0331844725
booster[111]:
0:[f7<0.0333666578] yes=1,no=2,missing=1
	1:[f5<10.5] yes=3,no=4,missing=3
		3:[f18<2.08802521e-06] yes=7,no=8,missing=7
			7:leaf=-0.0276367906
			8:leaf=-0.0478669144
		4:[f6<0.00896597933] yes=9,no=10,missing=9
			9:leaf=-0.0375256725
			10:leaf=0.029318003
	2:[f20<0.29018563] yes=5,no=6,missing=5
		5:[f12<0.00562642608] yes=11,no=12,missing=11
			11:leaf=0.0116178421
			12:leaf=-0.0166711286
		6:[f0<0.706986189] yes=13,no=14,missing=13
			13:leaf=-0.0151798418
			14:leaf=0.033184465
booster[112]:
0:[f1<53.7345657] yes=1,no=2,missing=1
	1:[f18<0.040797513] yes=3,no=4,missing=3
		3:[f21<0.0376278684] yes=7,no=8,missing=7
			7:leaf=-0.0127450898
			8:leaf=0.0112527106
		4:[f2<-0.870660186] yes=9,no=10,missing=9
			9:leaf=0.0340199843
			10:leaf=0.005448109
	2:[f1<92.4622192] yes=5,no=6,missing=5
		5:[f0<0.156237453] yes=11,no=12,missing=11
			11:leaf=0.0405116901
			12:leaf=-0.0701758489
		6:leaf=0.0499407761
booster[113]:
0:[f1<53.7345657] yes=1,no=2,missing=1
	1:[f18<0.040797513] yes=3,no=4,missing=3
		3:[f21<0.0376278684] yes=7,no=8,missing=7
			7:leaf=0.0127450945
			8:leaf=-0.0112527106
		4:[f2<-0.870660186] yes=9,no=10,missing=9
			9:leaf=-0.0340199806
			10:leaf=-0.00544810854
	2:[f1<92.4622192] yes=5,no=6,missing=5
		5:[f0<0.156237453] yes=11,no=12,missing=11
			11:leaf=-0.0405118428
			12:leaf=0.0701758191
		6:leaf=-0.0499407761
booster[114]:
0:[f1<53.7345657] yes=1,no=2,missing=1
	1:[f9<1.30427706] yes=3,no=4,missing=3
		3:[f0<0.0206207037] yes=7,no=8,missing=7
			7:leaf=0.0149638755
			8:leaf=-0.00682939216
		4:[f21<0.0316715762] yes=9,no=10,missing=9
			9:leaf=-0.0210129749
			10:leaf=0.00280692847
	2:[f1<92.4622192] yes=5,no=6,missing=5
		5:[f0<0.156237453] yes=11,no=12,missing=11
			11:leaf=0.0396167897
			12:leaf=-0.0613280237
		6:leaf=0.0498879813
booster[115]:
0:[f1<53.7345657] yes=1,no=2,missing=1
	1:[f9<1.30427706] yes=3,no=4,missing=3
		3:[f0<0.0206207037] yes=7,no=8,missing=7
			7:leaf=-0.0149638774
			8:leaf=0.00682939216
		4:[f21<0.0316715762] yes=9,no=10,missing=9
			9:leaf=0.0210129693
			10:leaf=-0.00280692941
	2:[f1<92.4622192] yes=5,no=6,missing=5
		5:[f0<0.156237453] yes=11,no=12,missing=11
			11:leaf=-0.0396166928
			12:leaf=0.0613280311
		6:leaf=-0.049887985
booster[116]:
0:[f1<67.8673096] yes=1,no=2,missing=1
	1:[f2<0.946647525] yes=3,no=4,missing=3
		3:[f4<0.0635513365] yes=7,no=8,missing=7
			7:leaf=0.00746670133
			8:leaf=-0.0129910586
		4:[f9<-10.8348179] yes=9,no=10,missing=9
			9:leaf=0.071355097
			10:leaf=-0.034996856
	2:[f3<12.960535] yes=5,no=6,missing=5
		5:[f16<85.7062149] yes=11,no=12,missing=11
			11:leaf=-0.0593856387
			12:leaf=0.0410478935
		6:[f0<0.885758638] yes=13,no=14,missing=13
			13:leaf=0.0496986359
			14:leaf=-0.0190702807
booster[117]:
0:[f1<67.8673096] yes=1,no=2,missing=1
	1:[f2<0.946647525] yes=3,no=4,missing=3
		3:[f4<0.0635513365] yes=7,no=8,missing=7
			7:leaf=-0.00746669853
			8:leaf=0.012991068
		4:[f9<-10.8348179] yes=9,no=10,missing=9
			9:leaf=-0.0713551268
			10:leaf=0.0349968523
	2:[f3<12.960535] yes=5,no=6,missing=5
		5:[f16<85.7062149] yes=11,no=12,missing=11
			11:leaf=0.0593856685
			12:leaf=-0.0410478711
		6:[f0<0.885758638] yes=13,no=14,missing=13
			13:leaf=-0.0496986471
			14:leaf=0.0190702733
booster[118]:
0:[f7<0.0235471558] yes=1,no=2,missing=1
	1:[f5<10.5] yes=3,no=4,missing=3
		3:[f18<2.08802521e-06] yes=7,no=8,missing=7
			7:leaf=0.029547764
			8:leaf=0.0485192947
		4:[f22<0.254061908] yes=9,no=10,missing=9
			9:leaf=-0.164945289
			10:leaf=0.0133192409
	2:[f0<0.759899259] yes=5,no=6,missing=5
		5:[f5<10.5] yes=11,no=12,missing=11
			11:leaf=0.00334516424
			12:leaf=-0.0350988209
		6:[f16<8.54473591] yes=13,no=14,missing=13
			13:leaf=-0.0345769525
			14:leaf=0.0304586478
booster[119]:
0:[f7<0.0235471558] yes=1,no=2,missing=1
	1:[f5<10.5] yes=3,no=4,missing=3
		3:[f18<2.08802521e-06] yes=7,no=8,missing=7
			7:leaf=-0.0295479894
			8:leaf=-0.0485193096
		4:[f22<0.254061908] yes=9,no=10,missing=9
			9:leaf=0.164945558
			10:leaf=-0.013319172
	2:[f0<0.759899259] yes=5,no=6,missing=5
		5:[f5<10.5] yes=11,no=12,missing=11
			11:leaf=-0.00334516796
			12:leaf=0.0350988172
		6:[f16<8.54473591] yes=13,no=14,missing=13
			13:leaf=0.0345769674
			14:leaf=-0.0304586347
booster[120]:
0:[f1<67.8673096] yes=1,no=2,missing=1
	1:[f18<0.0332599208] yes=3,no=4,missing=3
		3:[f12<0.0102042966] yes=7,no=8,missing=7
			7:leaf=-0.0106610944
			8:leaf=0.0203095879
		4:[f2<-0.870660186] yes=9,no=10,missing=9
			9:leaf=0.0317362472
			10:leaf=0.00412353035
	2:[f3<12.960535] yes=5,no=6,missing=5
		5:[f10<0.867186308] yes=11,no=12,missing=11
			11:leaf=0.0394694768
			12:leaf=-0.060565073
		6:[f0<0.88551867] yes=13,no=14,missing=13
			13:leaf=0.0495826416
			14:leaf=-0.0180628579
booster[121]:
0:[f1<67.8673096] yes=1,no=2,missing=1
	1:[f18<0.0332599208] yes=3,no=4,missing=3
		3:[f12<0.0102042966] yes=7,no=8,missing=7
			7:leaf=0.0106610917
			8:leaf=-0.0203095861
		4:[f2<-0.870660186] yes=9,no=10,missing=9
			9:leaf=-0.0317362659
			10:leaf=-0.00412353082
	2:[f3<12.960535] yes=5,no=6,missing=5
		5:[f10<0.867186308] yes=11,no=12,missing=11
			11:leaf=-0.0394694768
			12:leaf=0.0605650321
		6:[f0<0.88551867] yes=13,no=14,missing=13
			13:leaf=-0.0495826527
			14:leaf=0.0180628952
booster[122]:
0:[f1<67.8673096] yes=1,no=2,missing=1
	1:[f21<0.0497005619] yes=3,no=4,missing=3
		3:[f9<0.999460816] yes=7,no=8,missing=7
			7:leaf=0.00283060735
			8:leaf=-0.0149362599
		4:[f0<0.0195083618] yes=9,no=10,missing=9
			9:leaf=0.0341546871
			10:leaf=-0.00571435411
	2:[f1<92.4622192] yes=5,no=6,missing=5
		5:[f11<5.01292658] yes=11,no=12,missing=11
			11:leaf=0.0492343009
			12:leaf=-0.0773159266
		6:[f1<126.575302] yes=13,no=14,missing=13
			13:leaf=0.0388042368
			14:leaf=0.0500906296
booster[123]:
0:[f1<67.8673096] yes=1,no=2,missing=1
	1:[f21<0.0497005619] yes=3,no=4,missing=3
		3:[f9<0.999460816] yes=7,no=8,missing=7
			7:leaf=-0.00283060712
			8:leaf=0.0149362599
		4:[f0<0.0195083618] yes=9,no=10,missing=9
			9:leaf=-0.0341546834
			10:leaf=0.00571435643
	2:[f1<92.4622192] yes=5,no=6,missing=5
		5:[f11<5.01292658] yes=11,no=12,missing=11
			11:leaf=-0.0492343046
			12:leaf=0.0773157552
		6:[f1<126.575302] yes=13,no=14,missing=13
			13:leaf=-0.0388042554
			14:leaf=-0.0500906296
booster[124]:
0:[f7<0.0235471558] yes=1,no=2,missing=1
	1:[f5<10.5] yes=3,no=4,missing=3
		3:[f18<2.08802521e-06] yes=7,no=8,missing=7
			7:leaf=0.0264330711
			8:leaf=0.0479994826
		4:[f6<0.00896597933] yes=9,no=10,missing=9
			9:leaf=0.0341564603
			10:leaf=-0.0336612947
	2:[f20<0.29018563] yes=5,no=6,missing=5
		5:[f12<0.0102041848] yes=11,no=12,missing=11
			11:leaf=-0.00961260498
			12:leaf=0.0163141601
		6:[f1<8.10658455] yes=13,no=14,missing=13
			13:leaf=0.00384684699
			14:leaf=0.026304448
booster[125]:
0:[f7<0.0235471558] yes=1,no=2,missing=1
	1:[f5<10.5] yes=3,no=4,missing=3
		3:[f18<2.08802521e-06] yes=7,no=8,missing=7
			7:leaf=-0.0264329258
			8:leaf=-0.0479995571
		4:[f6<0.00896597933] yes=9,no=10,missing=9
			9:leaf=-0.0341564864
			10:leaf=0.0336612724
	2:[f20<0.29018563] yes=5,no=6,missing=5
		5:[f12<0.0102041848] yes=11,no=12,missing=11
			11:leaf=0.00961260218
			12:leaf=-0.0163141638
		6:[f1<8.10658455] yes=13,no=14,missing=13
			13:leaf=-0.00384684466
			14:leaf=-0.0263044573
booster[126]:
0:[f3<37.1924324] yes=1,no=2,missing=1
	1:[f2<0.946647525] yes=3,no=4,missing=3
		3:[f4<0.0635513365] yes=7,no=8,missing=7
			7:leaf=0.00652810931
			8:leaf=-0.0120843742
		4:[f9<-10.8348179] yes=9,no=10,missing=9
			9:leaf=0.0647313222
			10:leaf=-0.0323686041
	2:[f0<0.810008049] yes=5,no=6,missing=5
		5:[f10<0.000403568672] yes=11,no=12,missing=11
			11:leaf=-0.0194749366
			12:leaf=0.0488955379
		6:[f1<92.7350006] yes=13,no=14,missing=13
			13:leaf=-0.0641348585
			14:leaf=0.0363582894
booster[127]:
0:[f3<37.1924324] yes=1,no=2,missing=1
	1:[f2<0.946647525] yes=3,no=4,missing=3
		3:[f4<0.0635513365] yes=7,no=8,missing=7
			7:leaf=-0.00652811024
			8:leaf=0.0120843677
		4:[f9<-10.8348179] yes=9,no=10,missing=9
			9:leaf=-0.0647314265
			10:leaf=0.0323685855
	2:[f0<0.810008049] yes=5,no=6,missing=5
		5:[f10<0.000403568672] yes=11,no=12,missing=11
			11:leaf=0.019474905
			12:leaf=-0.0488955639
		6:[f1<92.7350006] yes=13,no=14,missing=13
			13:leaf=0.0641348585
			14:leaf=-0.0363582745
booster[128]:
0:[f1<67.8673096] yes=1,no=2,missing=1
	1:[f0<0.0206207037] yes=3,no=4,missing=3
		3:[f10<0.848520398] yes=7,no=8,missing=7
			7:leaf=0.0192095079
			8:leaf=-0.0108902892
		4:[f17<15.0874538] yes=9,no=10,missing=9
			9:leaf=-0.0105544087
			10:leaf=0.0494079888
	2:[f1<126.575302] yes=5,no=6,missing=5
		5:[f11<5.01292658] yes=11,no=12,missing=11
			11:leaf=0.0431577414
			12:leaf=-0.0362000875
		6:leaf=0.0500395596
booster[129]:
0:[f1<67.8673096] yes=1,no=2,missing=1
	1:[f0<0.0206207037] yes=3,no=4,missing=3
		3:[f10<0.848520398] yes=7,no=8,missing=7
			7:leaf=-0.0192095041
			8:leaf=0.0108902892
		4:[f17<15.0874538] yes=9,no=10,missing=9
			9:leaf=0.0105544077
			10:leaf=-0.0494079888
	2:[f1<126.575302] yes=5,no=6,missing=5
		5:[f11<5.01292658] yes=11,no=12,missing=11
			11:leaf=-0.0431578457
			12:leaf=0.0361999907
		6:leaf=-0.0500395671
booster[130]:
0:[f7<0.0235471558] yes=1,no=2,missing=1
	1:[f5<10.5] yes=3,no=4,missing=3
		3:[f18<2.08802521e-06] yes=7,no=8,missing=7
			7:leaf=0.0234886613
			8:leaf=0.0473803245
		4:[f6<0.00896597933] yes=9,no=10,missing=9
			9:leaf=0.0323735364
			10:leaf=-0.0301438812
	2:[f21<0.032509923] yes=5,no=6,missing=5
		5:[f10<0.807916939] yes=11,no=12,missing=11
			11:leaf=0.00219969614
			12:leaf=-0.0185480639
		6:[f5<3] yes=13,no=14,missing=13
			13:leaf=0.0199239869
			14:leaf=-0.0161352176
booster[131]:
0:[f7<0.0235471558] yes=1,no=2,missing=1
	1:[f5<10.5] yes=3,no=4,missing=3
		3:[f18<2.08802521e-06] yes=7,no=8,missing=7
			7:leaf=-0.0234887656
			8:leaf=-0.0473803692
		4:[f6<0.00896597933] yes=9,no=10,missing=9
			9:leaf=-0.032373514
			10:leaf=0.0301437825
	2:[f21<0.032509923] yes=5,no=6,missing=5
		5:[f10<0.807916939] yes=11,no=12,missing=11
			11:leaf=-0.00219969894
			12:leaf=0.0185480621
		6:[f5<3] yes=13,no=14,missing=13
			13:leaf=-0.019923985
			14:leaf=0.0161352176
booster[132]:
0:[f1<92.4622192] yes=1,no=2,missing=1
	1:[f0<0.803504944] yes=3,no=4,missing=3
		3:[f4<0.0635513365] yes=7,no=8,missing=7
			7:leaf=0.00597157283
			8:leaf=-0.0109297475
		4:[f6<0.0524569154] yes=9,no=10,missing=9
			9:leaf=0.0650022626
			10:leaf=-0.0339187793
	2:[f1<126.575302] yes=5,no=6,missing=5
		5:[f14<0.0110929962] yes=11,no=12,missing=11
			11:leaf=0.0469781496
			12:leaf=-0.054525733
		6:leaf=0.0500094406
booster[133]:
0:[f1<92.4622192] yes=1,no=2,missing=1
	1:[f0<0.803504944] yes=3,no=4,missing=3
		3:[f4<0.0635513365] yes=7,no=8,missing=7
			7:leaf=-0.0059715691
			8:leaf=0.010929754
		4:[f6<0.0524569154] yes=9,no=10,missing=9
			9:leaf=-0.0650022626
			10:leaf=0.0339187831
	2:[f1<126.575302] yes=5,no=6,missing=5
		5:[f14<0.0110929962] yes=11,no=12,missing=11
			11:leaf=-0.0469781086
			12:leaf=0.0545263067
		6:leaf=-0.0500094406
booster[134]:
0:[f3<37.1924324] yes=1,no=2,missing=1
	1:[f18<0.055621326] yes=3,no=4,missing=3
		3:[f12<0.0102042966] yes=7,no=8,missing=7
			7:leaf=-0.00794415269
			8:leaf=0.0176317394
		4:[f2<-0.870660186] yes=9,no=10,missing=9
			9:leaf=0.0300618447
			10:leaf=0.00576391211
	2:[f0<0.267178863] yes=5,no=6,missing=5
		5:[f15<1.5] yes=11,no=12,missing=11
			11:leaf=0.0240264684
			12:leaf=0.0492265634
		6:[f1<68.0162811] yes=13,no=14,missing=13
			13:leaf=-0.0767253414
			14:leaf=0.0395053327
booster[135]:
0:[f3<37.1924324] yes=1,no=2,missing=1
	1:[f18<0.055621326] yes=3,no=4,missing=3
		3:[f12<0.0102042966] yes=7,no=8,missing=7
			7:leaf=0.00794415083
			8:leaf=-0.0176317468
		4:[f2<-0.870660186] yes=9,no=10,missing=9
			9:leaf=-0.030061854
			10:leaf=-0.00576391257
	2:[f0<0.267178863] yes=5,no=6,missing=5
		5:[f15<1.5] yes=11,no=12,missing=11
			11:leaf=-0.0240264628
			12:leaf=-0.0492265746
		6:[f1<68.0162811] yes=13,no=14,missing=13
			13:leaf=0.0767253265
			14:leaf=-0.0395053998
booster[136]:
0:[f1<92.4622192] yes=1,no=2,missing=1
	1:[f20<0.290161669] yes=3,no=4,missing=3
		3:[f4<0.28651765] yes=7,no=8,missing=7
			7:leaf=-0.00156857749
			8:leaf=-0.0242841281
		4:[f9<0.608659983] yes=9,no=10,missing=9
			9:leaf=0.0193154905
			10:leaf=-0.00106544956
	2:[f1<126.575302] yes=5,no=6,missing=5
		5:[f14<0.0110929962] yes=11,no=12,missing=11
			11:leaf=0.046350237
			12:leaf=-0.0532283559
		6:leaf=0.0499578267
booster[137]:
0:[f1<92.4622192] yes=1,no=2,missing=1
	1:[f20<0.290161669] yes=3,no=4,missing=3
		3:[f4<0.28651765] yes=7,no=8,missing=7
			7:leaf=0.00156857341
			8:leaf=0.0242841318
		4:[f9<0.608659983] yes=9,no=10,missing=9
			9:leaf=-0.0193154942
			10:leaf=0.00106544828
	2:[f1<126.575302] yes=5,no=6,missing=5
		5:[f14<0.0110929962] yes=11,no=12,missing=11
			11:leaf=-0.0463503413
			12:leaf=0.053229291
		6:leaf=-0.0499578379
booster[138]:
0:[f7<0.0235471558] yes=1,no=2,missing=1
	1:[f5<10.5] yes=3,no=4,missing=3
		3:[f18<2.08802521e-06] yes=7,no=8,missing=7
			7:leaf=0.0201290604
			8:leaf=0.0464571677
		4:[f22<0.254061908] yes=9,no=10,missing=9
			9:leaf=-0.147114307
			10:leaf=0.00785069168
	2:[f21<0.0497005619] yes=5,no=6,missing=5
		5:[f5<10.5] yes=11,no=12,missing=11
			11:leaf=-0.001912134
			12:leaf=-0.0372632742
		6:[f0<0.0195016563] yes=13,no=14,missing=13
			13:leaf=0.029832771
			14:leaf=-0.00391575834
booster[139]:
0:[f7<0.0235471558] yes=1,no=2,missing=1
	1:[f5<10.5] yes=3,no=4,missing=3
		3:[f18<2.08802521e-06] yes=7,no=8,missing=7
			7:leaf=-0.020128902
			8:leaf=-0.046457231
		4:[f22<0.254061908] yes=9,no=10,missing=9
			9:leaf=0.147114158
			10:leaf=-0.0078507727
	2:[f21<0.0497005619] yes=5,no=6,missing=5
		5:[f5<10.5] yes=11,no=12,missing=11
			11:leaf=0.00191213062
			12:leaf=0.0372632742
		6:[f0<0.0195016563] yes=13,no=14,missing=13
			13:leaf=-0.029832771
			14:leaf=0.00391576253
booster[140]:
0:[f1<92.4622192] yes=1,no=2,missing=1
	1:[f0<0.829772472] yes=3,no=4,missing=3
		3:[f10<0.886541247] yes=7,no=8,missing=7
			7:leaf=0.00581942918
			8:leaf=-0.00919059385
		4:[f16<8.54473591] yes=9,no=10,missing=9
			9:leaf=-0.0340088904
			10:leaf=0.0460449383
	2:[f1<126.575302] yes=5,no=6,missing=5
		5:[f14<0.0110929962] yes=11,no=12,missing=11
			11:leaf=0.0457837172
			12:leaf=-0.0489006229
		6:leaf=0.0499170721
booster[141]:
0:[f1<92.4622192] yes=1,no=2,missing=1
	1:[f0<0.829772472] yes=3,no=4,missing=3
		3:[f10<0.886541247] yes=7,no=8,missing=7
			7:leaf=-0.00581942685
			8:leaf=0.00919059478
		4:[f16<8.54473591] yes=9,no=10,missing=9
			9:leaf=0.0340088867
			10:leaf=-0.0460449345
	2:[f1<126.575302] yes=5,no=6,missing=5
		5:[f14<0.0110929962] yes=11,no=12,missing=11
			11:leaf=-0.0457836017
			12:leaf=0.0489009321
		6:leaf=-0.0499170758
booster[142]:
0:[f3<37.1924324] yes=1,no=2,missing=1
	1:[f2<0.953243196] yes=3,no=4,missing=3
		3:[f11<-0.804563046] yes=7,no=8,missing=7
			7:leaf=0.00626273546
			8:leaf=-0.00919942185
		4:[f6<0.0227179863] yes=9,no=10,missing=9
			9:leaf=0.0562961958
			10:leaf=-0.0318074934
	2:[f0<0.267178863] yes=5,no=6,missing=5
		5:[f22<0.250410169] yes=11,no=12,missing=11
			11:leaf=0.0194937121
			12:leaf=0.0488743298
		6:[f1<68.0162811] yes=13,no=14,missing=13
			13:leaf=-0.0693078712
			14:leaf=0.0359820686
booster[143]:
0:[f3<37.1924324] yes=1,no=2,missing=1
	1:[f2<0.953243196] yes=3,no=4,missing=3
		3:[f11<-0.804563046] yes=7,no=8,missing=7
			7:leaf=-0.00626273453
			8:leaf=0.00919942092
		4:[f6<0.0227179863] yes=9,no=10,missing=9
			9:leaf=-0.0562961958
			10:leaf=0.0318074934
	2:[f0<0.267178863] yes=5,no=6,missing=5
		5:[f22<0.250410169] yes=11,no=12,missing=11
			11:leaf=-0.0194924921
			12:leaf=-0.0488742702
		6:[f1<68.0162811] yes=13,no=14,missing=13
			13:leaf=0.0693078712
			14:leaf=-0.0359823145
booster[144]:
0:[f2<-0.963470459] yes=1,no=2,missing=1
	1:[f3<15.7805233] yes=3,no=4,missing=3
		3:[f15<5.5] yes=7,no=8,missing=7
			7:leaf=0.00538516231
			8:leaf=0.0434760228
		4:[f20<0.491244197] yes=9,no=10,missing=9
			9:leaf=0.0478347205
			10:leaf=-0.0246700421
	2:[f20<0.416735142] yes=5,no=6,missing=5
		5:[f0<0.0162226558] yes=11,no=12,missing=11
			11:leaf=0.00319784135
			12:leaf=-0.011690516
		6:[f16<2.483845] yes=13,no=14,missing=13
			13:leaf=0.00239872932
			14:leaf=0.0335516296
booster[145]:
0:[f2<-0.963470459] yes=1,no=2,missing=1
	1:[f3<15.7805233] yes=3,no=4,missing=3
		3:[f15<5.5] yes=7,no=8,missing=7
			7:leaf=-0.00538515812
			8:leaf=-0.0434760228
		4:[f20<0.491244197] yes=9,no=10,missing=9
			9:leaf=-0.0478347912
			10:leaf=0.0246693175
	2:[f20<0.416735142] yes=5,no=6,missing=5
		5:[f0<0.0162226558] yes=11,no=12,missing=11
			11:leaf=-0.00319784321
			12:leaf=0.0116905198
		6:[f16<2.483845] yes=13,no=14,missing=13
			13:leaf=-0.00239872816
			14:leaf=-0.0335516185
booster[146]:
0:[f1<92.4622192] yes=1,no=2,missing=1
	1:[f9<0.999014854] yes=3,no=4,missing=3
		3:[f0<0.0152289569] yes=7,no=8,missing=7
			7:leaf=0.0121368552
			8:leaf=-0.0042910534
		4:[f21<0.0316720381] yes=9,no=10,missing=9
			9:leaf=-0.0142162712
			10:leaf=0.00534372265
	2:[f1<126.575302] yes=5,no=6,missing=5
		5:[f1<120.003769] yes=11,no=12,missing=11
			11:leaf=0.0448917411
			12:leaf=-0.0552743487
		6:leaf=0.0498332344
booster[147]:
0:[f1<92.4622192] yes=1,no=2,missing=1
	1:[f9<0.999014854] yes=3,no=4,missing=3
		3:[f0<0.0152289569] yes=7,no=8,missing=7
			7:leaf=-0.012136857
			8:leaf=0.00429105386
		4:[f21<0.0316720381] yes=9,no=10,missing=9
			9:leaf=0.0142162694
			10:leaf=-0.00534372125
	2:[f1<126.575302] yes=5,no=6,missing=5
		5:[f1<120.003769] yes=11,no=12,missing=11
			11:leaf=-0.0448916033
			12:leaf=0.0552768074
		6:leaf=-0.0498332232
booster[148]:
0:[f7<0.0235471558] yes=1,no=2,missing=1
	1:[f5<10.5] yes=3,no=4,missing=3
		3:[f18<2.08802521e-06] yes=7,no=8,missing=7
			7:leaf=0.0160473026
			8:leaf=0.0451338552
		4:[f6<0.00896597933] yes=9,no=10,missing=9
			9:leaf=0.0287075769
			10:leaf=-0.0310516153
	2:[f5<3] yes=5,no=6,missing=5
		5:[f2<-0.0274623837] yes=11,no=12,missing=11
			11:leaf=0.0165975299
			12:leaf=-0.00391976815
		6:[f12<-499.515289] yes=13,no=14,missing=13
			13:leaf=-0.0385803469
			14:leaf=0.00680946512
booster[149]:
0:[f7<0.0235471558] yes=1,no=2,missing=1
	1:[f5<10.5] yes=3,no=4,missing=3
		3:[f18<2.08802521e-06] yes=7,no=8,missing=7
			7:leaf=-0.0160474163
			8:leaf=-0.0451339036
		4:[f6<0.00896597933] yes=9,no=10,missing=9
			9:leaf=-0.0287076086
			10:leaf=0.0310515948
	2:[f5<3] yes=5,no=6,missing=5
		5:[f2<-0.0274623837] yes=11,no=12,missing=11
			11:leaf=-0.0165975299
			12:leaf=0.00391976489
		6:[f12<-499.515289] yes=13,no=14,missing=13
			13:leaf=0.0385803469
			14:leaf=-0.00680946559
booster[150]:
0:[f1<92.4622192] yes=1,no=2,missing=1
	1:[f0<0.889234424] yes=3,no=4,missing=3
		3:[f10<0.886541247] yes=7,no=8,missing=7
			7:leaf=0.00518393237
			8:leaf=-0.00901217759
		4:[f16<2.5002389] yes=9,no=10,missing=9
			9:leaf=-0.039492961
			10:leaf=0.000770807324
	2:[f1<126.575302] yes=5,no=6,missing=5
		5:[f14<0.0110929962] yes=11,no=12,missing=11
			11:leaf=0.0442020595
			12:leaf=-0.0561471879
		6:leaf=0.0497716144
booster[151]:
0:[f1<92.4622192] yes=1,no=2,missing=1
	1:[f0<0.889234424] yes=3,no=4,missing=3
		3:[f10<0.886541247] yes=7,no=8,missing=7
			7:leaf=-0.00518393237
			8:leaf=0.00901217666
		4:[f16<2.5002389] yes=9,no=10,missing=9
			9:leaf=0.0394929722
			10:leaf=-0.000770784158
	2:[f1<126.575302] yes=5,no=6,missing=5
		5:[f14<0.0110929962] yes=11,no=12,missing=11
			11:leaf=-0.044202175
			12:leaf=0.0561474264
		6:leaf=-0.0497715957
booster[152]:
0:[f1<92.4622192] yes=1,no=2,missing=1
	1:[f2<0.946647525] yes=3,no=4,missing=3
		3:[f11<-0.355606556] yes=7,no=8,missing=7
			7:leaf=0.00546242623
			8:leaf=-0.00826038513
		4:[f2<0.978335261] yes=9,no=10,missing=9
			9:leaf=-0.01690281
			10:leaf=-0.0429634005
	2:[f1<126.575302] yes=5,no=6,missing=5
		5:[f1<120.003769] yes=11,no=12,missing=11
			11:leaf=0.0438546352
			12:leaf=-0.0550204813
		6:leaf=0.0497220419
booster[153]:
0:[f1<92.4622192] yes=1,no=2,missing=1
	1:[f2<0.946647525] yes=3,no=4,missing=3
		3:[f11<-0.355606556] yes=7,no=8,missing=7
			7:leaf=-0.00546242623
			8:leaf=0.00826037955
		4:[f2<0.978335261] yes=9,no=10,missing=9
			9:leaf=0.0169028305
			10:leaf=0.0429634079
	2:[f1<126.575302] yes=5,no=6,missing=5
		5:[f1<120.003769] yes=11,no=12,missing=11
			11:leaf=-0.0438544117
			12:leaf=0.0550181232
		6:leaf=-0.0497220345
booster[154]:
0:[f2<-0.963470459] yes=1,no=2,missing=1
	1:[f3<15.7805233] yes=3,no=4,missing=3
		3:[f15<5.5] yes=7,no=8,missing=7
			7:leaf=0.00364221632
			8:leaf=0.0422507972
		4:[f20<0.489812553] yes=9,no=10,missing=9
			9:leaf=0.0468742363
			10:leaf=-0.0246957857
	2:[f22<68.0631638] yes=5,no=6,missing=5
		5:[f21<0.0497005619] yes=11,no=12,missing=11
			11:leaf=-0.00369515992
			12:leaf=0.0141734751
		6:[f16<3.11821985] yes=13,no=14,missing=13
			13:leaf=0.0812396035
			14:leaf=0.0394055881
booster[155]:
0:[f2<-0.963470459] yes=1,no=2,missing=1
	1:[f3<15.7805233] yes=3,no=4,missing=3
		3:[f15<5.5] yes=7,no=8,missing=7
			7:leaf=-0.00364221376
			8:leaf=-0.0422507972
		4:[f20<0.489812553] yes=9,no=10,missing=9
			9:leaf=-0.0468739457
			10:leaf=0.024697639
	2:[f22<68.0631638] yes=5,no=6,missing=5
		5:[f21<0.0497005619] yes=11,no=12,missing=11
			11:leaf=0.00369517435
			12:leaf=-0.0141734732
		6:[f16<3.11821985] yes=13,no=14,missing=13
			13:leaf=-0.0812396035
			14:leaf=-0.0394055583
booster[156]:
0:[f1<126.575302] yes=1,no=2,missing=1
	1:[f0<0.269788474] yes=3,no=4,missing=3
		3:[f10<0.869064927] yes=5,no=6,missing=5
			5:leaf=0.00747467438
			6:leaf=-0.00741214631
		4:[f7<0.177911088] yes=7,no=8,missing=7
			7:leaf=-0.05857886
			8:leaf=-0.00627649808
	2:leaf=0.0496431515
booster[157]:
0:[f1<126.575302] yes=1,no=2,missing=1
	1:[f0<0.269788474] yes=3,no=4,missing=3
		3:[f10<0.869064927] yes=5,no=6,missing=5
			5:leaf=-0.00747467717
			6:leaf=0.00741214631
		4:[f7<0.177911088] yes=7,no=8,missing=7
			7:leaf=0.05857886
			8:leaf=0.00627649529
	2:leaf=-0.0496431999
booster[158]:
0:[f7<0.0150795784] yes=1,no=2,missing=1
	1:[f5<10.5] yes=3,no=4,missing=3
		3:[f18<0.0169066209] yes=7,no=8,missing=7
			7:leaf=0.0223219488
			8:leaf=0.0458899476
		4:[f22<4.58455086] yes=9,no=10,missing=9
			9:leaf=-0.10496705
			10:leaf=0.0178707596
	2:[f20<0.412641138] yes=5,no=6,missing=5
		5:[f0<0.0160341561] yes=11,no=12,missing=11
			11:leaf=0.0025814788
			12:leaf=-0.00986026507
		6:[f16<2.483845] yes=13,no=14,missing=13
			13:leaf=0.0017618807
			14:leaf=0.0295503717
booster[159]:
0:[f7<0.0150795784] yes=1,no=2,missing=1
	1:[f5<10.5] yes=3,no=4,missing=3
		3:[f18<0.0169066209] yes=7,no=8,missing=7
			7:leaf=-0.0223223008
			8:leaf=-0.0458901376
		4:[f22<4.58455086] yes=9,no=10,missing=9
			9:leaf=0.104967058
			10:leaf=-0.0178707596
	2:[f20<0.412641138] yes=5,no=6,missing=5
		5:[f0<0.0160341561] yes=11,no=12,missing=11
			11:leaf=-0.00258150348
			12:leaf=0.00986025389
		6:[f16<2.483845] yes=13,no=14,missing=13
			13:leaf=-0.00176187942
			14:leaf=-0.0295503791
booster[160]:
0:[f1<126.575302] yes=1,no=2,missing=1
	1:[f7<0.950043559] yes=3,no=4,missing=3
		3:[f11<-1.02017963] yes=5,no=6,missing=5
			5:leaf=0.00624183705
			6:leaf=-0.00668008998
		4:[f6<0.938519955] yes=7,no=8,missing=7
			7:leaf=-0.0410405137
			8:leaf=-0.00888739433
	2:leaf=0.0495544188
booster[161]:
0:[f1<126.575302] yes=1,no=2,missing=1
	1:[f7<0.950043559] yes=3,no=4,missing=3
		3:[f11<-1.02017963] yes=5,no=6,missing=5
			5:leaf=-0.00624183705
			6:leaf=0.00668008579
		4:[f6<0.938519955] yes=7,no=8,missing=7
			7:leaf=0.0410405137
			8:leaf=0.00888739992
	2:leaf=-0.0495545082
booster[162]:
0:[f2<-0.979164243] yes=1,no=2,missing=1
	1:[f1<11.4906673] yes=3,no=4,missing=3
		3:[f1<10.9782486] yes=7,no=8,missing=7
			7:leaf=0.0249188934
			8:leaf=-0.138886437
		4:[f6<0.160835773] yes=9,no=10,missing=9
			9:leaf=0.0453346483
			10:leaf=-0.00575617328
	2:[f5<10.5] yes=5,no=6,missing=5
		5:[f0<0.0162226558] yes=11,no=12,missing=11
			11:leaf=0.00669798208
			12:leaf=-0.00554488739
		6:[f0<1.1920929e-07] yes=13,no=14,missing=13
			13:leaf=-0.0413987301
			14:leaf=-0.00604745559
booster[163]:
0:[f2<-0.979164243] yes=1,no=2,missing=1
	1:[f1<11.4906673] yes=3,no=4,missing=3
		3:[f1<10.9782486] yes=7,no=8,missing=7
			7:leaf=-0.0249188896
			8:leaf=0.138886437
		4:[f6<0.160835773] yes=9,no=10,missing=9
			9:leaf=-0.0453340523
			10:leaf=0.00575614208
	2:[f5<10.5] yes=5,no=6,missing=5
		5:[f0<0.0162226558] yes=11,no=12,missing=11
			11:leaf=-0.00669797231
			12:leaf=0.00554489065
		6:[f0<1.1920929e-07] yes=13,no=14,missing=13
			13:leaf=0.0413987301
			14:leaf=0.00604745699
booster[164]:
0:[f1<126.575302] yes=1,no=2,missing=1
	1:[f10<0.805941522] yes=3,no=4,missing=3
		3:[f0<0.0150259435] yes=5,no=6,missing=5
			5:leaf=0.0163311176
			6:leaf=-0.00575211458
		4:[f2<-0.733035207] yes=7,no=8,missing=7
			7:leaf=0.0173679721
			8:leaf=-0.0119532961
	2:leaf=0.0494569354
booster[165]:
0:[f1<126.575302] yes=1,no=2,missing=1
	1:[f10<0.805941522] yes=3,no=4,missing=3
		3:[f0<0.0150259435] yes=5,no=6,missing=5
			5:leaf=-0.0163311195
			6:leaf=0.00575211504
		4:[f2<-0.733035207] yes=7,no=8,missing=7
			7:leaf=-0.0173679758
			8:leaf=0.0119532952
	2:leaf=-0.0494568609
booster[166]:
0:[f7<0.0150795784] yes=1,no=2,missing=1
	1:[f5<10.5] yes=3,no=4,missing=3
		3:[f18<0.0169066209] yes=7,no=8,missing=7
			7:leaf=0.019043399
			8:leaf=0.0448005982
		4:[f16<1.06207013] yes=9,no=10,missing=9
			9:leaf=-0.0252579581
			10:leaf=0.0405548029
	2:[f11<-0.80687499] yes=5,no=6,missing=5
		5:[f10<0.88678515] yes=11,no=12,missing=11
			11:leaf=0.00994837005
			12:leaf=-0.00722460402
		6:[f12<-499.515289] yes=13,no=14,missing=13
			13:leaf=-0.0340439118
			14:leaf=0.00430350192
booster[167]:
0:[f7<0.0150795784] yes=1,no=2,missing=1
	1:[f5<10.5] yes=3,no=4,missing=3
		3:[f18<0.0169066209] yes=7,no=8,missing=7
			7:leaf=-0.0190438107
			8:leaf=-0.0448001139
		4:[f16<1.06207013] yes=9,no=10,missing=9
			9:leaf=0.0252580289
			10:leaf=-0.0405547768
	2:[f11<-0.80687499] yes=5,no=6,missing=5
		5:[f10<0.88678515] yes=11,no=12,missing=11
			11:leaf=-0.00994837843
			12:leaf=0.00722460216
		6:[f12<-499.515289] yes=13,no=14,missing=13
			13:leaf=0.0340439044
			14:leaf=-0.00430351729
booster[168]:
0:[f1<126.575302] yes=1,no=2,missing=1
	1:[f22<66.6549225] yes=3,no=4,missing=3
		3:[f0<0.889234424] yes=5,no=6,missing=5
			5:leaf=0.000198042952
			6:leaf=-0.0332068317
		4:[f16<3.11171627] yes=7,no=8,missing=7
			7:leaf=0.0734653547
			8:leaf=0.0370857008
	2:leaf=0.0493482724
booster[169]:
0:[f1<126.575302] yes=1,no=2,missing=1
	1:[f22<66.6549225] yes=3,no=4,missing=3
		3:[f0<0.889234424] yes=5,no=6,missing=5
			5:leaf=-0.000198044072
			6:leaf=0.0332068242
		4:[f16<3.11171627] yes=7,no=8,missing=7
			7:leaf=-0.0734653473
			8:leaf=-0.0370857008
	2:leaf=-0.0493483245
booster[170]:
0:[f15<8.5] yes=1,no=2,missing=1
	1:[f2<0.977438331] yes=3,no=4,missing=3
		3:[f10<0.7538414] yes=7,no=8,missing=7
			7:leaf=0.00519379647
			8:leaf=-0.00540269678
		4:[f7<0.888519526] yes=9,no=10,missing=9
			9:leaf=0.00182477466
			10:leaf=-0.0436917394
	2:[f10<0.915767193] yes=5,no=6,missing=5
		5:[f0<0.467082322] yes=11,no=12,missing=11
			11:leaf=0.0508985706
			12:leaf=-0.0119668944
		6:[f1<6.07403183] yes=13,no=14,missing=13
			13:leaf=-0.0283165257
			14:leaf=0.0381931625
booster[171]:
0:[f15<8.5] yes=1,no=2,missing=1
	1:[f2<0.977438331] yes=3,no=4,missing=3
		3:[f10<0.7538414] yes=7,no=8,missing=7
			7:leaf=-0.00519379787
			8:leaf=0.00540269492
		4:[f7<0.888519526] yes=9,no=10,missing=9
			9:leaf=-0.00182477408
			10:leaf=0.0436917283
	2:[f10<0.915767193] yes=5,no=6,missing=5
		5:[f0<0.467082322] yes=11,no=12,missing=11
			11:leaf=-0.050898578
			12:leaf=0.0119668469
		6:[f1<6.07403183] yes=13,no=14,missing=13
			13:leaf=0.0283165108
			14:leaf=-0.0381931961
booster[172]:
0:[f20<0.168368563] yes=1,no=2,missing=1
	1:[f12<0.0102042593] yes=3,no=4,missing=3
		3:[f5<3] yes=7,no=8,missing=7
			7:leaf=-0.000821024645
			8:leaf=-0.0214455109
		4:[f16<1.0362606] yes=9,no=10,missing=9
			9:leaf=0.0292660426
			10:leaf=-0.00674721366
	2:[f2<-0.916932702] yes=5,no=6,missing=5
		5:[f0<0.0164398551] yes=11,no=12,missing=11
			11:leaf=0.0443241149
			12:leaf=0.0187531095
		6:[f9<0.608629227] yes=13,no=14,missing=13
			13:leaf=0.01206093
			14:leaf=-0.00481202779
booster[173]:
0:[f20<0.168368563] yes=1,no=2,missing=1
	1:[f12<0.0102042593] yes=3,no=4,missing=3
		3:[f5<3] yes=7,no=8,missing=7
			7:leaf=0.000821028196
			8:leaf=0.0214455221
		4:[f16<1.0362606] yes=9,no=10,missing=9
			9:leaf=-0.0292660426
			10:leaf=0.00674718013
	2:[f2<-0.916932702] yes=5,no=6,missing=5
		5:[f0<0.0164398551] yes=11,no=12,missing=11
			11:leaf=-0.0443240516
			12:leaf=-0.0187530257
		6:[f9<0.608629227] yes=13,no=14,missing=13
			13:leaf=-0.0120609216
			14:leaf=0.00481203618
booster[174]:
0:[f1<126.575302] yes=1,no=2,missing=1
	1:[f21<0.0497005619] yes=3,no=4,missing=3
		3:[f5<10.5] yes=5,no=6,missing=5
			5:leaf=-0.000889538787
			6:leaf=-0.0245262962
		4:[f0<0.0195083618] yes=7,no=8,missing=7
			7:leaf=0.0255523957
			8:leaf=-0.00516333384
	2:leaf=0.0491927937
booster[175]:
0:[f1<126.575302] yes=1,no=2,missing=1
	1:[f21<0.0497005619] yes=3,no=4,missing=3
		3:[f5<10.5] yes=5,no=6,missing=5
			5:leaf=0.000889539369
			6:leaf=0.024526298
		4:[f0<0.0195083618] yes=7,no=8,missing=7
			7:leaf=-0.0255523957
			8:leaf=0.00516333384
	2:leaf=-0.0491927266
booster[176]:
0:[f7<0.0125607289] yes=1,no=2,missing=1
	1:[f22<11.5325165] yes=3,no=4,missing=3
		3:[f15<4.5] yes=7,no=8,missing=7
			7:leaf=-0.0334249511
			8:leaf=0.0460305549
		4:[f2<-0.41483444] yes=9,no=10,missing=9
			9:leaf=0.0423599295
			10:leaf=-0.01268725
	2:[f20<0.416773438] yes=5,no=6,missing=5
		5:[f18<0.0556229055] yes=11,no=12,missing=11
			11:leaf=-0.00584234484
			12:leaf=0.00522211194
		6:[f16<2.483845] yes=13,no=14,missing=13
			13:leaf=0.00152546808
			14:leaf=0.0280133616
booster[177]:
0:[f7<0.0125607289] yes=1,no=2,missing=1
	1:[f22<11.5325165] yes=3,no=4,missing=3
		3:[f15<4.5] yes=7,no=8,missing=7
			7:leaf=0.0334257968
			8:leaf=-0.0460303538
		4:[f2<-0.41483444] yes=9,no=10,missing=9
			9:leaf=-0.0423596837
			10:leaf=0.0126873134
	2:[f20<0.416773438] yes=5,no=6,missing=5
		5:[f18<0.0556229055] yes=11,no=12,missing=11
			11:leaf=0.00584234949
			12:leaf=-0.00522207608
		6:[f16<2.483845] yes=13,no=14,missing=13
			13:leaf=-0.00152546773
			14:leaf=-0.0280133486
booster[178]:
0:[f22<68.4446259] yes=1,no=2,missing=1
	1:[f0<0.889234424] yes=3,no=4,missing=3
		3:[f3<57.9098015] yes=7,no=8,missing=7
			7:leaf=0.000122041114
			8:leaf=0.0472339205
		4:[f14<0.00215135468] yes=9,no=10,missing=9
			9:leaf=-0.0130308112
			10:leaf=-0.0434445813
	2:[f16<3.11171627] yes=5,no=6,missing=5
		5:[f6<0.458666712] yes=11,no=12,missing=11
			11:leaf=0.0504488461
			12:leaf=0.10789489
		6:[f16<7.46088982] yes=13,no=14,missing=13
			13:leaf=-0.00679060211
			14:leaf=0.0575205162
booster[179]:
0:[f22<68.4446259] yes=1,no=2,missing=1
	1:[f0<0.889234424] yes=3,no=4,missing=3
		3:[f3<57.9098015] yes=7,no=8,missing=7
			7:leaf=-0.000122038145
			8:leaf=-0.0472336672
		4:[f14<0.00215135468] yes=9,no=10,missing=9
			9:leaf=0.0130307917
			10:leaf=0.0434445739
	2:[f16<3.11171627] yes=5,no=6,missing=5
		5:[f6<0.458666712] yes=11,no=12,missing=11
			11:leaf=-0.0504488461
			12:leaf=-0.107894897
		6:[f16<7.46088982] yes=13,no=14,missing=13
			13:leaf=0.00679063424
			14:leaf=-0.0575206466
booster[180]:
0:[f2<0.953243196] yes=1,no=2,missing=1
	1:[f22<66.6515579] yes=3,no=4,missing=3
		3:[f2<-0.979164243] yes=7,no=8,missing=7
			7:leaf=0.0319249295
			8:leaf=0.000114716044
		4:[f19<0.0420808792] yes=9,no=10,missing=9
			9:leaf=0.0294886678
			10:leaf=0.0650429726
	2:[f2<0.978335261] yes=5,no=6,missing=5
		5:[f6<0.0227179863] yes=11,no=12,missing=11
			11:leaf=0.0829756558
			12:leaf=-0.0174014699
		6:[f9<-1.46376348] yes=13,no=14,missing=13
			13:leaf=-0.0163436309
			14:leaf=-0.0463557988
booster[181]:
0:[f2<0.953243196] yes=1,no=2,missing=1
	1:[f22<66.6515579] yes=3,no=4,missing=3
		3:[f2<-0.979164243] yes=7,no=8,missing=7
			7:leaf=-0.0319245942
			8:leaf=-0.000114709313
		4:[f19<0.0420808792] yes=9,no=10,missing=9
			9:leaf=-0.0294886529
			10:leaf=-0.0650430918
	2:[f2<0.978335261] yes=5,no=6,missing=5
		5:[f6<0.0227179863] yes=11,no=12,missing=11
			11:leaf=-0.0829756632
			12:leaf=0.0174014717
		6:[f9<-1.46376348] yes=13,no=14,missing=13
			13:leaf=0.0163435899
			14:leaf=0.0463557951
booster[182]:
0:[f9<1.30439305] yes=1,no=2,missing=1
	1:[f0<0.01523] yes=3,no=4,missing=3
		3:[f2<-0.625080287] yes=7,no=8,missing=7
			7:leaf=0.0288207382
			8:leaf=0.00235737721
		4:[f7<0.204989463] yes=9,no=10,missing=9
			9:leaf=-0.0189119093
			10:leaf=0.00346844154
	2:[f8<-0.00145446777] yes=5,no=6,missing=5
		5:[f0<0.43283385] yes=11,no=12,missing=11
			11:leaf=0.00538051082
			12:leaf=-0.0302997436
		6:[f8<0.00165344239] yes=13,no=14,missing=13
			13:leaf=-0.0417174138
			14:leaf=-0.00187229726
booster[183]:
0:[f9<1.30439305] yes=1,no=2,missing=1
	1:[f0<0.01523] yes=3,no=4,missing=3
		3:[f2<-0.625080287] yes=7,no=8,missing=7
			7:leaf=-0.0288206842
			8:leaf=-0.00235737721
		4:[f7<0.204989463] yes=9,no=10,missing=9
			9:leaf=0.0189119577
			10:leaf=-0.00346844317
	2:[f8<-0.00145446777] yes=5,no=6,missing=5
		5:[f0<0.43283385] yes=11,no=12,missing=11
			11:leaf=-0.00538049033
			12:leaf=0.0302997567
		6:[f8<0.00165344239] yes=13,no=14,missing=13
			13:leaf=0.0417174287
			14:leaf=0.0018723238
booster[184]:
0:[f15<8.5] yes=1,no=2,missing=1
	1:[f10<0.7538414] yes=3,no=4,missing=3
		3:[f0<0.015026927] yes=7,no=8,missing=7
			7:leaf=0.0151953176
			8:leaf=-0.0052681095
		4:[f21<0.0346338749] yes=9,no=10,missing=9
			9:leaf=-0.0111704273
			10:leaf=0.00960218813
	2:[f10<0.915767193] yes=5,no=6,missing=5
		5:[f0<0.467082322] yes=11,no=12,missing=11
			11:leaf=0.0500672944
			12:leaf=-0.0113113727
		6:[f16<8.46194077] yes=13,no=14,missing=13
			13:leaf=-0.0167244766
			14:leaf=0.048511371
booster[185]:
0:[f15<8.5] yes=1,no=2,missing=1
	1:[f10<0.7538414] yes=3,no=4,missing=3
		3:[f0<0.015026927] yes=7,no=8,missing=7
			7:leaf=-0.0151952682
			8:leaf=0.00526811741
		4:[f21<0.0346338749] yes=9,no=10,missing=9
			9:leaf=0.0111704273
			10:leaf=-0.00960218813
	2:[f10<0.915767193] yes=5,no=6,missing=5
		5:[f0<0.467082322] yes=11,no=12,missing=11
			11:leaf=-0.0500672944
			12:leaf=0.0113113998
		6:[f16<8.46194077] yes=13,no=14,missing=13
			13:leaf=0.016724607
			14:leaf=-0.0485113561
booster[186]:
0:[f2<0.977438331] yes=1,no=2,missing=1
	1:[f11<-1.02016783] yes=3,no=4,missing=3
		3:[f2<-0.13075009] yes=7,no=8,missing=7
			7:leaf=0.0136445938
			8:leaf=-0.0016211858
		4:[f5<5.5] yes=9,no=10,missing=9
			9:leaf=-0.0514838882
			10:leaf=-0.000304147979
	2:[f7<0.888519526] yes=5,no=6,missing=5
		5:[f9<1.60329831] yes=11,no=12,missing=11
			11:leaf=0.063130483
			12:leaf=-0.0449627638
		6:[f19<0.309918344] yes=13,no=14,missing=13
			13:leaf=-0.0430281647
			14:leaf=0.0202681981
booster[187]:
0:[f2<0.977438331] yes=1,no=2,missing=1
	1:[f11<-1.02016783] yes=3,no=4,missing=3
		3:[f2<-0.13075009] yes=7,no=8,missing=7
			7:leaf=-0.0136445714
			8:leaf=0.00162118697
		4:[f5<5.5] yes=9,no=10,missing=9
			9:leaf=0.0514839254
			10:leaf=0.000304237794
	2:[f7<0.888519526] yes=5,no=6,missing=5
		5:[f9<1.60329831] yes=11,no=12,missing=11
			11:leaf=-0.0631304905
			12:leaf=0.0449627638
		6:[f19<0.309918344] yes=13,no=14,missing=13
			13:leaf=0.0430281609
			14:leaf=-0.0202682018
booster[188]:
0:[f22<69.0751724] yes=1,no=2,missing=1
	1:[f0<0.938755035] yes=3,no=4,missing=3
		3:[f10<0.75384748] yes=7,no=8,missing=7
			7:leaf=0.00469654705
			8:leaf=-0.00462954352
		4:[f7<0.88812542] yes=9,no=10,missing=9
			9:leaf=-0.00585742388
			10:leaf=-0.0436074734
	2:[f16<3.11171627] yes=5,no=6,missing=5
		5:[f19<0.231613725] yes=11,no=12,missing=11
			11:leaf=0.0786711499
			12:leaf=-0.00276547088
		6:[f16<6.77060127] yes=13,no=14,missing=13
			13:leaf=-0.0113924844
			14:leaf=0.0524601899
booster[189]:
0:[f22<69.0751724] yes=1,no=2,missing=1
	1:[f0<0.938755035] yes=3,no=4,missing=3
		3:[f10<0.75384748] yes=7,no=8,missing=7
			7:leaf=-0.00469653355
			8:leaf=0.0046295491
		4:[f7<0.88812542] yes=9,no=10,missing=9
			9:leaf=0.00585742807
			10:leaf=0.0436074771
	2:[f16<3.11171627] yes=5,no=6,missing=5
		5:[f19<0.231613725] yes=11,no=12,missing=11
			11:leaf=-0.0786711425
			12:leaf=0.00276545738
		6:[f16<6.77060127] yes=13,no=14,missing=13
			13:leaf=0.0113924993
			14:leaf=-0.0524602048
booster[190]:
0:[f20<0.415727019] yes=1,no=2,missing=1
	1:[f12<0.00584194763] yes=3,no=4,missing=3
		3:[f5<3] yes=7,no=8,missing=7
			7:leaf=0.000818172761
			8:leaf=-0.0151715251
		4:[f0<0.015024662] yes=9,no=10,missing=9
			9:leaf=0.0239906441
			10:leaf=-0.00390125625
	2:[f16<2.483845] yes=5,no=6,missing=5
		5:[f2<-0.211059853] yes=11,no=12,missing=11
			11:leaf=0.0196094848
			12:leaf=-0.0084692575
		6:[f11<-1.78551972] yes=13,no=14,missing=13
			13:leaf=0.0372207016
			14:leaf=0.00470924703
booster[191]:
0:[f20<0.415727019] yes=1,no=2,missing=1
	1:[f12<0.00584194763] yes=3,no=4,missing=3
		3:[f5<3] yes=7,no=8,missing=7
			7:leaf=-0.000818168395
			8:leaf=0.0151715325
		4:[f0<0.015024662] yes=9,no=10,missing=9
			9:leaf=-0.0239904802
			10:leaf=0.00390129886
	2:[f16<2.483845] yes=5,no=6,missing=5
		5:[f2<-0.211059853] yes=11,no=12,missing=11
			11:leaf=-0.0196094792
			12:leaf=0.00846925937
		6:[f11<-1.78551972] yes=13,no=14,missing=13
			13:leaf=-0.0372206941
			14:leaf=-0.00470918091
booster[192]:
0:[f1<126.575302] yes=1,no=2,missing=1
	1:[f21<0.0533613712] yes=3,no=4,missing=3
		3:[f5<10.5] yes=5,no=6,missing=5
			5:leaf=-0.000588089868
			6:leaf=-0.0211073775
		4:[f0<0.0195083618] yes=7,no=8,missing=7
			7:leaf=0.0239812937
			8:leaf=-0.00405828981
	2:leaf=0.0487759449
booster[193]:
0:[f1<126.575302] yes=1,no=2,missing=1
	1:[f21<0.0533613712] yes=3,no=4,missing=3
		3:[f5<10.5] yes=5,no=6,missing=5
			5:leaf=0.000588090334
			6:leaf=0.0211073775
		4:[f0<0.0195083618] yes=7,no=8,missing=7
			7:leaf=-0.0239812937
			8:leaf=0.00405829074
	2:leaf=-0.0487757772
booster[194]:
0:[f7<0.0125607289] yes=1,no=2,missing=1
	1:[f22<11.5325165] yes=3,no=4,missing=3
		3:[f15<4.5] yes=7,no=8,missing=7
			7:leaf=-0.0340513289
			8:leaf=0.0450218804
		4:[f9<4.66938782] yes=9,no=10,missing=9
			9:leaf=0.0415378697
			10:leaf=-0.00147299806
	2:[f5<3] yes=5,no=6,missing=5
		5:[f2<-0.372522771] yes=11,no=12,missing=11
			11:leaf=0.0162004568
			12:leaf=-0.00166405959
		6:[f12<-499.515289] yes=13,no=14,missing=13
			13:leaf=-0.0258252416
			14:leaf=0.00498979213
booster[195]:
0:[f7<0.0125607289] yes=1,no=2,missing=1
	1:[f22<11.5325165] yes=3,no=4,missing=3
		3:[f15<4.5] yes=7,no=8,missing=7
			7:leaf=0.034051951
			8:leaf=-0.0450219736
		4:[f9<4.66938782] yes=9,no=10,missing=9
			9:leaf=-0.0415377654
			10:leaf=0.00147315848
	2:[f5<3] yes=5,no=6,missing=5
		5:[f2<-0.372522771] yes=11,no=12,missing=11
			11:leaf=-0.016200453
			12:leaf=0.00166405889
		6:[f12<-499.515289] yes=13,no=14,missing=13
			13:leaf=0.0258252472
			14:leaf=-0.00498977862
booster[196]:
0:[f2<0.978335261] yes=1,no=2,missing=1
	1:[f10<0.886541247] yes=3,no=4,missing=3
		3:[f0<0.0162226558] yes=7,no=8,missing=7
			7:leaf=0.0119469948
			8:leaf=-0.00364980265
		4:[f10<0.995086432] yes=9,no=10,missing=9
			9:leaf=-0.0239927378
			10:leaf=0.00491094263
	2:[f3<1.14504695] yes=5,no=6,missing=5
		5:[f10<-0.5] yes=11,no=12,missing=11
			11:leaf=0.021642061
			12:leaf=-0.0428470038
		6:[f10<0.653224945] yes=13,no=14,missing=13
			13:leaf=-0.0332990512
			14:leaf=0.0741927251
booster[197]:
0:[f2<0.978335261] yes=1,no=2,missing=1
	1:[f10<0.886541247] yes=3,no=4,missing=3
		3:[f0<0.0162226558] yes=7,no=8,missing=7
			7:leaf=-0.011946952
			8:leaf=0.00364981196
		4:[f10<0.995086432] yes=9,no=10,missing=9
			9:leaf=0.0239927452
			10:leaf=-0.0049109417
	2:[f3<1.14504695] yes=5,no=6,missing=5
		5:[f10<-0.5] yes=11,no=12,missing=11
			11:leaf=-0.0216420572
			12:leaf=0.0428470112
		6:[f10<0.653224945] yes=13,no=14,missing=13
			13:leaf=0.0332990587
			14:leaf=-0.0741927624
booster[198]:
0:[f22<69.0751724] yes=1,no=2,missing=1
	1:[f9<1.87165332] yes=3,no=4,missing=3
		3:[f20<0.16985324] yes=7,no=8,missing=7
			7:leaf=-0.00187083951
			8:leaf=0.00809639599
		4:[f14<0.0140641173] yes=9,no=10,missing=9
			9:leaf=-0.0147509752
			10:leaf=0.00503177661
	2:[f16<3.21012306] yes=5,no=6,missing=5
		5:[f19<0.231613725] yes=11,no=12,missing=11
			11:leaf=0.0758841559
			12:leaf=-0.00306076487
		6:[f16<6.77060127] yes=13,no=14,missing=13
			13:leaf=-0.0125927031
			14:leaf=0.0510114208
booster[199]:
0:[f22<69.0751724] yes=1,no=2,missing=1
	1:[f9<1.87165332] yes=3,no=4,missing=3
		3:[f20<0.16985324] yes=7,no=8,missing=7
			7:leaf=0.00187087839
			8:leaf=-0.00809637085
		4:[f14<0.0140641173] yes=9,no=10,missing=9
			9:leaf=0.0147509938
			10:leaf=-0.00503175473
	2:[f16<3.21012306] yes=5,no=6,missing=5
		5:[f19<0.231613725] yes=11,no=12,missing=11
			11:leaf=-0.0758841559
			12:leaf=0.00306074391
		6:[f16<6.77060127] yes=13,no=14,missing=13
			13:leaf=0.0125927171
			14:leaf=-0.051011432
